<?xml version="1.0"?>
<opencv_storage>
<stage11>
  <maxWeakCount>26</maxWeakCount>
  <stageThreshold>-3.8189637660980225e-01</stageThreshold>
  <weakClassifiers>
    <_>
      <internalNodes>
        0 -1 124909 -1.8063023686408997e-02</internalNodes>
      <leafValues>
        8.3227622509002686e-01 2.8755363821983337e-01</leafValues></_>
    <_>
      <internalNodes>
        0 -1 67684 -9.2062368988990784e-02</internalNodes>
      <leafValues>
        7.6731783151626587e-01 -2.2514590993523598e-02</leafValues></_>
    <_>
      <internalNodes>
        0 -1 69259 -8.1866025924682617e-02</internalNodes>
      <leafValues>
        7.3546177148818970e-01 -9.1920077800750732e-02</leafValues></_>
    <_>
      <internalNodes>
        0 -1 123811 1.7342835199087858e-03</internalNodes>
      <leafValues>
        2.7707013487815857e-01 -3.5067430138587952e-01</leafValues></_>
    <_>
      <internalNodes>
        0 -1 103630 1.5210509300231934e-02</internalNodes>
      <leafValues>
        -1.3693170249462128e-01 6.4438533782958984e-01</leafValues></_>
    <_>
      <internalNodes>
        0 -1 3903 4.4584032148122787e-03</internalNodes>
      <leafValues>
        -1.6028957068920135e-01 4.0703600645065308e-01</leafValues></_>
    <_>
      <internalNodes>
        0 -1 9361 -4.0671383030712605e-03</internalNodes>
      <leafValues>
        -3.5996371507644653e-01 1.9431452453136444e-01</leafValues></_>
    <_>
      <internalNodes>
        0 -1 34656 3.5095855128020048e-04</internalNodes>
      <leafValues>
        2.5983721017837524e-01 -2.5347325205802917e-01</leafValues></_>
    <_>
      <internalNodes>
        0 -1 109532 3.4629045985639095e-03</internalNodes>
      <leafValues>
        2.1495883166790009e-01 -2.6129704713821411e-01</leafValues></_>
    <_>
      <internalNodes>
        0 -1 4361 1.2877263361588120e-04</internalNodes>
      <leafValues>
        -1.8828824162483215e-01 3.0214697122573853e-01</leafValues></_>
    <_>
      <internalNodes>
        0 -1 61019 2.9464442282915115e-02</internalNodes>
      <leafValues>
        -6.4003705978393555e-02 7.8168559074401855e-01</leafValues></_>
    <_>
      <internalNodes>
        0 -1 71797 2.1488377824425697e-02</internalNodes>
      <leafValues>
        -4.7756195068359375e-02 9.3477624654769897e-01</leafValues></_>
    <_>
      <internalNodes>
        0 -1 16163 1.6519248485565186e-02</internalNodes>
      <leafValues>
        -1.0906989127397537e-01 4.4018873572349548e-01</leafValues></_>
    <_>
      <internalNodes>
        0 -1 19354 -3.9617465808987617e-03</internalNodes>
      <leafValues>
        3.0001437664031982e-01 -1.9235208630561829e-01</leafValues></_>
    <_>
      <internalNodes>
        0 -1 108093 2.2855307906866074e-02</internalNodes>
      <leafValues>
        -9.3312501907348633e-02 5.7362061738967896e-01</leafValues></_>
    <_>
      <internalNodes>
        0 -1 17987 9.7249698592349887e-04</internalNodes>
      <leafValues>
        2.0844221115112305e-01 -2.5898337364196777e-01</leafValues></_>
    <_>
      <internalNodes>
        0 -1 34900 -6.7070373333990574e-03</internalNodes>
      <leafValues>
        2.9474082589149475e-01 -1.7927373945713043e-01</leafValues></_>
    <_>
      <internalNodes>
        0 -1 4928 -3.2550856471061707e-02</internalNodes>
      <leafValues>
        7.8399759531021118e-01 -6.6577814519405365e-02</leafValues></_>
    <_>
      <internalNodes>
        0 -1 75800 1.3718942645937204e-03</internalNodes>
      <leafValues>
        1.6411882638931274e-01 -3.6198654770851135e-01</leafValues></_>
    <_>
      <internalNodes>
        0 -1 99602 3.6391799803823233e-03</internalNodes>
      <leafValues>
        1.7406348884105682e-01 -3.2371699810028076e-01</leafValues></_>
    <_>
      <internalNodes>
        0 -1 109072 1.7822969704866409e-02</internalNodes>
      <leafValues>
        -1.4330691099166870e-01 3.7332367897033691e-01</leafValues></_>
    <_>
      <internalNodes>
        0 -1 111687 -2.7943846583366394e-01</internalNodes>
      <leafValues>
        5.9933465719223022e-01 -8.6659118533134460e-02</leafValues></_>
    <_>
      <internalNodes>
        0 -1 97838 1.5319604426622391e-04</internalNodes>
      <leafValues>
        -1.9616279006004333e-01 2.9735791683197021e-01</leafValues></_>
    <_>
      <internalNodes>
        0 -1 56007 1.3989435508847237e-02</internalNodes>
      <leafValues>
        6.9736897945404053e-02 -8.4467202425003052e-01</leafValues></_>
    <_>
      <internalNodes>
        0 -1 59175 -1.3618933968245983e-02</internalNodes>
      <leafValues>
        -5.7342290878295898e-01 8.3632431924343109e-02</leafValues></_>
    <_>
      <internalNodes>
        0 -1 93956 -9.1269761323928833e-02</internalNodes>
      <leafValues>
        -5.4273045063018799e-01 9.4217956066131592e-02</leafValues></_></weakClassifiers></stage11>
</opencv_storage>
