<?xml version="1.0"?>
<opencv_storage>
<stage20>
  <maxWeakCount>14</maxWeakCount>
  <stageThreshold>-5.3577822446823120e-01</stageThreshold>
  <weakClassifiers>
    <_>
      <internalNodes>
        0 -1 81030 -3.5689212381839752e-02</internalNodes>
      <leafValues>
        2.6881720870733261e-02 7.8579610586166382e-01</leafValues></_>
    <_>
      <internalNodes>
        0 -1 58148 -2.2481080889701843e-01</internalNodes>
      <leafValues>
        1. 4.1024177335202694e-03</leafValues></_>
    <_>
      <internalNodes>
        0 -1 123516 -6.1741685494780540e-03</internalNodes>
      <leafValues>
        -4.8272177577018738e-01 3.4498602151870728e-01</leafValues></_>
    <_>
      <internalNodes>
        0 -1 67122 -1.5800013206899166e-03</internalNodes>
      <leafValues>
        7.1312892436981201e-01 -2.4067661166191101e-01</leafValues></_>
    <_>
      <internalNodes>
        0 -1 99348 -2.5431618094444275e-02</internalNodes>
      <leafValues>
        -5.6229299306869507e-01 2.7151921391487122e-01</leafValues></_>
    <_>
      <internalNodes>
        0 -1 19364 -2.8820133302360773e-03</internalNodes>
      <leafValues>
        1. -1.7470087110996246e-01</leafValues></_>
    <_>
      <internalNodes>
        0 -1 94019 2.2467195987701416e-02</internalNodes>
      <leafValues>
        -2.5718826055526733e-01 4.8443266749382019e-01</leafValues></_>
    <_>
      <internalNodes>
        0 -1 30519 -7.6395347714424133e-03</internalNodes>
      <leafValues>
        -3.9491963386535645e-01 3.4934511780738831e-01</leafValues></_>
    <_>
      <internalNodes>
        0 -1 9556 1.1991752544417977e-03</internalNodes>
      <leafValues>
        3.3900865912437439e-01 -4.3004941940307617e-01</leafValues></_>
    <_>
      <internalNodes>
        0 -1 124777 5.2584742661565542e-04</internalNodes>
      <leafValues>
        5.0402957201004028e-01 -3.2516884803771973e-01</leafValues></_>
    <_>
      <internalNodes>
        0 -1 37822 2.6738055050373077e-02</internalNodes>
      <leafValues>
        -2.0204485952854156e-01 8.5022401809692383e-01</leafValues></_>
    <_>
      <internalNodes>
        0 -1 63918 -1.4432880561798811e-03</internalNodes>
      <leafValues>
        -4.2342257499694824e-01 3.8416013121604919e-01</leafValues></_>
    <_>
      <internalNodes>
        0 -1 103938 -1.2685085646808147e-02</internalNodes>
      <leafValues>
        8.7821400165557861e-01 -1.8085485696792603e-01</leafValues></_>
    <_>
      <internalNodes>
        0 -1 41005 1.4571655774489045e-03</internalNodes>
      <leafValues>
        -1.4235445857048035e-01 8.6077052354812622e-01</leafValues></_></weakClassifiers></stage20>
</opencv_storage>
