<?xml version="1.0"?>
<opencv_storage>
<stage3>
  <maxWeakCount>28</maxWeakCount>
  <stageThreshold>-3.3585405349731445e-01</stageThreshold>
  <weakClassifiers>
    <_>
      <internalNodes>
        0 -1 30240 -5.7562774419784546e-01</internalNodes>
      <leafValues>
        9.2270100116729736e-01 3.4609571099281311e-01</leafValues></_>
    <_>
      <internalNodes>
        0 -1 78835 2.9843859374523163e-02</internalNodes>
      <leafValues>
        -4.2499460279941559e-02 7.8254318237304688e-01</leafValues></_>
    <_>
      <internalNodes>
        0 -1 7736 -6.1919610947370529e-02</internalNodes>
      <leafValues>
        7.9489940404891968e-01 -6.9953948259353638e-02</leafValues></_>
    <_>
      <internalNodes>
        0 -1 58941 -2.8687069192528725e-02</internalNodes>
      <leafValues>
        -5.7197099924087524e-01 1.0830048471689224e-01</leafValues></_>
    <_>
      <internalNodes>
        0 -1 36618 -5.2010221406817436e-03</internalNodes>
      <leafValues>
        3.5801497101783752e-01 -2.1095143258571625e-01</leafValues></_>
    <_>
      <internalNodes>
        0 -1 115316 -1.3760812580585480e-02</internalNodes>
      <leafValues>
        7.0235365629196167e-01 -8.2324482500553131e-02</leafValues></_>
    <_>
      <internalNodes>
        0 -1 44314 9.1351225972175598e-02</internalNodes>
      <leafValues>
        -4.9671135842800140e-02 8.9623016119003296e-01</leafValues></_>
    <_>
      <internalNodes>
        0 -1 16708 -1.8465284258127213e-02</internalNodes>
      <leafValues>
        6.1176347732543945e-01 -6.5600506961345673e-02</leafValues></_>
    <_>
      <internalNodes>
        0 -1 70866 8.2610361278057098e-03</internalNodes>
      <leafValues>
        -1.3626335561275482e-01 3.4097605943679810e-01</leafValues></_>
    <_>
      <internalNodes>
        0 -1 88607 7.6853670179843903e-03</internalNodes>
      <leafValues>
        5.5665556341409683e-02 -6.2052983045578003e-01</leafValues></_>
    <_>
      <internalNodes>
        0 -1 118013 3.4473178675398231e-04</internalNodes>
      <leafValues>
        -1.8361172080039978e-01 2.9428535699844360e-01</leafValues></_>
    <_>
      <internalNodes>
        0 -1 3 1.0052639991044998e-03</internalNodes>
      <leafValues>
        1.1739989370107651e-01 -4.5375353097915649e-01</leafValues></_>
    <_>
      <internalNodes>
        0 -1 114960 -1.4174714684486389e-02</internalNodes>
      <leafValues>
        -5.6946998834609985e-01 8.7577588856220245e-02</leafValues></_>
    <_>
      <internalNodes>
        0 -1 56961 -4.0100207552313805e-03</internalNodes>
      <leafValues>
        3.6013376712799072e-01 -1.4324207603931427e-01</leafValues></_>
    <_>
      <internalNodes>
        0 -1 57725 3.9632739499211311e-03</internalNodes>
      <leafValues>
        -1.0118976235389709e-01 4.7798600792884827e-01</leafValues></_>
    <_>
      <internalNodes>
        0 -1 83506 1.9372148672118783e-03</internalNodes>
      <leafValues>
        -1.4418111741542816e-01 3.0841359496116638e-01</leafValues></_>
    <_>
      <internalNodes>
        0 -1 55473 2.6774872094392776e-03</internalNodes>
      <leafValues>
        -1.2889730930328369e-01 3.7661248445510864e-01</leafValues></_>
    <_>
      <internalNodes>
        0 -1 61009 -1.7204996198415756e-02</internalNodes>
      <leafValues>
        6.2888300418853760e-01 -7.4822157621383667e-02</leafValues></_>
    <_>
      <internalNodes>
        0 -1 70649 2.0975223742425442e-03</internalNodes>
      <leafValues>
        1.4473877847194672e-01 -4.1589063405990601e-01</leafValues></_>
    <_>
      <internalNodes>
        0 -1 55613 -2.4066525511443615e-03</internalNodes>
      <leafValues>
        -3.8147297501564026e-01 1.1924456059932709e-01</leafValues></_>
    <_>
      <internalNodes>
        0 -1 111113 7.8482124954462051e-03</internalNodes>
      <leafValues>
        -9.9918641149997711e-02 4.9222052097320557e-01</leafValues></_>
    <_>
      <internalNodes>
        0 -1 100474 -5.0355861894786358e-03</internalNodes>
      <leafValues>
        -3.8715684413909912e-01 1.1947681009769440e-01</leafValues></_>
    <_>
      <internalNodes>
        0 -1 67086 2.3745945654809475e-03</internalNodes>
      <leafValues>
        -1.2304674834012985e-01 4.1588792204856873e-01</leafValues></_>
    <_>
      <internalNodes>
        0 -1 38416 1.2157894670963287e-01</internalNodes>
      <leafValues>
        -5.6574627757072449e-02 7.2069984674453735e-01</leafValues></_>
    <_>
      <internalNodes>
        0 -1 105571 3.9388393051922321e-03</internalNodes>
      <leafValues>
        1.1092633008956909e-01 -4.0370947122573853e-01</leafValues></_>
    <_>
      <internalNodes>
        0 -1 83087 1.3478316832333803e-03</internalNodes>
      <leafValues>
        -1.5773971378803253e-01 3.0493992567062378e-01</leafValues></_>
    <_>
      <internalNodes>
        0 -1 119161 1.8942199647426605e-02</internalNodes>
      <leafValues>
        1.0221187770366669e-01 -4.6684291958808899e-01</leafValues></_>
    <_>
      <internalNodes>
        0 -1 119700 1.1416380293667316e-02</internalNodes>
      <leafValues>
        -6.5236449241638184e-02 8.0751019716262817e-01</leafValues></_></weakClassifiers></stage3>
</opencv_storage>
