<?xml version="1.0"?>
<opencv_storage>
<stage1>
  <maxWeakCount>40</maxWeakCount>
  <stageThreshold>-3.7545183300971985e-01</stageThreshold>
  <weakClassifiers>
    <_>
      <internalNodes>
        0 -1 121913 -1.5692242980003357e-01</internalNodes>
      <leafValues>
        9.4773042201995850e-01 3.3917275071144104e-01</leafValues></_>
    <_>
      <internalNodes>
        0 -1 7259 -6.9990977644920349e-02</internalNodes>
      <leafValues>
        8.5198402404785156e-01 -8.2243885844945908e-03</leafValues></_>
    <_>
      <internalNodes>
        0 -1 78122 8.7163358926773071e-02</internalNodes>
      <leafValues>
        -2.8022957965731621e-02 9.3915379047393799e-01</leafValues></_>
    <_>
      <internalNodes>
        0 -1 122904 -1.1925304308533669e-02</internalNodes>
      <leafValues>
        -7.8529798984527588e-01 7.2485633194446564e-02</leafValues></_>
    <_>
      <internalNodes>
        0 -1 9049 1.6378643922507763e-03</internalNodes>
      <leafValues>
        1.0494210571050644e-01 -4.0174001455307007e-01</leafValues></_>
    <_>
      <internalNodes>
        0 -1 50136 -2.8965961188077927e-02</internalNodes>
      <leafValues>
        3.0786520242691040e-01 -1.4695815742015839e-01</leafValues></_>
    <_>
      <internalNodes>
        0 -1 111024 -7.1739830076694489e-02</internalNodes>
      <leafValues>
        6.6415470838546753e-01 -7.9634383320808411e-02</leafValues></_>
    <_>
      <internalNodes>
        0 -1 83909 -4.5624911785125732e-02</internalNodes>
      <leafValues>
        9.7275149822235107e-01 -3.9711304008960724e-02</leafValues></_>
    <_>
      <internalNodes>
        0 -1 113271 -1.8201855942606926e-02</internalNodes>
      <leafValues>
        4.9537143111228943e-01 -7.3515728116035461e-02</leafValues></_>
    <_>
      <internalNodes>
        0 -1 69419 -8.4125967696309090e-03</internalNodes>
      <leafValues>
        -4.7313639521598816e-01 9.3771167099475861e-02</leafValues></_>
    <_>
      <internalNodes>
        0 -1 122895 -1.0744124650955200e-02</internalNodes>
      <leafValues>
        -5.6863027811050415e-01 6.5412834286689758e-02</leafValues></_>
    <_>
      <internalNodes>
        0 -1 96905 9.4757303595542908e-03</internalNodes>
      <leafValues>
        -1.3984516263008118e-01 2.8988593816757202e-01</leafValues></_>
    <_>
      <internalNodes>
        0 -1 77223 2.8776109218597412e-02</internalNodes>
      <leafValues>
        -4.3443866074085236e-02 7.6568377017974854e-01</leafValues></_>
    <_>
      <internalNodes>
        0 -1 14161 -9.7864251583814621e-03</internalNodes>
      <leafValues>
        3.5397100448608398e-01 -9.1666333377361298e-02</leafValues></_>
    <_>
      <internalNodes>
        0 -1 10782 -1.8613490462303162e-01</internalNodes>
      <leafValues>
        8.3306527137756348e-01 -4.0365844964981079e-02</leafValues></_>
    <_>
      <internalNodes>
        0 -1 92200 3.8963355123996735e-02</internalNodes>
      <leafValues>
        -7.4176527559757233e-02 4.2314550280570984e-01</leafValues></_>
    <_>
      <internalNodes>
        0 -1 46386 -2.6743935421109200e-02</internalNodes>
      <leafValues>
        5.4354304075241089e-01 -7.5768388807773590e-02</leafValues></_>
    <_>
      <internalNodes>
        0 -1 65773 -2.0126681774854660e-03</internalNodes>
      <leafValues>
        2.3901887238025665e-01 -1.6773767769336700e-01</leafValues></_>
    <_>
      <internalNodes>
        0 -1 50573 1.1695383116602898e-02</internalNodes>
      <leafValues>
        -1.6863316297531128e-01 2.3783457279205322e-01</leafValues></_>
    <_>
      <internalNodes>
        0 -1 86976 -1.1760522611439228e-02</internalNodes>
      <leafValues>
        -5.4498666524887085e-01 6.9559566676616669e-02</leafValues></_>
    <_>
      <internalNodes>
        0 -1 61904 -2.2103644907474518e-02</internalNodes>
      <leafValues>
        2.8865411877632141e-01 -1.3427029550075531e-01</leafValues></_>
    <_>
      <internalNodes>
        0 -1 59809 9.5827631652355194e-02</internalNodes>
      <leafValues>
        8.0767452716827393e-02 -4.3503499031066895e-01</leafValues></_>
    <_>
      <internalNodes>
        0 -1 66917 4.5615151524543762e-02</internalNodes>
      <leafValues>
        1.9942408800125122e-01 -2.2750371694564819e-01</leafValues></_>
    <_>
      <internalNodes>
        0 -1 104237 1.1860433965921402e-02</internalNodes>
      <leafValues>
        -6.4905934035778046e-02 5.1383048295974731e-01</leafValues></_>
    <_>
      <internalNodes>
        0 -1 2831 1.5094021335244179e-02</internalNodes>
      <leafValues>
        1.1905850470066071e-01 -3.3817061781883240e-01</leafValues></_>
    <_>
      <internalNodes>
        0 -1 6007 -7.3008805513381958e-02</internalNodes>
      <leafValues>
        4.8262467980384827e-01 -8.1269726157188416e-02</leafValues></_>
    <_>
      <internalNodes>
        0 -1 71656 -1.2724991887807846e-02</internalNodes>
      <leafValues>
        3.9939576387405396e-01 -8.8564202189445496e-02</leafValues></_>
    <_>
      <internalNodes>
        0 -1 54445 -4.0465723723173141e-02</internalNodes>
      <leafValues>
        8.3802980184555054e-01 -3.5828050225973129e-02</leafValues></_>
    <_>
      <internalNodes>
        0 -1 101013 -5.2588628605008125e-03</internalNodes>
      <leafValues>
        -7.4529445171356201e-01 5.6780163198709488e-02</leafValues></_>
    <_>
      <internalNodes>
        0 -1 61850 -7.5163170695304871e-03</internalNodes>
      <leafValues>
        2.6567950844764709e-01 -1.3615250587463379e-01</leafValues></_>
    <_>
      <internalNodes>
        0 -1 100263 1.5028603374958038e-02</internalNodes>
      <leafValues>
        -6.6457793116569519e-02 5.6586962938308716e-01</leafValues></_>
    <_>
      <internalNodes>
        0 -1 100061 -8.0704549327492714e-04</internalNodes>
      <leafValues>
        2.0573706924915314e-01 -1.7038567364215851e-01</leafValues></_>
    <_>
      <internalNodes>
        0 -1 121924 2.8104707598686218e-03</internalNodes>
      <leafValues>
        8.4145911037921906e-02 -4.5745530724525452e-01</leafValues></_>
    <_>
      <internalNodes>
        0 -1 94382 -2.4320136755704880e-02</internalNodes>
      <leafValues>
        -5.4807043075561523e-01 5.4901059716939926e-02</leafValues></_>
    <_>
      <internalNodes>
        0 -1 1503 1.3947917148470879e-02</internalNodes>
      <leafValues>
        8.9556366205215454e-02 -3.6278223991394043e-01</leafValues></_>
    <_>
      <internalNodes>
        0 -1 124087 -1.9916804507374763e-02</internalNodes>
      <leafValues>
        3.2830947637557983e-01 -1.0736272484064102e-01</leafValues></_>
    <_>
      <internalNodes>
        0 -1 114855 2.8958969051018357e-04</internalNodes>
      <leafValues>
        1.2815068662166595e-01 -2.6460817456245422e-01</leafValues></_>
    <_>
      <internalNodes>
        0 -1 115071 -1.2985004577785730e-03</internalNodes>
      <leafValues>
        2.6477900147438049e-01 -1.4117538928985596e-01</leafValues></_>
    <_>
      <internalNodes>
        0 -1 59748 2.6305234059691429e-03</internalNodes>
      <leafValues>
        -1.3541793823242188e-01 2.7118349075317383e-01</leafValues></_>
    <_>
      <internalNodes>
        0 -1 120474 1.5152039704844356e-03</internalNodes>
      <leafValues>
        7.0383124053478241e-02 -5.0197911262512207e-01</leafValues></_></weakClassifiers></stage1>
</opencv_storage>
