<?xml version="1.0"?>
<opencv_storage>
<stage3>
  <maxWeakCount>7</maxWeakCount>
  <stageThreshold>-1.3148393630981445e+00</stageThreshold>
  <weakClassifiers>
    <_>
      <internalNodes>
        0 -1 78499 7.3803901672363281e-02</internalNodes>
      <leafValues>
        -6.7852759361267090e-01 7.5296914577484131e-01</leafValues></_>
    <_>
      <internalNodes>
        0 -1 16801 -9.2036247253417969e-02</internalNodes>
      <leafValues>
        7.1664404869079590e-01 -4.3704780936241150e-01</leafValues></_>
    <_>
      <internalNodes>
        0 -1 9560 1.6663325950503349e-03</internalNodes>
      <leafValues>
        3.3808532357215881e-01 -6.6559880971908569e-01</leafValues></_>
    <_>
      <internalNodes>
        0 -1 97951 -5.2230559289455414e-02</internalNodes>
      <leafValues>
        9.2773824930191040e-01 -2.2518607974052429e-01</leafValues></_>
    <_>
      <internalNodes>
        0 -1 57185 -8.2954801619052887e-02</internalNodes>
      <leafValues>
        5.1377803087234497e-01 -3.7392634153366089e-01</leafValues></_>
    <_>
      <internalNodes>
        0 -1 23636 1.0462866630405188e-03</internalNodes>
      <leafValues>
        3.6984884738922119e-01 -5.7919412851333618e-01</leafValues></_>
    <_>
      <internalNodes>
        0 -1 99891 -3.4400345757603645e-03</internalNodes>
      <leafValues>
        -7.3589831590652466e-01 1.8620394170284271e-01</leafValues></_></weakClassifiers></stage3>
</opencv_storage>
