<?xml version="1.0"?>
<opencv_storage>
<stage1>
  <maxWeakCount>7</maxWeakCount>
  <stageThreshold>-1.3081729412078857e+00</stageThreshold>
  <weakClassifiers>
    <_>
      <internalNodes>
        0 -1 15107 -4.6023106575012207e-01</internalNodes>
      <leafValues>
        8.2417583465576172e-01 -7.8233033418655396e-01</leafValues></_>
    <_>
      <internalNodes>
        0 -1 72614 -1.4498588442802429e-01</internalNodes>
      <leafValues>
        8.0642765760421753e-01 -4.3911874294281006e-01</leafValues></_>
    <_>
      <internalNodes>
        0 -1 840 2.6718657463788986e-02</internalNodes>
      <leafValues>
        2.6027068495750427e-01 -8.9987188577651978e-01</leafValues></_>
    <_>
      <internalNodes>
        0 -1 73611 -2.6075174100697041e-03</internalNodes>
      <leafValues>
        -7.1054601669311523e-01 2.1024231612682343e-01</leafValues></_>
    <_>
      <internalNodes>
        0 -1 10830 -3.0144563061185181e-04</internalNodes>
      <leafValues>
        4.0337711572647095e-01 -4.8427456617355347e-01</leafValues></_>
    <_>
      <internalNodes>
        0 -1 108293 4.0552206337451935e-02</internalNodes>
      <leafValues>
        -3.0494979023933411e-01 8.1576544046401978e-01</leafValues></_>
    <_>
      <internalNodes>
        0 -1 2062 1.8422538414597511e-03</internalNodes>
      <leafValues>
        3.8008680939674377e-01 -6.5566420555114746e-01</leafValues></_></weakClassifiers></stage1>
</opencv_storage>
