<?xml version="1.0"?>
<opencv_storage>
<cascade>
  <stageType>BOOST</stageType>
  <featureType>HAAR</featureType>
  <height>20</height>
  <width>20</width>
  <stageParams>
    <boostType>GAB</boostType>
    <minHitRate>9.9500000476837158e-01</minHitRate>
    <maxFalseAlarm>4.0000000596046448e-01</maxFalseAlarm>
    <weightTrimRate>9.4999999999999996e-01</weightTrimRate>
    <maxDepth>1</maxDepth>
    <maxWeakCount>100</maxWeakCount></stageParams>
  <featureParams>
    <maxCatCount>0</maxCatCount>
    <featSize>1</featSize>
    <mode>ALL</mode></featureParams>
  <stageNum>13</stageNum>
  <stages>
    <!-- stage 0 -->
    <_>
      <maxWeakCount>3</maxWeakCount>
      <stageThreshold>-1.0247038602828979e+00</stageThreshold>
      <weakClassifiers>
        <_>
          <internalNodes>
            0 -1 11 -6.0239911079406738e-01</internalNodes>
          <leafValues>
            8.7044537067413330e-01 -8.9757412672042847e-01</leafValues></_>
        <_>
          <internalNodes>
            0 -1 52 -4.4631682336330414e-02</internalNodes>
          <leafValues>
            8.8504308462142944e-01 -5.9557294845581055e-01</leafValues></_>
        <_>
          <internalNodes>
            0 -1 25 3.7892401218414307e-02</internalNodes>
          <leafValues>
            -8.7494266033172607e-01 4.6844315528869629e-01</leafValues></_></weakClassifiers></_>
    <!-- stage 1 -->
    <_>
      <maxWeakCount>7</maxWeakCount>
      <stageThreshold>-1.3081729412078857e+00</stageThreshold>
      <weakClassifiers>
        <_>
          <internalNodes>
            0 -1 12 -4.6023106575012207e-01</internalNodes>
          <leafValues>
            8.2417583465576172e-01 -7.8233033418655396e-01</leafValues></_>
        <_>
          <internalNodes>
            0 -1 45 -1.4498588442802429e-01</internalNodes>
          <leafValues>
            8.0642765760421753e-01 -4.3911874294281006e-01</leafValues></_>
        <_>
          <internalNodes>
            0 -1 0 2.6718657463788986e-02</internalNodes>
          <leafValues>
            2.6027068495750427e-01 -8.9987188577651978e-01</leafValues></_>
        <_>
          <internalNodes>
            0 -1 47 -2.6075174100697041e-03</internalNodes>
          <leafValues>
            -7.1054601669311523e-01 2.1024231612682343e-01</leafValues></_>
        <_>
          <internalNodes>
            0 -1 9 -3.0144563061185181e-04</internalNodes>
          <leafValues>
            4.0337711572647095e-01 -4.8427456617355347e-01</leafValues></_>
        <_>
          <internalNodes>
            0 -1 66 4.0552206337451935e-02</internalNodes>
          <leafValues>
            -3.0494979023933411e-01 8.1576544046401978e-01</leafValues></_>
        <_>
          <internalNodes>
            0 -1 3 1.8422538414597511e-03</internalNodes>
          <leafValues>
            3.8008680939674377e-01 -6.5566420555114746e-01</leafValues></_></weakClassifiers></_>
    <!-- stage 2 -->
    <_>
      <maxWeakCount>6</maxWeakCount>
      <stageThreshold>-1.1644836664199829e+00</stageThreshold>
      <weakClassifiers>
        <_>
          <internalNodes>
            0 -1 49 -9.2976979911327362e-02</internalNodes>
          <leafValues>
            9.0594059228897095e-01 -7.2355771064758301e-01</leafValues></_>
        <_>
          <internalNodes>
            0 -1 15 -1.0754944384098053e-01</internalNodes>
          <leafValues>
            8.2524329423904419e-01 -4.8609998822212219e-01</leafValues></_>
        <_>
          <internalNodes>
            0 -1 28 -7.5195237994194031e-02</internalNodes>
          <leafValues>
            6.3651692867279053e-01 -4.1489481925964355e-01</leafValues></_>
        <_>
          <internalNodes>
            0 -1 35 -2.9939939267933369e-03</internalNodes>
          <leafValues>
            -7.4376392364501953e-01 3.6755147576332092e-01</leafValues></_>
        <_>
          <internalNodes>
            0 -1 53 6.9686672650277615e-03</internalNodes>
          <leafValues>
            -3.2016515731811523e-01 8.1487309932708740e-01</leafValues></_>
        <_>
          <internalNodes>
            0 -1 10 1.3421675190329552e-02</internalNodes>
          <leafValues>
            4.1268256306648254e-01 -5.7026076316833496e-01</leafValues></_></weakClassifiers></_>
    <!-- stage 3 -->
    <_>
      <maxWeakCount>7</maxWeakCount>
      <stageThreshold>-1.3148393630981445e+00</stageThreshold>
      <weakClassifiers>
        <_>
          <internalNodes>
            0 -1 50 7.3803901672363281e-02</internalNodes>
          <leafValues>
            -6.7852759361267090e-01 7.5296914577484131e-01</leafValues></_>
        <_>
          <internalNodes>
            0 -1 14 -9.2036247253417969e-02</internalNodes>
          <leafValues>
            7.1664404869079590e-01 -4.3704780936241150e-01</leafValues></_>
        <_>
          <internalNodes>
            0 -1 5 1.6663325950503349e-03</internalNodes>
          <leafValues>
            3.3808532357215881e-01 -6.6559880971908569e-01</leafValues></_>
        <_>
          <internalNodes>
            0 -1 60 -5.2230559289455414e-02</internalNodes>
          <leafValues>
            9.2773824930191040e-01 -2.2518607974052429e-01</leafValues></_>
        <_>
          <internalNodes>
            0 -1 36 -8.2954801619052887e-02</internalNodes>
          <leafValues>
            5.1377803087234497e-01 -3.7392634153366089e-01</leafValues></_>
        <_>
          <internalNodes>
            0 -1 18 1.0462866630405188e-03</internalNodes>
          <leafValues>
            3.6984884738922119e-01 -5.7919412851333618e-01</leafValues></_>
        <_>
          <internalNodes>
            0 -1 62 -3.4400345757603645e-03</internalNodes>
          <leafValues>
            -7.3589831590652466e-01 1.8620394170284271e-01</leafValues></_></weakClassifiers></_>
    <!-- stage 4 -->
    <_>
      <maxWeakCount>9</maxWeakCount>
      <stageThreshold>-9.9615842103958130e-01</stageThreshold>
      <weakClassifiers>
        <_>
          <internalNodes>
            0 -1 22 -8.4576070308685303e-01</internalNodes>
          <leafValues>
            7.3429954051971436e-01 -6.5693432092666626e-01</leafValues></_>
        <_>
          <internalNodes>
            0 -1 34 -1.6689428687095642e-01</internalNodes>
          <leafValues>
            5.6482005119323730e-01 -3.7881648540496826e-01</leafValues></_>
        <_>
          <internalNodes>
            0 -1 67 -2.3645971668884158e-04</internalNodes>
          <leafValues>
            6.5795183181762695e-01 -2.7935880422592163e-01</leafValues></_>
        <_>
          <internalNodes>
            0 -1 21 -1.7690990120172501e-02</internalNodes>
          <leafValues>
            -5.9946846961975098e-01 2.9380109906196594e-01</leafValues></_>
        <_>
          <internalNodes>
            0 -1 71 7.3042861185967922e-03</internalNodes>
          <leafValues>
            2.2552108764648438e-01 -7.5332111120223999e-01</leafValues></_>
        <_>
          <internalNodes>
            0 -1 1 6.8644736893475056e-03</internalNodes>
          <leafValues>
            2.4077619612216949e-01 -6.4493453502655029e-01</leafValues></_>
        <_>
          <internalNodes>
            0 -1 65 9.3319006264209747e-03</internalNodes>
          <leafValues>
            2.5191593170166016e-01 -6.2509608268737793e-01</leafValues></_>
        <_>
          <internalNodes>
            0 -1 24 7.6062902808189392e-02</internalNodes>
          <leafValues>
            -4.5742639899253845e-01 3.6763182282447815e-01</leafValues></_>
        <_>
          <internalNodes>
            0 -1 74 -3.2938156276941299e-02</internalNodes>
          <leafValues>
            8.5322082042694092e-01 -2.1902531385421753e-01</leafValues></_></weakClassifiers></_>
    <!-- stage 5 -->
    <_>
      <maxWeakCount>6</maxWeakCount>
      <stageThreshold>-1.0249521732330322e+00</stageThreshold>
      <weakClassifiers>
        <_>
          <internalNodes>
            0 -1 57 -9.2315882444381714e-02</internalNodes>
          <leafValues>
            8.4873950481414795e-01 -6.1319679021835327e-01</leafValues></_>
        <_>
          <internalNodes>
            0 -1 27 -1.0067294538021088e-01</internalNodes>
          <leafValues>
            6.4946174621582031e-01 -4.0709969401359558e-01</leafValues></_>
        <_>
          <internalNodes>
            0 -1 76 1.0414335876703262e-02</internalNodes>
          <leafValues>
            3.3098205924034119e-01 -8.0025267601013184e-01</leafValues></_>
        <_>
          <internalNodes>
            0 -1 77 1.9471622363198549e-04</internalNodes>
          <leafValues>
            4.6174159646034241e-01 -5.4961055517196655e-01</leafValues></_>
        <_>
          <internalNodes>
            0 -1 30 2.8488989919424057e-02</internalNodes>
          <leafValues>
            -4.9743768572807312e-01 4.4739797711372375e-01</leafValues></_>
        <_>
          <internalNodes>
            0 -1 38 -1.0217787697911263e-02</internalNodes>
          <leafValues>
            9.8389571905136108e-01 -2.3342512547969818e-01</leafValues></_></weakClassifiers></_>
    <!-- stage 6 -->
    <_>
      <maxWeakCount>8</maxWeakCount>
      <stageThreshold>-9.9798804521560669e-01</stageThreshold>
      <weakClassifiers>
        <_>
          <internalNodes>
            0 -1 44 -1.0150747001171112e-01</internalNodes>
          <leafValues>
            6.7070215940475464e-01 -6.2332928180694580e-01</leafValues></_>
        <_>
          <internalNodes>
            0 -1 26 7.6632839627563953e-03</internalNodes>
          <leafValues>
            4.6498781442642212e-01 -4.7765395045280457e-01</leafValues></_>
        <_>
          <internalNodes>
            0 -1 80 -3.3465206623077393e-02</internalNodes>
          <leafValues>
            3.2232871651649475e-01 -7.4553138017654419e-01</leafValues></_>
        <_>
          <internalNodes>
            0 -1 2 3.0449181795120239e-03</internalNodes>
          <leafValues>
            3.1833547353744507e-01 -7.4672943353652954e-01</leafValues></_>
        <_>
          <internalNodes>
            0 -1 42 -1.3067680597305298e-01</internalNodes>
          <leafValues>
            9.6809256076812744e-01 -3.1201848387718201e-01</leafValues></_>
        <_>
          <internalNodes>
            0 -1 59 5.0008879043161869e-04</internalNodes>
          <leafValues>
            -2.7607992291450500e-01 7.7605909109115601e-01</leafValues></_>
        <_>
          <internalNodes>
            0 -1 75 1.6147056594491005e-02</internalNodes>
          <leafValues>
            -2.4376624822616577e-01 8.7238770723342896e-01</leafValues></_>
        <_>
          <internalNodes>
            0 -1 68 -4.9387128092348576e-04</internalNodes>
          <leafValues>
            -7.2797876596450806e-01 3.0712157487869263e-01</leafValues></_></weakClassifiers></_>
    <!-- stage 7 -->
    <_>
      <maxWeakCount>7</maxWeakCount>
      <stageThreshold>-1.2065874338150024e+00</stageThreshold>
      <weakClassifiers>
        <_>
          <internalNodes>
            0 -1 69 -1.4059285819530487e-01</internalNodes>
          <leafValues>
            7.1200001239776611e-01 -5.8420443534851074e-01</leafValues></_>
        <_>
          <internalNodes>
            0 -1 51 4.4065956026315689e-03</internalNodes>
          <leafValues>
            6.4083439111709595e-01 -4.6601393818855286e-01</leafValues></_>
        <_>
          <internalNodes>
            0 -1 70 1.0150168964173645e-04</internalNodes>
          <leafValues>
            5.7650744915008545e-01 -4.2154648900032043e-01</leafValues></_>
        <_>
          <internalNodes>
            0 -1 73 2.1818827372044325e-03</internalNodes>
          <leafValues>
            4.9397671222686768e-01 -4.1234961152076721e-01</leafValues></_>
        <_>
          <internalNodes>
            0 -1 32 3.4253569319844246e-03</internalNodes>
          <leafValues>
            4.5652034878730774e-01 -4.3151172995567322e-01</leafValues></_>
        <_>
          <internalNodes>
            0 -1 72 -2.7473497902974486e-04</internalNodes>
          <leafValues>
            5.7467401027679443e-01 -3.2646033167839050e-01</leafValues></_>
        <_>
          <internalNodes>
            0 -1 48 2.1783150441478938e-04</internalNodes>
          <leafValues>
            -3.2151576876640320e-01 5.2917271852493286e-01</leafValues></_></weakClassifiers></_>
    <!-- stage 8 -->
    <_>
      <maxWeakCount>8</maxWeakCount>
      <stageThreshold>-7.9475629329681396e-01</stageThreshold>
      <weakClassifiers>
        <_>
          <internalNodes>
            0 -1 56 -1.9522142410278320e-01</internalNodes>
          <leafValues>
            6.3323783874511719e-01 -5.1521986722946167e-01</leafValues></_>
        <_>
          <internalNodes>
            0 -1 63 -6.8033277057111263e-03</internalNodes>
          <leafValues>
            7.4630588293075562e-01 -2.7992588281631470e-01</leafValues></_>
        <_>
          <internalNodes>
            0 -1 17 -1.6187274595722556e-03</internalNodes>
          <leafValues>
            -6.4409613609313965e-01 3.0688059329986572e-01</leafValues></_>
        <_>
          <internalNodes>
            0 -1 6 6.1901938170194626e-03</internalNodes>
          <leafValues>
            3.3125680685043335e-01 -4.7016775608062744e-01</leafValues></_>
        <_>
          <internalNodes>
            0 -1 46 -6.5631181001663208e-02</internalNodes>
          <leafValues>
            -7.7097982168197632e-01 2.2416037321090698e-01</leafValues></_>
        <_>
          <internalNodes>
            0 -1 58 4.3386719189584255e-03</internalNodes>
          <leafValues>
            3.5133585333824158e-01 -5.5627518892288208e-01</leafValues></_>
        <_>
          <internalNodes>
            0 -1 55 1.9716124981641769e-02</internalNodes>
          <leafValues>
            2.7699396014213562e-01 -6.1732858419418335e-01</leafValues></_>
        <_>
          <internalNodes>
            0 -1 33 7.2139576077461243e-03</internalNodes>
          <leafValues>
            3.5506111383438110e-01 -4.8764958977699280e-01</leafValues></_></weakClassifiers></_>
    <!-- stage 9 -->
    <_>
      <maxWeakCount>7</maxWeakCount>
      <stageThreshold>-1.4282821416854858e+00</stageThreshold>
      <weakClassifiers>
        <_>
          <internalNodes>
            0 -1 39 2.5966297835111618e-02</internalNodes>
          <leafValues>
            -5.3121316432952881e-01 5.5555558204650879e-01</leafValues></_>
        <_>
          <internalNodes>
            0 -1 41 3.3478485420346260e-03</internalNodes>
          <leafValues>
            2.3878206312656403e-01 -7.8410869836807251e-01</leafValues></_>
        <_>
          <internalNodes>
            0 -1 54 1.6782717406749725e-01</internalNodes>
          <leafValues>
            -2.2886691987514496e-01 1.</leafValues></_>
        <_>
          <internalNodes>
            0 -1 19 6.8061724305152893e-02</internalNodes>
          <leafValues>
            -2.1462188661098480e-01 7.1984195709228516e-01</leafValues></_>
        <_>
          <internalNodes>
            0 -1 43 3.3930120989680290e-03</internalNodes>
          <leafValues>
            3.2813861966133118e-01 -5.4446232318878174e-01</leafValues></_>
        <_>
          <internalNodes>
            0 -1 64 -2.8815222904086113e-03</internalNodes>
          <leafValues>
            -5.9253334999084473e-01 2.9341626167297363e-01</leafValues></_>
        <_>
          <internalNodes>
            0 -1 78 -5.0301325973123312e-04</internalNodes>
          <leafValues>
            -5.0519424676895142e-01 3.6293110251426697e-01</leafValues></_></weakClassifiers></_>
    <!-- stage 10 -->
    <_>
      <maxWeakCount>8</maxWeakCount>
      <stageThreshold>-5.7245743274688721e-01</stageThreshold>
      <weakClassifiers>
        <_>
          <internalNodes>
            0 -1 37 -4.1851215064525604e-02</internalNodes>
          <leafValues>
            8.8841199874877930e-01 -4.4167497754096985e-01</leafValues></_>
        <_>
          <internalNodes>
            0 -1 79 -8.0046273069456220e-04</internalNodes>
          <leafValues>
            -6.1867046356201172e-01 3.7008973956108093e-01</leafValues></_>
        <_>
          <internalNodes>
            0 -1 31 -1.6310817003250122e-01</internalNodes>
          <leafValues>
            5.8147245645523071e-01 -4.1432753205299377e-01</leafValues></_>
        <_>
          <internalNodes>
            0 -1 23 -1.0429902002215385e-02</internalNodes>
          <leafValues>
            -6.2342852354049683e-01 3.7465494871139526e-01</leafValues></_>
        <_>
          <internalNodes>
            0 -1 20 -2.4738819338381290e-03</internalNodes>
          <leafValues>
            7.0951700210571289e-01 -3.5469588637351990e-01</leafValues></_>
        <_>
          <internalNodes>
            0 -1 4 9.8713964689522982e-04</internalNodes>
          <leafValues>
            -2.1101021766662598e-01 1.</leafValues></_>
        <_>
          <internalNodes>
            0 -1 40 3.7948742974549532e-03</internalNodes>
          <leafValues>
            3.4621164202690125e-01 -7.2144883871078491e-01</leafValues></_>
        <_>
          <internalNodes>
            0 -1 16 3.1987309455871582e-02</internalNodes>
          <leafValues>
            -2.3942163586616516e-01 9.2513543367385864e-01</leafValues></_></weakClassifiers></_>
    <!-- stage 11 -->
    <_>
      <maxWeakCount>4</maxWeakCount>
      <stageThreshold>-8.9084309339523315e-01</stageThreshold>
      <weakClassifiers>
        <_>
          <internalNodes>
            0 -1 29 -8.1355683505535126e-02</internalNodes>
          <leafValues>
            1. -7.4614471197128296e-01</leafValues></_>
        <_>
          <internalNodes>
            0 -1 61 3.7454399280250072e-03</internalNodes>
          <leafValues>
            -5.8800828456878662e-01 7.8330880403518677e-01</leafValues></_>
        <_>
          <internalNodes>
            0 -1 8 -1.1397206783294678e-01</internalNodes>
          <leafValues>
            1. -4.5051649212837219e-01</leafValues></_>
        <_>
          <internalNodes>
            0 -1 13 3.2560754334554076e-05</internalNodes>
          <leafValues>
            -4.7749069333076477e-01 1.</leafValues></_></weakClassifiers></_>
    <!-- stage 12 -->
    <_>
      <maxWeakCount>1</maxWeakCount>
      <stageThreshold>1.</stageThreshold>
      <weakClassifiers>
        <_>
          <internalNodes>
            0 -1 7 -1.5183426141738892e+00</internalNodes>
          <leafValues>
            -1. 1.</leafValues></_></weakClassifiers></_></stages>
  <features>
    <_>
      <rects>
        <_>
          0 0 14 16 -1.</_>
        <_>
          0 4 14 8 2.</_></rects>
      <tilted>0</tilted></_>
    <_>
      <rects>
        <_>
          0 1 2 9 -1.</_>
        <_>
          0 4 2 3 3.</_></rects>
      <tilted>0</tilted></_>
    <_>
      <rects>
        <_>
          0 1 20 2 -1.</_>
        <_>
          0 2 20 1 2.</_></rects>
      <tilted>0</tilted></_>
    <_>
      <rects>
        <_>
          0 2 3 4 -1.</_>
        <_>
          0 3 3 2 2.</_></rects>
      <tilted>0</tilted></_>
    <_>
      <rects>
        <_>
          0 9 10 3 -1.</_>
        <_>
          0 10 10 1 3.</_></rects>
      <tilted>0</tilted></_>
    <_>
      <rects>
        <_>
          0 16 3 3 -1.</_>
        <_>
          1 16 1 3 3.</_></rects>
      <tilted>0</tilted></_>
    <_>
      <rects>
        <_>
          0 19 20 1 -1.</_>
        <_>
          10 19 10 1 2.</_></rects>
      <tilted>0</tilted></_>
    <_>
      <rects>
        <_>
          1 0 18 15 -1.</_>
        <_>
          7 5 6 5 9.</_></rects>
      <tilted>0</tilted></_>
    <_>
      <rects>
        <_>
          1 0 14 14 -1.</_>
        <_>
          1 7 14 7 2.</_></rects>
      <tilted>0</tilted></_>
    <_>
      <rects>
        <_>
          1 0 18 2 -1.</_>
        <_>
          1 1 18 1 2.</_></rects>
      <tilted>0</tilted></_>
    <_>
      <rects>
        <_>
          1 3 6 4 -1.</_>
        <_>
          4 3 3 4 2.</_></rects>
      <tilted>0</tilted></_>
    <_>
      <rects>
        <_>
          1 3 18 15 -1.</_>
        <_>
          7 8 6 5 9.</_></rects>
      <tilted>0</tilted></_>
    <_>
      <rects>
        <_>
          1 6 18 9 -1.</_>
        <_>
          7 9 6 3 9.</_></rects>
      <tilted>0</tilted></_>
    <_>
      <rects>
        <_>
          1 9 2 3 -1.</_>
        <_>
          1 10 2 1 3.</_></rects>
      <tilted>0</tilted></_>
    <_>
      <rects>
        <_>
          1 9 12 3 -1.</_>
        <_>
          7 9 6 3 2.</_></rects>
      <tilted>0</tilted></_>
    <_>
      <rects>
        <_>
          1 9 12 4 -1.</_>
        <_>
          7 9 6 4 2.</_></rects>
      <tilted>0</tilted></_>
    <_>
      <rects>
        <_>
          1 10 19 9 -1.</_>
        <_>
          1 13 19 3 3.</_></rects>
      <tilted>0</tilted></_>
    <_>
      <rects>
        <_>
          2 0 6 4 -1.</_>
        <_>
          2 1 6 2 2.</_></rects>
      <tilted>0</tilted></_>
    <_>
      <rects>
        <_>
          2 5 2 4 -1.</_>
        <_>
          2 6 2 2 2.</_></rects>
      <tilted>0</tilted></_>
    <_>
      <rects>
        <_>
          2 10 8 10 -1.</_>
        <_>
          2 10 4 5 2.</_>
        <_>
          6 15 4 5 2.</_></rects>
      <tilted>0</tilted></_>
    <_>
      <rects>
        <_>
          2 11 18 8 -1.</_>
        <_>
          2 13 18 4 2.</_></rects>
      <tilted>0</tilted></_>
    <_>
      <rects>
        <_>
          2 18 12 2 -1.</_>
        <_>
          5 18 6 2 2.</_></rects>
      <tilted>0</tilted></_>
    <_>
      <rects>
        <_>
          3 2 15 15 -1.</_>
        <_>
          8 7 5 5 9.</_></rects>
      <tilted>0</tilted></_>
    <_>
      <rects>
        <_>
          3 18 9 2 -1.</_>
        <_>
          6 18 3 2 3.</_></rects>
      <tilted>0</tilted></_>
    <_>
      <rects>
        <_>
          4 2 10 2 -1.</_>
        <_>
          4 2 5 2 2.</_></rects>
      <tilted>1</tilted></_>
    <_>
      <rects>
        <_>
          4 2 10 4 -1.</_>
        <_>
          4 2 5 4 2.</_></rects>
      <tilted>1</tilted></_>
    <_>
      <rects>
        <_>
          5 0 14 2 -1.</_>
        <_>
          12 0 7 2 2.</_></rects>
      <tilted>0</tilted></_>
    <_>
      <rects>
        <_>
          5 0 11 10 -1.</_>
        <_>
          5 5 11 5 2.</_></rects>
      <tilted>0</tilted></_>
    <_>
      <rects>
        <_>
          5 2 7 16 -1.</_>
        <_>
          5 6 7 8 2.</_></rects>
      <tilted>0</tilted></_>
    <_>
      <rects>
        <_>
          5 3 12 16 -1.</_>
        <_>
          5 7 12 8 2.</_></rects>
      <tilted>0</tilted></_>
    <_>
      <rects>
        <_>
          5 4 8 1 -1.</_>
        <_>
          5 4 4 1 2.</_></rects>
      <tilted>1</tilted></_>
    <_>
      <rects>
        <_>
          6 0 6 20 -1.</_>
        <_>
          6 5 6 10 2.</_></rects>
      <tilted>0</tilted></_>
    <_>
      <rects>
        <_>
          6 0 14 1 -1.</_>
        <_>
          13 0 7 1 2.</_></rects>
      <tilted>0</tilted></_>
    <_>
      <rects>
        <_>
          6 0 14 2 -1.</_>
        <_>
          13 0 7 2 2.</_></rects>
      <tilted>0</tilted></_>
    <_>
      <rects>
        <_>
          6 0 11 20 -1.</_>
        <_>
          6 5 11 10 2.</_></rects>
      <tilted>0</tilted></_>
    <_>
      <rects>
        <_>
          6 1 3 3 -1.</_>
        <_>
          7 2 1 1 9.</_></rects>
      <tilted>0</tilted></_>
    <_>
      <rects>
        <_>
          6 1 7 10 -1.</_>
        <_>
          6 6 7 5 2.</_></rects>
      <tilted>0</tilted></_>
    <_>
      <rects>
        <_>
          6 2 11 4 -1.</_>
        <_>
          5 3 11 2 2.</_></rects>
      <tilted>1</tilted></_>
    <_>
      <rects>
        <_>
          6 13 9 6 -1.</_>
        <_>
          6 15 9 2 3.</_></rects>
      <tilted>0</tilted></_>
    <_>
      <rects>
        <_>
          6 14 13 6 -1.</_>
        <_>
          6 17 13 3 2.</_></rects>
      <tilted>0</tilted></_>
    <_>
      <rects>
        <_>
          7 0 6 1 -1.</_>
        <_>
          9 0 2 1 3.</_></rects>
      <tilted>0</tilted></_>
    <_>
      <rects>
        <_>
          7 0 5 3 -1.</_>
        <_>
          7 1 5 1 3.</_></rects>
      <tilted>0</tilted></_>
    <_>
      <rects>
        <_>
          7 0 13 6 -1.</_>
        <_>
          5 2 13 2 3.</_></rects>
      <tilted>1</tilted></_>
    <_>
      <rects>
        <_>
          7 18 6 1 -1.</_>
        <_>
          10 18 3 1 2.</_></rects>
      <tilted>0</tilted></_>
    <_>
      <rects>
        <_>
          8 0 4 12 -1.</_>
        <_>
          8 6 4 6 2.</_></rects>
      <tilted>0</tilted></_>
    <_>
      <rects>
        <_>
          8 0 5 20 -1.</_>
        <_>
          8 5 5 10 2.</_></rects>
      <tilted>0</tilted></_>
    <_>
      <rects>
        <_>
          8 0 8 6 -1.</_>
        <_>
          8 0 8 3 2.</_></rects>
      <tilted>1</tilted></_>
    <_>
      <rects>
        <_>
          8 1 12 3 -1.</_>
        <_>
          8 2 12 1 3.</_></rects>
      <tilted>0</tilted></_>
    <_>
      <rects>
        <_>
          8 4 2 6 -1.</_>
        <_>
          8 6 2 2 3.</_></rects>
      <tilted>0</tilted></_>
    <_>
      <rects>
        <_>
          8 4 4 15 -1.</_>
        <_>
          8 9 4 5 3.</_></rects>
      <tilted>0</tilted></_>
    <_>
      <rects>
        <_>
          8 10 5 10 -1.</_>
        <_>
          8 15 5 5 2.</_></rects>
      <tilted>0</tilted></_>
    <_>
      <rects>
        <_>
          8 19 12 1 -1.</_>
        <_>
          14 19 6 1 2.</_></rects>
      <tilted>0</tilted></_>
    <_>
      <rects>
        <_>
          9 0 2 12 -1.</_>
        <_>
          9 6 2 6 2.</_></rects>
      <tilted>0</tilted></_>
    <_>
      <rects>
        <_>
          9 6 2 1 -1.</_>
        <_>
          9 6 1 1 2.</_></rects>
      <tilted>1</tilted></_>
    <_>
      <rects>
        <_>
          9 6 5 9 -1.</_>
        <_>
          6 9 5 3 3.</_></rects>
      <tilted>1</tilted></_>
    <_>
      <rects>
        <_>
          10 3 10 16 -1.</_>
        <_>
          10 3 5 8 2.</_>
        <_>
          15 11 5 8 2.</_></rects>
      <tilted>0</tilted></_>
    <_>
      <rects>
        <_>
          10 6 6 8 -1.</_>
        <_>
          10 6 6 4 2.</_></rects>
      <tilted>1</tilted></_>
    <_>
      <rects>
        <_>
          10 8 3 6 -1.</_>
        <_>
          10 8 3 3 2.</_></rects>
      <tilted>1</tilted></_>
    <_>
      <rects>
        <_>
          10 19 6 1 -1.</_>
        <_>
          12 19 2 1 3.</_></rects>
      <tilted>0</tilted></_>
    <_>
      <rects>
        <_>
          11 7 2 4 -1.</_>
        <_>
          11 8 2 2 2.</_></rects>
      <tilted>0</tilted></_>
    <_>
      <rects>
        <_>
          11 8 4 2 -1.</_>
        <_>
          11 8 2 2 2.</_></rects>
      <tilted>1</tilted></_>
    <_>
      <rects>
        <_>
          11 9 8 1 -1.</_>
        <_>
          13 11 4 1 2.</_></rects>
      <tilted>1</tilted></_>
    <_>
      <rects>
        <_>
          12 0 3 3 -1.</_>
        <_>
          13 1 1 1 9.</_></rects>
      <tilted>0</tilted></_>
    <_>
      <rects>
        <_>
          12 10 5 9 -1.</_>
        <_>
          12 13 5 3 3.</_></rects>
      <tilted>0</tilted></_>
    <_>
      <rects>
        <_>
          12 12 3 1 -1.</_>
        <_>
          13 13 1 1 3.</_></rects>
      <tilted>1</tilted></_>
    <_>
      <rects>
        <_>
          12 13 3 6 -1.</_>
        <_>
          13 13 1 6 3.</_></rects>
      <tilted>0</tilted></_>
    <_>
      <rects>
        <_>
          13 6 2 4 -1.</_>
        <_>
          13 6 2 2 2.</_></rects>
      <tilted>1</tilted></_>
    <_>
      <rects>
        <_>
          13 12 1 2 -1.</_>
        <_>
          13 13 1 1 2.</_></rects>
      <tilted>0</tilted></_>
    <_>
      <rects>
        <_>
          13 18 1 2 -1.</_>
        <_>
          13 19 1 1 2.</_></rects>
      <tilted>0</tilted></_>
    <_>
      <rects>
        <_>
          14 6 3 9 -1.</_>
        <_>
          11 9 3 3 3.</_></rects>
      <tilted>1</tilted></_>
    <_>
      <rects>
        <_>
          14 18 2 2 -1.</_>
        <_>
          14 18 1 1 2.</_>
        <_>
          15 19 1 1 2.</_></rects>
      <tilted>0</tilted></_>
    <_>
      <rects>
        <_>
          15 1 4 4 -1.</_>
        <_>
          16 1 2 4 2.</_></rects>
      <tilted>0</tilted></_>
    <_>
      <rects>
        <_>
          15 8 1 8 -1.</_>
        <_>
          15 10 1 4 2.</_></rects>
      <tilted>0</tilted></_>
    <_>
      <rects>
        <_>
          15 12 5 6 -1.</_>
        <_>
          15 14 5 2 3.</_></rects>
      <tilted>0</tilted></_>
    <_>
      <rects>
        <_>
          16 0 3 14 -1.</_>
        <_>
          17 1 1 14 3.</_></rects>
      <tilted>1</tilted></_>
    <_>
      <rects>
        <_>
          16 6 3 6 -1.</_>
        <_>
          17 7 1 6 3.</_></rects>
      <tilted>1</tilted></_>
    <_>
      <rects>
        <_>
          17 5 2 6 -1.</_>
        <_>
          18 5 1 6 2.</_></rects>
      <tilted>0</tilted></_>
    <_>
      <rects>
        <_>
          17 10 3 2 -1.</_>
        <_>
          17 11 3 1 2.</_></rects>
      <tilted>0</tilted></_>
    <_>
      <rects>
        <_>
          17 11 3 1 -1.</_>
        <_>
          18 11 1 1 3.</_></rects>
      <tilted>0</tilted></_>
    <_>
      <rects>
        <_>
          17 19 3 1 -1.</_>
        <_>
          18 19 1 1 3.</_></rects>
      <tilted>0</tilted></_>
    <_>
      <rects>
        <_>
          19 1 1 16 -1.</_>
        <_>
          15 5 1 8 2.</_></rects>
      <tilted>1</tilted></_></features></cascade>
</opencv_storage>
