<?xml version="1.0"?>
<opencv_storage>
<stage21>
  <maxWeakCount>6</maxWeakCount>
  <stageThreshold>-1.2230889499187469e-01</stageThreshold>
  <weakClassifiers>
    <_>
      <internalNodes>
        0 -1 35954 -2.3995943367481232e-02</internalNodes>
      <leafValues>
        -4.9130433797836304e-01 7.9184323549270630e-01</leafValues></_>
    <_>
      <internalNodes>
        0 -1 89443 -4.1019737720489502e-02</internalNodes>
      <leafValues>
        1. -2.2064101696014404e-01</leafValues></_>
    <_>
      <internalNodes>
        0 -1 123535 -4.4640377163887024e-03</internalNodes>
      <leafValues>
        -6.1664062738418579e-01 5.7958114147186279e-01</leafValues></_>
    <_>
      <internalNodes>
        0 -1 106363 -1.8134890124201775e-03</internalNodes>
      <leafValues>
        -3.2332405447959900e-01 1.</leafValues></_>
    <_>
      <internalNodes>
        0 -1 124217 -6.1038054991513491e-04</internalNodes>
      <leafValues>
        -5.0217074155807495e-01 6.6473782062530518e-01</leafValues></_>
    <_>
      <internalNodes>
        0 -1 1014 2.0769885741174221e-03</internalNodes>
      <leafValues>
        -4.1828429698944092e-01 8.9117336273193359e-01</leafValues></_></weakClassifiers></stage21>
</opencv_storage>
