<?xml version="1.0"?>
<opencv_storage>
<cascade>
  <stageType>BOOST</stageType>
  <featureType>HAAR</featureType>
  <height>20</height>
  <width>20</width>
  <stageParams>
    <boostType>GAB</boostType>
    <minHitRate>9.9500000476837158e-01</minHitRate>
    <maxFalseAlarm>4.0000000596046448e-01</maxFalseAlarm>
    <weightTrimRate>9.4999999999999996e-01</weightTrimRate>
    <maxDepth>1</maxDepth>
    <maxWeakCount>100</maxWeakCount></stageParams>
  <featureParams>
    <maxCatCount>0</maxCatCount>
    <featSize>1</featSize>
    <mode>ALL</mode></featureParams>
  <stageNum>16</stageNum>
  <stages>
    <!-- stage 0 -->
    <_>
      <maxWeakCount>6</maxWeakCount>
      <stageThreshold>-1.2094743251800537e+00</stageThreshold>
      <weakClassifiers>
        <_>
          <internalNodes>
            0 -1 2 8.3942376077175140e-03</internalNodes>
          <leafValues>
            -7.0476192235946655e-01 7.3043477535247803e-01</leafValues></_>
        <_>
          <internalNodes>
            0 -1 38 5.1587961614131927e-02</internalNodes>
          <leafValues>
            -3.5993561148643494e-01 8.8512545824050903e-01</leafValues></_>
        <_>
          <internalNodes>
            0 -1 19 1.6282729804515839e-01</internalNodes>
          <leafValues>
            -2.1085891127586365e-01 9.4078898429870605e-01</leafValues></_>
        <_>
          <internalNodes>
            0 -1 84 3.1574047170579433e-04</internalNodes>
          <leafValues>
            3.9235234260559082e-01 -4.6619278192520142e-01</leafValues></_>
        <_>
          <internalNodes>
            0 -1 5 1.4445330947637558e-02</internalNodes>
          <leafValues>
            -3.1971088051795959e-01 6.3291871547698975e-01</leafValues></_>
        <_>
          <internalNodes>
            0 -1 40 -1.1025397107005119e-02</internalNodes>
          <leafValues>
            6.9951856136322021e-01 -2.9966217279434204e-01</leafValues></_></weakClassifiers></_>
    <!-- stage 1 -->
    <_>
      <maxWeakCount>8</maxWeakCount>
      <stageThreshold>-5.9753334522247314e-01</stageThreshold>
      <weakClassifiers>
        <_>
          <internalNodes>
            0 -1 10 4.9419075250625610e-02</internalNodes>
          <leafValues>
            -6.1572051048278809e-01 7.6303315162658691e-01</leafValues></_>
        <_>
          <internalNodes>
            0 -1 16 8.2086578011512756e-02</internalNodes>
          <leafValues>
            -2.9355958104133606e-01 7.4417519569396973e-01</leafValues></_>
        <_>
          <internalNodes>
            0 -1 79 2.0362273789942265e-03</internalNodes>
          <leafValues>
            2.8513103723526001e-01 -6.8713241815567017e-01</leafValues></_>
        <_>
          <internalNodes>
            0 -1 89 2.6578916003927588e-04</internalNodes>
          <leafValues>
            4.3100601434707642e-01 -4.3206873536109924e-01</leafValues></_>
        <_>
          <internalNodes>
            0 -1 0 1.5404558507725596e-03</internalNodes>
          <leafValues>
            -4.3349471688270569e-01 4.4447305798530579e-01</leafValues></_>
        <_>
          <internalNodes>
            0 -1 18 1.4531005918979645e-01</internalNodes>
          <leafValues>
            -2.5126305222511292e-01 7.7427393198013306e-01</leafValues></_>
        <_>
          <internalNodes>
            0 -1 46 2.2389747202396393e-02</internalNodes>
          <leafValues>
            -2.3083667457103729e-01 7.7939718961715698e-01</leafValues></_>
        <_>
          <internalNodes>
            0 -1 58 6.6270986571907997e-03</internalNodes>
          <leafValues>
            5.1120412349700928e-01 -3.7581646442413330e-01</leafValues></_></weakClassifiers></_>
    <!-- stage 2 -->
    <_>
      <maxWeakCount>5</maxWeakCount>
      <stageThreshold>-6.4945626258850098e-01</stageThreshold>
      <weakClassifiers>
        <_>
          <internalNodes>
            0 -1 8 5.3270585834980011e-02</internalNodes>
          <leafValues>
            -5.3543305397033691e-01 8.3870965242385864e-01</leafValues></_>
        <_>
          <internalNodes>
            0 -1 67 3.4411828964948654e-03</internalNodes>
          <leafValues>
            5.4495841264724731e-01 -5.3728282451629639e-01</leafValues></_>
        <_>
          <internalNodes>
            0 -1 15 5.2050780504941940e-02</internalNodes>
          <leafValues>
            -4.0034896135330200e-01 6.8933349847793579e-01</leafValues></_>
        <_>
          <internalNodes>
            0 -1 94 8.8930199854075909e-04</internalNodes>
          <leafValues>
            5.2919411659240723e-01 -4.6643203496932983e-01</leafValues></_>
        <_>
          <internalNodes>
            0 -1 83 -5.8024968020617962e-03</internalNodes>
          <leafValues>
            -7.4427503347396851e-01 2.9441446065902710e-01</leafValues></_></weakClassifiers></_>
    <!-- stage 3 -->
    <_>
      <maxWeakCount>6</maxWeakCount>
      <stageThreshold>-9.9628061056137085e-01</stageThreshold>
      <weakClassifiers>
        <_>
          <internalNodes>
            0 -1 7 3.8507118821144104e-02</internalNodes>
          <leafValues>
            -5.7085019350051880e-01 8.3419686555862427e-01</leafValues></_>
        <_>
          <internalNodes>
            0 -1 97 -2.0990087650716305e-03</internalNodes>
          <leafValues>
            -6.1299830675125122e-01 6.4288622140884399e-01</leafValues></_>
        <_>
          <internalNodes>
            0 -1 71 -8.6248777806758881e-03</internalNodes>
          <leafValues>
            -5.8014565706253052e-01 6.3211452960968018e-01</leafValues></_>
        <_>
          <internalNodes>
            0 -1 20 8.5188401862978935e-03</internalNodes>
          <leafValues>
            -6.3257378339767456e-01 6.1024910211563110e-01</leafValues></_>
        <_>
          <internalNodes>
            0 -1 62 8.5408438462764025e-04</internalNodes>
          <leafValues>
            6.6735070943832397e-01 -5.2819228172302246e-01</leafValues></_>
        <_>
          <internalNodes>
            0 -1 77 4.1788618545979261e-04</internalNodes>
          <leafValues>
            -4.9336591362953186e-01 6.8565666675567627e-01</leafValues></_></weakClassifiers></_>
    <!-- stage 4 -->
    <_>
      <maxWeakCount>7</maxWeakCount>
      <stageThreshold>-1.1253786087036133e+00</stageThreshold>
      <weakClassifiers>
        <_>
          <internalNodes>
            0 -1 3 3.0003197491168976e-02</internalNodes>
          <leafValues>
            -5.9471362829208374e-01 7.2769951820373535e-01</leafValues></_>
        <_>
          <internalNodes>
            0 -1 12 2.6640575379133224e-02</internalNodes>
          <leafValues>
            -2.8248286247253418e-01 8.1463772058486938e-01</leafValues></_>
        <_>
          <internalNodes>
            0 -1 44 -2.4584692437201738e-03</internalNodes>
          <leafValues>
            9.0497672557830811e-01 -2.0537069439888000e-01</leafValues></_>
        <_>
          <internalNodes>
            0 -1 32 -4.9539486644789577e-04</internalNodes>
          <leafValues>
            -6.1294984817504883e-01 3.5681563615798950e-01</leafValues></_>
        <_>
          <internalNodes>
            0 -1 61 1.1858107754960656e-03</internalNodes>
          <leafValues>
            4.3912106752395630e-01 -5.8921563625335693e-01</leafValues></_>
        <_>
          <internalNodes>
            0 -1 51 1.8724339082837105e-02</internalNodes>
          <leafValues>
            4.2987233400344849e-01 -5.3441089391708374e-01</leafValues></_>
        <_>
          <internalNodes>
            0 -1 57 -9.0845841914415359e-03</internalNodes>
          <leafValues>
            8.6995017528533936e-01 -2.9885497689247131e-01</leafValues></_></weakClassifiers></_>
    <!-- stage 5 -->
    <_>
      <maxWeakCount>5</maxWeakCount>
      <stageThreshold>-5.0979882478713989e-01</stageThreshold>
      <weakClassifiers>
        <_>
          <internalNodes>
            0 -1 11 9.1291338205337524e-02</internalNodes>
          <leafValues>
            -4.9442380666732788e-01 8.9473682641983032e-01</leafValues></_>
        <_>
          <internalNodes>
            0 -1 90 1.3199483510106802e-03</internalNodes>
          <leafValues>
            4.4021341204643250e-01 -6.4811909198760986e-01</leafValues></_>
        <_>
          <internalNodes>
            0 -1 43 3.0200261622667313e-02</internalNodes>
          <leafValues>
            -4.5750063657760620e-01 6.3078403472900391e-01</leafValues></_>
        <_>
          <internalNodes>
            0 -1 23 -2.5652710348367691e-02</internalNodes>
          <leafValues>
            6.8008083105087280e-01 -3.5951873660087585e-01</leafValues></_>
        <_>
          <internalNodes>
            0 -1 81 -3.4210144076496363e-03</internalNodes>
          <leafValues>
            -6.4510202407836914e-01 3.6147877573966980e-01</leafValues></_></weakClassifiers></_>
    <!-- stage 6 -->
    <_>
      <maxWeakCount>6</maxWeakCount>
      <stageThreshold>-9.8819601535797119e-01</stageThreshold>
      <weakClassifiers>
        <_>
          <internalNodes>
            0 -1 36 -3.5018112510442734e-02</internalNodes>
          <leafValues>
            8.7096774578094482e-01 -5.5905508995056152e-01</leafValues></_>
        <_>
          <internalNodes>
            0 -1 31 -9.6969166770577431e-03</internalNodes>
          <leafValues>
            -6.2105929851531982e-01 5.3590291738510132e-01</leafValues></_>
        <_>
          <internalNodes>
            0 -1 66 -3.0300123617053032e-03</internalNodes>
          <leafValues>
            -6.0574120283126831e-01 4.5229497551918030e-01</leafValues></_>
        <_>
          <internalNodes>
            0 -1 9 1.9908698275685310e-02</internalNodes>
          <leafValues>
            -4.9895331263542175e-01 5.6602227687835693e-01</leafValues></_>
        <_>
          <internalNodes>
            0 -1 80 -9.1286748647689819e-03</internalNodes>
          <leafValues>
            -5.2163881063461304e-01 5.5645209550857544e-01</leafValues></_>
        <_>
          <internalNodes>
            0 -1 49 -1.1826209723949432e-02</internalNodes>
          <leafValues>
            9.0574049949645996e-01 -3.2481470704078674e-01</leafValues></_></weakClassifiers></_>
    <!-- stage 7 -->
    <_>
      <maxWeakCount>5</maxWeakCount>
      <stageThreshold>-1.3136508464813232e+00</stageThreshold>
      <weakClassifiers>
        <_>
          <internalNodes>
            0 -1 25 3.1003443291410804e-04</internalNodes>
          <leafValues>
            7.5586855411529541e-01 -6.2114536762237549e-01</leafValues></_>
        <_>
          <internalNodes>
            0 -1 88 2.1054556593298912e-02</internalNodes>
          <leafValues>
            5.7573032379150391e-01 -6.4681017398834229e-01</leafValues></_>
        <_>
          <internalNodes>
            0 -1 17 -6.2848493456840515e-02</internalNodes>
          <leafValues>
            8.2714927196502686e-01 -3.7042894959449768e-01</leafValues></_>
        <_>
          <internalNodes>
            0 -1 56 1.3107229024171829e-03</internalNodes>
          <leafValues>
            6.9374608993530273e-01 -4.5571181178092957e-01</leafValues></_>
        <_>
          <internalNodes>
            0 -1 63 -8.9626380940899253e-04</internalNodes>
          <leafValues>
            -4.4209507107734680e-01 5.9953606128692627e-01</leafValues></_></weakClassifiers></_>
    <!-- stage 8 -->
    <_>
      <maxWeakCount>5</maxWeakCount>
      <stageThreshold>-6.0516595840454102e-01</stageThreshold>
      <weakClassifiers>
        <_>
          <internalNodes>
            0 -1 59 -6.5744586288928986e-02</internalNodes>
          <leafValues>
            -8.3333331346511841e-01 5.8823531866073608e-01</leafValues></_>
        <_>
          <internalNodes>
            0 -1 30 -1.5686694532632828e-02</internalNodes>
          <leafValues>
            -4.7809100151062012e-01 7.0650571584701538e-01</leafValues></_>
        <_>
          <internalNodes>
            0 -1 13 4.3933711946010590e-02</internalNodes>
          <leafValues>
            -4.2819333076477051e-01 7.6618909835815430e-01</leafValues></_>
        <_>
          <internalNodes>
            0 -1 50 7.0680454373359680e-03</internalNodes>
          <leafValues>
            4.4175523519515991e-01 -8.9305984973907471e-01</leafValues></_>
        <_>
          <internalNodes>
            0 -1 47 9.0448588132858276e-02</internalNodes>
          <leafValues>
            -3.5146757960319519e-01 1.</leafValues></_></weakClassifiers></_>
    <!-- stage 9 -->
    <_>
      <maxWeakCount>7</maxWeakCount>
      <stageThreshold>-6.9670498371124268e-01</stageThreshold>
      <weakClassifiers>
        <_>
          <internalNodes>
            0 -1 29 -2.2359013557434082e-02</internalNodes>
          <leafValues>
            7.3493975400924683e-01 -3.7226277589797974e-01</leafValues></_>
        <_>
          <internalNodes>
            0 -1 26 1.7479836940765381e-02</internalNodes>
          <leafValues>
            -2.6065701246261597e-01 8.6471050977706909e-01</leafValues></_>
        <_>
          <internalNodes>
            0 -1 42 3.3412547782063484e-04</internalNodes>
          <leafValues>
            4.8117440938949585e-01 -5.1078981161117554e-01</leafValues></_>
        <_>
          <internalNodes>
            0 -1 75 7.7475840225815773e-04</internalNodes>
          <leafValues>
            5.0751674175262451e-01 -4.4535177946090698e-01</leafValues></_>
        <_>
          <internalNodes>
            0 -1 6 -1.1980485171079636e-02</internalNodes>
          <leafValues>
            6.4170575141906738e-01 -3.7818136811256409e-01</leafValues></_>
        <_>
          <internalNodes>
            0 -1 65 -7.0352852344512939e-03</internalNodes>
          <leafValues>
            8.1475102901458740e-01 -2.5693348050117493e-01</leafValues></_>
        <_>
          <internalNodes>
            0 -1 76 -1.5838100807741284e-03</internalNodes>
          <leafValues>
            -3.8640415668487549e-01 5.3550702333450317e-01</leafValues></_></weakClassifiers></_>
    <!-- stage 10 -->
    <_>
      <maxWeakCount>5</maxWeakCount>
      <stageThreshold>-7.4948281049728394e-01</stageThreshold>
      <weakClassifiers>
        <_>
          <internalNodes>
            0 -1 2 1.3009298592805862e-02</internalNodes>
          <leafValues>
            -6.1576354503631592e-01 6.1181432008743286e-01</leafValues></_>
        <_>
          <internalNodes>
            0 -1 24 -2.0858410280197859e-03</internalNodes>
          <leafValues>
            -6.5933728218078613e-01 3.5753503441810608e-01</leafValues></_>
        <_>
          <internalNodes>
            0 -1 22 2.9968857765197754e-02</internalNodes>
          <leafValues>
            -3.2138323783874512e-01 7.6598894596099854e-01</leafValues></_>
        <_>
          <internalNodes>
            0 -1 45 2.7045500464737415e-03</internalNodes>
          <leafValues>
            3.9245122671127319e-01 -6.5777015686035156e-01</leafValues></_>
        <_>
          <internalNodes>
            0 -1 82 1.6883894801139832e-02</internalNodes>
          <leafValues>
            4.5454999804496765e-01 -5.1308655738830566e-01</leafValues></_></weakClassifiers></_>
    <!-- stage 11 -->
    <_>
      <maxWeakCount>7</maxWeakCount>
      <stageThreshold>-3.0088993906974792e-01</stageThreshold>
      <weakClassifiers>
        <_>
          <internalNodes>
            0 -1 4 4.7542572021484375e-02</internalNodes>
          <leafValues>
            -3.9299610257148743e-01 6.6120219230651855e-01</leafValues></_>
        <_>
          <internalNodes>
            0 -1 85 -1.7046151682734489e-02</internalNodes>
          <leafValues>
            -7.0482391119003296e-01 3.7111112475395203e-01</leafValues></_>
        <_>
          <internalNodes>
            0 -1 70 -2.4490462616086006e-02</internalNodes>
          <leafValues>
            7.9104852676391602e-01 -3.0711960792541504e-01</leafValues></_>
        <_>
          <internalNodes>
            0 -1 27 4.5316610485315323e-02</internalNodes>
          <leafValues>
            -2.8242611885070801e-01 9.5649480819702148e-01</leafValues></_>
        <_>
          <internalNodes>
            0 -1 92 6.2191444449126720e-03</internalNodes>
          <leafValues>
            3.5549247264862061e-01 -7.0802956819534302e-01</leafValues></_>
        <_>
          <internalNodes>
            0 -1 60 -2.9747491702437401e-02</internalNodes>
          <leafValues>
            7.4033135175704956e-01 -3.4022641181945801e-01</leafValues></_>
        <_>
          <internalNodes>
            0 -1 48 -3.3970002084970474e-02</internalNodes>
          <leafValues>
            -7.1942359209060669e-01 3.1701144576072693e-01</leafValues></_></weakClassifiers></_>
    <!-- stage 12 -->
    <_>
      <maxWeakCount>7</maxWeakCount>
      <stageThreshold>-1.0187990665435791e+00</stageThreshold>
      <weakClassifiers>
        <_>
          <internalNodes>
            0 -1 14 8.3917342126369476e-02</internalNodes>
          <leafValues>
            -3.6842104792594910e-01 8.0645161867141724e-01</leafValues></_>
        <_>
          <internalNodes>
            0 -1 53 1.4145572204142809e-03</internalNodes>
          <leafValues>
            5.6795358657836914e-01 -5.6800544261932373e-01</leafValues></_>
        <_>
          <internalNodes>
            0 -1 86 -7.1770497015677392e-05</internalNodes>
          <leafValues>
            9.2133837938308716e-01 -3.2425174117088318e-01</leafValues></_>
        <_>
          <internalNodes>
            0 -1 72 -4.5223236083984375e-03</internalNodes>
          <leafValues>
            -6.8440628051757812e-01 4.6507862210273743e-01</leafValues></_>
        <_>
          <internalNodes>
            0 -1 96 1.7565675079822540e-03</internalNodes>
          <leafValues>
            6.6700041294097900e-01 -5.2831315994262695e-01</leafValues></_>
        <_>
          <internalNodes>
            0 -1 54 1.5065763145685196e-03</internalNodes>
          <leafValues>
            -3.7290489673614502e-01 9.0278202295303345e-01</leafValues></_>
        <_>
          <internalNodes>
            0 -1 95 1.5528418589383364e-04</internalNodes>
          <leafValues>
            6.5263086557388306e-01 -5.1089113950729370e-01</leafValues></_></weakClassifiers></_>
    <!-- stage 13 -->
    <_>
      <maxWeakCount>3</maxWeakCount>
      <stageThreshold>-4.3692088127136230e-01</stageThreshold>
      <weakClassifiers>
        <_>
          <internalNodes>
            0 -1 91 1.2895033694803715e-02</internalNodes>
          <leafValues>
            1. -7.3553717136383057e-01</leafValues></_>
        <_>
          <internalNodes>
            0 -1 37 4.7366262879222631e-04</internalNodes>
          <leafValues>
            1. -7.0138370990753174e-01</leafValues></_>
        <_>
          <internalNodes>
            0 -1 93 -2.0489613525569439e-03</internalNodes>
          <leafValues>
            -6.5898352861404419e-01 1.</leafValues></_></weakClassifiers></_>
    <!-- stage 14 -->
    <_>
      <maxWeakCount>10</maxWeakCount>
      <stageThreshold>-1.5370678901672363e+00</stageThreshold>
      <weakClassifiers>
        <_>
          <internalNodes>
            0 -1 21 2.1792288869619370e-02</internalNodes>
          <leafValues>
            -4.8901733756065369e-01 5.8276641368865967e-01</leafValues></_>
        <_>
          <internalNodes>
            0 -1 28 1.1989016085863113e-02</internalNodes>
          <leafValues>
            3.3338373899459839e-01 -6.5621560811996460e-01</leafValues></_>
        <_>
          <internalNodes>
            0 -1 73 2.5240896502509713e-04</internalNodes>
          <leafValues>
            -3.4697228670120239e-01 5.3825050592422485e-01</leafValues></_>
        <_>
          <internalNodes>
            0 -1 52 9.9336151033639908e-03</internalNodes>
          <leafValues>
            3.0002611875534058e-01 -6.8051499128341675e-01</leafValues></_>
        <_>
          <internalNodes>
            0 -1 64 -4.3014660477638245e-03</internalNodes>
          <leafValues>
            6.5259873867034912e-01 -2.9712605476379395e-01</leafValues></_>
        <_>
          <internalNodes>
            0 -1 39 3.3615976572036743e-02</internalNodes>
          <leafValues>
            -2.1406476199626923e-01 7.7402722835540771e-01</leafValues></_>
        <_>
          <internalNodes>
            0 -1 33 -3.7761772546218708e-05</internalNodes>
          <leafValues>
            4.6110948920249939e-01 -3.8484793901443481e-01</leafValues></_>
        <_>
          <internalNodes>
            0 -1 11 9.3686789274215698e-02</internalNodes>
          <leafValues>
            -4.3803143501281738e-01 3.8926258683204651e-01</leafValues></_>
        <_>
          <internalNodes>
            0 -1 87 -1.5747465193271637e-02</internalNodes>
          <leafValues>
            7.0930564403533936e-01 -2.8103801608085632e-01</leafValues></_>
        <_>
          <internalNodes>
            0 -1 55 -8.0203986726701260e-04</internalNodes>
          <leafValues>
            -6.5378779172897339e-01 3.2049462199211121e-01</leafValues></_></weakClassifiers></_>
    <!-- stage 15 -->
    <_>
      <maxWeakCount>9</maxWeakCount>
      <stageThreshold>-7.7974450588226318e-01</stageThreshold>
      <weakClassifiers>
        <_>
          <internalNodes>
            0 -1 1 1.4501050114631653e-02</internalNodes>
          <leafValues>
            -5.9565806388854980e-01 4.7978910803794861e-01</leafValues></_>
        <_>
          <internalNodes>
            0 -1 74 -4.1768206283450127e-03</internalNodes>
          <leafValues>
            6.3930338621139526e-01 -3.4169355034828186e-01</leafValues></_>
        <_>
          <internalNodes>
            0 -1 12 1.7584159970283508e-02</internalNodes>
          <leafValues>
            -5.0621944665908813e-01 4.3033674359321594e-01</leafValues></_>
        <_>
          <internalNodes>
            0 -1 34 2.6949799060821533e-01</internalNodes>
          <leafValues>
            -3.3251217007637024e-01 7.3779875040054321e-01</leafValues></_>
        <_>
          <internalNodes>
            0 -1 69 -2.3298793530557305e-04</internalNodes>
          <leafValues>
            4.6444553136825562e-01 -2.6899564266204834e-01</leafValues></_>
        <_>
          <internalNodes>
            0 -1 41 -1.6701092245057225e-03</internalNodes>
          <leafValues>
            -4.2883929610252380e-01 4.0632325410842896e-01</leafValues></_>
        <_>
          <internalNodes>
            0 -1 78 9.2776177916675806e-04</internalNodes>
          <leafValues>
            -3.3158925175666809e-01 5.2398449182510376e-01</leafValues></_>
        <_>
          <internalNodes>
            0 -1 35 1.1744098365306854e-01</internalNodes>
          <leafValues>
            -2.0184794068336487e-01 7.4962157011032104e-01</leafValues></_>
        <_>
          <internalNodes>
            0 -1 68 6.2266066379379481e-05</internalNodes>
          <leafValues>
            -3.0067297816276550e-01 4.5589211583137512e-01</leafValues></_></weakClassifiers></_></stages>
  <features>
    <_>
      <rects>
        <_>
          0 0 2 1 -1.</_>
        <_>
          1 0 1 1 2.</_></rects>
      <tilted>0</tilted></_>
    <_>
      <rects>
        <_>
          0 0 1 8 -1.</_>
        <_>
          0 4 1 4 2.</_></rects>
      <tilted>0</tilted></_>
    <_>
      <rects>
        <_>
          0 0 1 10 -1.</_>
        <_>
          0 5 1 5 2.</_></rects>
      <tilted>0</tilted></_>
    <_>
      <rects>
        <_>
          0 0 1 16 -1.</_>
        <_>
          0 8 1 8 2.</_></rects>
      <tilted>0</tilted></_>
    <_>
      <rects>
        <_>
          0 0 1 20 -1.</_>
        <_>
          0 10 1 10 2.</_></rects>
      <tilted>0</tilted></_>
    <_>
      <rects>
        <_>
          0 0 2 6 -1.</_>
        <_>
          0 3 2 3 2.</_></rects>
      <tilted>0</tilted></_>
    <_>
      <rects>
        <_>
          0 0 4 6 -1.</_>
        <_>
          0 0 2 3 2.</_>
        <_>
          2 3 2 3 2.</_></rects>
      <tilted>0</tilted></_>
    <_>
      <rects>
        <_>
          0 0 2 12 -1.</_>
        <_>
          0 6 2 6 2.</_></rects>
      <tilted>0</tilted></_>
    <_>
      <rects>
        <_>
          0 0 2 14 -1.</_>
        <_>
          0 7 2 7 2.</_></rects>
      <tilted>0</tilted></_>
    <_>
      <rects>
        <_>
          0 0 3 8 -1.</_>
        <_>
          0 4 3 4 2.</_></rects>
      <tilted>0</tilted></_>
    <_>
      <rects>
        <_>
          0 0 3 14 -1.</_>
        <_>
          0 7 3 7 2.</_></rects>
      <tilted>0</tilted></_>
    <_>
      <rects>
        <_>
          0 0 3 16 -1.</_>
        <_>
          0 8 3 8 2.</_></rects>
      <tilted>0</tilted></_>
    <_>
      <rects>
        <_>
          0 0 8 1 -1.</_>
        <_>
          4 0 4 1 2.</_></rects>
      <tilted>0</tilted></_>
    <_>
      <rects>
        <_>
          0 0 8 2 -1.</_>
        <_>
          4 0 4 2 2.</_></rects>
      <tilted>0</tilted></_>
    <_>
      <rects>
        <_>
          0 0 15 3 -1.</_>
        <_>
          5 1 5 1 9.</_></rects>
      <tilted>0</tilted></_>
    <_>
      <rects>
        <_>
          0 0 10 2 -1.</_>
        <_>
          5 0 5 2 2.</_></rects>
      <tilted>0</tilted></_>
    <_>
      <rects>
        <_>
          0 0 10 3 -1.</_>
        <_>
          5 0 5 3 2.</_></rects>
      <tilted>0</tilted></_>
    <_>
      <rects>
        <_>
          0 0 10 8 -1.</_>
        <_>
          0 0 5 4 2.</_>
        <_>
          5 4 5 4 2.</_></rects>
      <tilted>0</tilted></_>
    <_>
      <rects>
        <_>
          0 0 5 20 -1.</_>
        <_>
          0 10 5 10 2.</_></rects>
      <tilted>0</tilted></_>
    <_>
      <rects>
        <_>
          0 0 6 20 -1.</_>
        <_>
          0 10 6 10 2.</_></rects>
      <tilted>0</tilted></_>
    <_>
      <rects>
        <_>
          0 0 16 1 -1.</_>
        <_>
          8 0 8 1 2.</_></rects>
      <tilted>0</tilted></_>
    <_>
      <rects>
        <_>
          0 1 1 8 -1.</_>
        <_>
          0 5 1 4 2.</_></rects>
      <tilted>0</tilted></_>
    <_>
      <rects>
        <_>
          0 1 16 1 -1.</_>
        <_>
          4 1 8 1 2.</_></rects>
      <tilted>0</tilted></_>
    <_>
      <rects>
        <_>
          0 1 8 6 -1.</_>
        <_>
          0 1 4 3 2.</_>
        <_>
          4 4 4 3 2.</_></rects>
      <tilted>0</tilted></_>
    <_>
      <rects>
        <_>
          0 3 3 1 -1.</_>
        <_>
          1 3 1 1 3.</_></rects>
      <tilted>0</tilted></_>
    <_>
      <rects>
        <_>
          0 3 2 2 -1.</_>
        <_>
          0 3 1 1 2.</_>
        <_>
          1 4 1 1 2.</_></rects>
      <tilted>0</tilted></_>
    <_>
      <rects>
        <_>
          0 3 5 4 -1.</_>
        <_>
          0 5 5 2 2.</_></rects>
      <tilted>0</tilted></_>
    <_>
      <rects>
        <_>
          0 3 17 6 -1.</_>
        <_>
          0 6 17 3 2.</_></rects>
      <tilted>0</tilted></_>
    <_>
      <rects>
        <_>
          0 4 3 14 -1.</_>
        <_>
          1 4 1 14 3.</_></rects>
      <tilted>0</tilted></_>
    <_>
      <rects>
        <_>
          0 7 20 12 -1.</_>
        <_>
          0 7 10 6 2.</_>
        <_>
          10 13 10 6 2.</_></rects>
      <tilted>0</tilted></_>
    <_>
      <rects>
        <_>
          0 10 11 10 -1.</_>
        <_>
          0 15 11 5 2.</_></rects>
      <tilted>0</tilted></_>
    <_>
      <rects>
        <_>
          0 11 3 9 -1.</_>
        <_>
          0 14 3 3 3.</_></rects>
      <tilted>0</tilted></_>
    <_>
      <rects>
        <_>
          0 13 2 2 -1.</_>
        <_>
          0 13 1 1 2.</_>
        <_>
          1 14 1 1 2.</_></rects>
      <tilted>0</tilted></_>
    <_>
      <rects>
        <_>
          1 0 2 4 -1.</_>
        <_>
          1 0 1 2 2.</_>
        <_>
          2 2 1 2 2.</_></rects>
      <tilted>0</tilted></_>
    <_>
      <rects>
        <_>
          1 0 18 10 -1.</_>
        <_>
          10 0 9 10 2.</_></rects>
      <tilted>0</tilted></_>
    <_>
      <rects>
        <_>
          1 1 3 14 -1.</_>
        <_>
          1 8 3 7 2.</_></rects>
      <tilted>0</tilted></_>
    <_>
      <rects>
        <_>
          1 1 12 1 -1.</_>
        <_>
          1 1 6 1 2.</_></rects>
      <tilted>1</tilted></_>
    <_>
      <rects>
        <_>
          1 2 2 2 -1.</_>
        <_>
          1 2 1 1 2.</_>
        <_>
          2 3 1 1 2.</_></rects>
      <tilted>0</tilted></_>
    <_>
      <rects>
        <_>
          1 2 8 3 -1.</_>
        <_>
          5 2 4 3 2.</_></rects>
      <tilted>0</tilted></_>
    <_>
      <rects>
        <_>
          1 2 10 1 -1.</_>
        <_>
          6 2 5 1 2.</_></rects>
      <tilted>0</tilted></_>
    <_>
      <rects>
        <_>
          1 3 9 8 -1.</_>
        <_>
          1 5 9 4 2.</_></rects>
      <tilted>0</tilted></_>
    <_>
      <rects>
        <_>
          1 16 16 3 -1.</_>
        <_>
          1 17 16 1 3.</_></rects>
      <tilted>0</tilted></_>
    <_>
      <rects>
        <_>
          1 18 1 2 -1.</_>
        <_>
          1 19 1 1 2.</_></rects>
      <tilted>0</tilted></_>
    <_>
      <rects>
        <_>
          2 0 10 4 -1.</_>
        <_>
          7 0 5 4 2.</_></rects>
      <tilted>0</tilted></_>
    <_>
      <rects>
        <_>
          2 2 4 4 -1.</_>
        <_>
          2 3 4 2 2.</_></rects>
      <tilted>0</tilted></_>
    <_>
      <rects>
        <_>
          2 8 3 4 -1.</_>
        <_>
          2 9 3 2 2.</_></rects>
      <tilted>0</tilted></_>
    <_>
      <rects>
        <_>
          3 0 4 9 -1.</_>
        <_>
          3 3 4 3 3.</_></rects>
      <tilted>0</tilted></_>
    <_>
      <rects>
        <_>
          3 0 16 5 -1.</_>
        <_>
          7 0 8 5 2.</_></rects>
      <tilted>0</tilted></_>
    <_>
      <rects>
        <_>
          3 2 4 18 -1.</_>
        <_>
          4 2 2 18 2.</_></rects>
      <tilted>0</tilted></_>
    <_>
      <rects>
        <_>
          3 5 14 6 -1.</_>
        <_>
          3 7 14 2 3.</_></rects>
      <tilted>0</tilted></_>
    <_>
      <rects>
        <_>
          3 6 3 2 -1.</_>
        <_>
          4 6 1 2 3.</_></rects>
      <tilted>0</tilted></_>
    <_>
      <rects>
        <_>
          3 6 10 12 -1.</_>
        <_>
          3 6 5 6 2.</_>
        <_>
          8 12 5 6 2.</_></rects>
      <tilted>0</tilted></_>
    <_>
      <rects>
        <_>
          3 9 6 6 -1.</_>
        <_>
          3 9 3 3 2.</_>
        <_>
          6 12 3 3 2.</_></rects>
      <tilted>0</tilted></_>
    <_>
      <rects>
        <_>
          3 14 2 2 -1.</_>
        <_>
          4 14 1 2 2.</_></rects>
      <tilted>0</tilted></_>
    <_>
      <rects>
        <_>
          4 7 7 4 -1.</_>
        <_>
          4 8 7 2 2.</_></rects>
      <tilted>0</tilted></_>
    <_>
      <rects>
        <_>
          4 19 3 1 -1.</_>
        <_>
          5 19 1 1 3.</_></rects>
      <tilted>0</tilted></_>
    <_>
      <rects>
        <_>
          4 19 10 1 -1.</_>
        <_>
          9 19 5 1 2.</_></rects>
      <tilted>0</tilted></_>
    <_>
      <rects>
        <_>
          5 3 3 4 -1.</_>
        <_>
          5 5 3 2 2.</_></rects>
      <tilted>0</tilted></_>
    <_>
      <rects>
        <_>
          5 5 8 4 -1.</_>
        <_>
          5 5 8 2 2.</_></rects>
      <tilted>1</tilted></_>
    <_>
      <rects>
        <_>
          5 6 8 5 -1.</_>
        <_>
          7 8 4 5 2.</_></rects>
      <tilted>1</tilted></_>
    <_>
      <rects>
        <_>
          6 0 14 10 -1.</_>
        <_>
          13 0 7 10 2.</_></rects>
      <tilted>0</tilted></_>
    <_>
      <rects>
        <_>
          6 0 12 2 -1.</_>
        <_>
          6 1 12 1 2.</_></rects>
      <tilted>0</tilted></_>
    <_>
      <rects>
        <_>
          6 1 6 2 -1.</_>
        <_>
          6 2 6 1 2.</_></rects>
      <tilted>0</tilted></_>
    <_>
      <rects>
        <_>
          6 10 12 3 -1.</_>
        <_>
          6 11 12 1 3.</_></rects>
      <tilted>0</tilted></_>
    <_>
      <rects>
        <_>
          7 1 1 9 -1.</_>
        <_>
          7 4 1 3 3.</_></rects>
      <tilted>0</tilted></_>
    <_>
      <rects>
        <_>
          7 4 6 6 -1.</_>
        <_>
          7 6 6 2 3.</_></rects>
      <tilted>0</tilted></_>
    <_>
      <rects>
        <_>
          7 10 6 4 -1.</_>
        <_>
          7 11 6 2 2.</_></rects>
      <tilted>0</tilted></_>
    <_>
      <rects>
        <_>
          7 11 2 3 -1.</_>
        <_>
          6 12 2 1 3.</_></rects>
      <tilted>1</tilted></_>
    <_>
      <rects>
        <_>
          7 14 4 5 -1.</_>
        <_>
          8 14 2 5 2.</_></rects>
      <tilted>0</tilted></_>
    <_>
      <rects>
        <_>
          8 0 8 4 -1.</_>
        <_>
          8 1 8 2 2.</_></rects>
      <tilted>0</tilted></_>
    <_>
      <rects>
        <_>
          8 1 3 18 -1.</_>
        <_>
          8 10 3 9 2.</_></rects>
      <tilted>0</tilted></_>
    <_>
      <rects>
        <_>
          8 6 4 9 -1.</_>
        <_>
          8 9 4 3 3.</_></rects>
      <tilted>0</tilted></_>
    <_>
      <rects>
        <_>
          9 16 4 4 -1.</_>
        <_>
          9 16 2 2 2.</_>
        <_>
          11 18 2 2 2.</_></rects>
      <tilted>0</tilted></_>
    <_>
      <rects>
        <_>
          10 4 4 4 -1.</_>
        <_>
          9 5 4 2 2.</_></rects>
      <tilted>1</tilted></_>
    <_>
      <rects>
        <_>
          10 6 4 13 -1.</_>
        <_>
          12 6 2 13 2.</_></rects>
      <tilted>0</tilted></_>
    <_>
      <rects>
        <_>
          11 7 5 4 -1.</_>
        <_>
          11 8 5 2 2.</_></rects>
      <tilted>0</tilted></_>
    <_>
      <rects>
        <_>
          11 8 2 3 -1.</_>
        <_>
          11 8 1 3 2.</_></rects>
      <tilted>1</tilted></_>
    <_>
      <rects>
        <_>
          12 4 1 4 -1.</_>
        <_>
          11 5 1 2 2.</_></rects>
      <tilted>1</tilted></_>
    <_>
      <rects>
        <_>
          13 12 4 8 -1.</_>
        <_>
          14 12 2 8 2.</_></rects>
      <tilted>0</tilted></_>
    <_>
      <rects>
        <_>
          13 15 4 2 -1.</_>
        <_>
          13 16 4 1 2.</_></rects>
      <tilted>0</tilted></_>
    <_>
      <rects>
        <_>
          14 0 1 18 -1.</_>
        <_>
          14 6 1 6 3.</_></rects>
      <tilted>0</tilted></_>
    <_>
      <rects>
        <_>
          14 2 2 4 -1.</_>
        <_>
          14 4 2 2 2.</_></rects>
      <tilted>0</tilted></_>
    <_>
      <rects>
        <_>
          14 6 6 6 -1.</_>
        <_>
          17 6 3 6 2.</_></rects>
      <tilted>0</tilted></_>
    <_>
      <rects>
        <_>
          14 15 2 3 -1.</_>
        <_>
          13 16 2 1 3.</_></rects>
      <tilted>1</tilted></_>
    <_>
      <rects>
        <_>
          14 15 3 2 -1.</_>
        <_>
          14 16 3 1 2.</_></rects>
      <tilted>0</tilted></_>
    <_>
      <rects>
        <_>
          15 1 4 8 -1.</_>
        <_>
          16 1 2 8 2.</_></rects>
      <tilted>0</tilted></_>
    <_>
      <rects>
        <_>
          15 5 2 8 -1.</_>
        <_>
          13 7 2 4 2.</_></rects>
      <tilted>1</tilted></_>
    <_>
      <rects>
        <_>
          15 5 3 12 -1.</_>
        <_>
          15 11 3 6 2.</_></rects>
      <tilted>0</tilted></_>
    <_>
      <rects>
        <_>
          15 9 4 7 -1.</_>
        <_>
          17 9 2 7 2.</_></rects>
      <tilted>0</tilted></_>
    <_>
      <rects>
        <_>
          15 19 2 1 -1.</_>
        <_>
          16 19 1 1 2.</_></rects>
      <tilted>0</tilted></_>
    <_>
      <rects>
        <_>
          16 5 2 3 -1.</_>
        <_>
          16 6 2 1 3.</_></rects>
      <tilted>0</tilted></_>
    <_>
      <rects>
        <_>
          16 7 2 13 -1.</_>
        <_>
          17 7 1 13 2.</_></rects>
      <tilted>0</tilted></_>
    <_>
      <rects>
        <_>
          16 10 3 3 -1.</_>
        <_>
          17 10 1 3 3.</_></rects>
      <tilted>0</tilted></_>
    <_>
      <rects>
        <_>
          16 12 4 3 -1.</_>
        <_>
          16 13 4 1 3.</_></rects>
      <tilted>0</tilted></_>
    <_>
      <rects>
        <_>
          17 15 2 4 -1.</_>
        <_>
          17 17 2 2 2.</_></rects>
      <tilted>0</tilted></_>
    <_>
      <rects>
        <_>
          18 0 1 6 -1.</_>
        <_>
          18 2 1 2 3.</_></rects>
      <tilted>0</tilted></_>
    <_>
      <rects>
        <_>
          18 10 2 6 -1.</_>
        <_>
          18 10 1 3 2.</_>
        <_>
          19 13 1 3 2.</_></rects>
      <tilted>0</tilted></_>
    <_>
      <rects>
        <_>
          19 8 1 2 -1.</_>
        <_>
          19 8 1 1 2.</_></rects>
      <tilted>1</tilted></_></features></cascade>
</opencv_storage>
