<?xml version="1.0"?>
<opencv_storage>
<cascade>
  <stageType>BOOST</stageType>
  <featureType>HAAR</featureType>
  <height>20</height>
  <width>20</width>
  <stageParams>
    <boostType>GAB</boostType>
    <minHitRate>9.9500000476837158e-01</minHitRate>
    <maxFalseAlarm>4.0000000596046448e-01</maxFalseAlarm>
    <weightTrimRate>9.4999999999999996e-01</weightTrimRate>
    <maxDepth>1</maxDepth>
    <maxWeakCount>100</maxWeakCount></stageParams>
  <featureParams>
    <maxCatCount>0</maxCatCount>
    <featSize>1</featSize>
    <mode>ALL</mode></featureParams>
  <stageNum>25</stageNum>
  <stages>
    <!-- stage 0 -->
    <_>
      <maxWeakCount>6</maxWeakCount>
      <stageThreshold>-1.2094743251800537e+00</stageThreshold>
      <weakClassifiers>
        <_>
          <internalNodes>
            0 -1 3 8.3942376077175140e-03</internalNodes>
          <leafValues>
            -7.0476192235946655e-01 7.3043477535247803e-01</leafValues></_>
        <_>
          <internalNodes>
            0 -1 56 5.1587961614131927e-02</internalNodes>
          <leafValues>
            -3.5993561148643494e-01 8.8512545824050903e-01</leafValues></_>
        <_>
          <internalNodes>
            0 -1 21 1.6282729804515839e-01</internalNodes>
          <leafValues>
            -2.1085891127586365e-01 9.4078898429870605e-01</leafValues></_>
        <_>
          <internalNodes>
            0 -1 139 3.1574047170579433e-04</internalNodes>
          <leafValues>
            3.9235234260559082e-01 -4.6619278192520142e-01</leafValues></_>
        <_>
          <internalNodes>
            0 -1 7 1.4445330947637558e-02</internalNodes>
          <leafValues>
            -3.1971088051795959e-01 6.3291871547698975e-01</leafValues></_>
        <_>
          <internalNodes>
            0 -1 58 -1.1025397107005119e-02</internalNodes>
          <leafValues>
            6.9951856136322021e-01 -2.9966217279434204e-01</leafValues></_></weakClassifiers></_>
    <!-- stage 1 -->
    <_>
      <maxWeakCount>8</maxWeakCount>
      <stageThreshold>-5.9753334522247314e-01</stageThreshold>
      <weakClassifiers>
        <_>
          <internalNodes>
            0 -1 12 4.9419075250625610e-02</internalNodes>
          <leafValues>
            -6.1572051048278809e-01 7.6303315162658691e-01</leafValues></_>
        <_>
          <internalNodes>
            0 -1 18 8.2086578011512756e-02</internalNodes>
          <leafValues>
            -2.9355958104133606e-01 7.4417519569396973e-01</leafValues></_>
        <_>
          <internalNodes>
            0 -1 131 2.0362273789942265e-03</internalNodes>
          <leafValues>
            2.8513103723526001e-01 -6.8713241815567017e-01</leafValues></_>
        <_>
          <internalNodes>
            0 -1 148 2.6578916003927588e-04</internalNodes>
          <leafValues>
            4.3100601434707642e-01 -4.3206873536109924e-01</leafValues></_>
        <_>
          <internalNodes>
            0 -1 0 1.5404558507725596e-03</internalNodes>
          <leafValues>
            -4.3349471688270569e-01 4.4447305798530579e-01</leafValues></_>
        <_>
          <internalNodes>
            0 -1 20 1.4531005918979645e-01</internalNodes>
          <leafValues>
            -2.5126305222511292e-01 7.7427393198013306e-01</leafValues></_>
        <_>
          <internalNodes>
            0 -1 75 2.2389747202396393e-02</internalNodes>
          <leafValues>
            -2.3083667457103729e-01 7.7939718961715698e-01</leafValues></_>
        <_>
          <internalNodes>
            0 -1 93 6.6270986571907997e-03</internalNodes>
          <leafValues>
            5.1120412349700928e-01 -3.7581646442413330e-01</leafValues></_></weakClassifiers></_>
    <!-- stage 2 -->
    <_>
      <maxWeakCount>5</maxWeakCount>
      <stageThreshold>-6.4945626258850098e-01</stageThreshold>
      <weakClassifiers>
        <_>
          <internalNodes>
            0 -1 10 5.3270585834980011e-02</internalNodes>
          <leafValues>
            -5.3543305397033691e-01 8.3870965242385864e-01</leafValues></_>
        <_>
          <internalNodes>
            0 -1 105 3.4411828964948654e-03</internalNodes>
          <leafValues>
            5.4495841264724731e-01 -5.3728282451629639e-01</leafValues></_>
        <_>
          <internalNodes>
            0 -1 17 5.2050780504941940e-02</internalNodes>
          <leafValues>
            -4.0034896135330200e-01 6.8933349847793579e-01</leafValues></_>
        <_>
          <internalNodes>
            0 -1 157 8.8930199854075909e-04</internalNodes>
          <leafValues>
            5.2919411659240723e-01 -4.6643203496932983e-01</leafValues></_>
        <_>
          <internalNodes>
            0 -1 138 -5.8024968020617962e-03</internalNodes>
          <leafValues>
            -7.4427503347396851e-01 2.9441446065902710e-01</leafValues></_></weakClassifiers></_>
    <!-- stage 3 -->
    <_>
      <maxWeakCount>6</maxWeakCount>
      <stageThreshold>-9.9628061056137085e-01</stageThreshold>
      <weakClassifiers>
        <_>
          <internalNodes>
            0 -1 9 3.8507118821144104e-02</internalNodes>
          <leafValues>
            -5.7085019350051880e-01 8.3419686555862427e-01</leafValues></_>
        <_>
          <internalNodes>
            0 -1 160 -2.0990087650716305e-03</internalNodes>
          <leafValues>
            -6.1299830675125122e-01 6.4288622140884399e-01</leafValues></_>
        <_>
          <internalNodes>
            0 -1 112 -8.6248777806758881e-03</internalNodes>
          <leafValues>
            -5.8014565706253052e-01 6.3211452960968018e-01</leafValues></_>
        <_>
          <internalNodes>
            0 -1 22 8.5188401862978935e-03</internalNodes>
          <leafValues>
            -6.3257378339767456e-01 6.1024910211563110e-01</leafValues></_>
        <_>
          <internalNodes>
            0 -1 97 8.5408438462764025e-04</internalNodes>
          <leafValues>
            6.6735070943832397e-01 -5.2819228172302246e-01</leafValues></_>
        <_>
          <internalNodes>
            0 -1 126 4.1788618545979261e-04</internalNodes>
          <leafValues>
            -4.9336591362953186e-01 6.8565666675567627e-01</leafValues></_></weakClassifiers></_>
    <!-- stage 4 -->
    <_>
      <maxWeakCount>7</maxWeakCount>
      <stageThreshold>-1.1253786087036133e+00</stageThreshold>
      <weakClassifiers>
        <_>
          <internalNodes>
            0 -1 5 3.0003197491168976e-02</internalNodes>
          <leafValues>
            -5.9471362829208374e-01 7.2769951820373535e-01</leafValues></_>
        <_>
          <internalNodes>
            0 -1 14 2.6640575379133224e-02</internalNodes>
          <leafValues>
            -2.8248286247253418e-01 8.1463772058486938e-01</leafValues></_>
        <_>
          <internalNodes>
            0 -1 69 -2.4584692437201738e-03</internalNodes>
          <leafValues>
            9.0497672557830811e-01 -2.0537069439888000e-01</leafValues></_>
        <_>
          <internalNodes>
            0 -1 45 -4.9539486644789577e-04</internalNodes>
          <leafValues>
            -6.1294984817504883e-01 3.5681563615798950e-01</leafValues></_>
        <_>
          <internalNodes>
            0 -1 96 1.1858107754960656e-03</internalNodes>
          <leafValues>
            4.3912106752395630e-01 -5.8921563625335693e-01</leafValues></_>
        <_>
          <internalNodes>
            0 -1 81 1.8724339082837105e-02</internalNodes>
          <leafValues>
            4.2987233400344849e-01 -5.3441089391708374e-01</leafValues></_>
        <_>
          <internalNodes>
            0 -1 91 -9.0845841914415359e-03</internalNodes>
          <leafValues>
            8.6995017528533936e-01 -2.9885497689247131e-01</leafValues></_></weakClassifiers></_>
    <!-- stage 5 -->
    <_>
      <maxWeakCount>5</maxWeakCount>
      <stageThreshold>-5.0979882478713989e-01</stageThreshold>
      <weakClassifiers>
        <_>
          <internalNodes>
            0 -1 13 9.1291338205337524e-02</internalNodes>
          <leafValues>
            -4.9442380666732788e-01 8.9473682641983032e-01</leafValues></_>
        <_>
          <internalNodes>
            0 -1 150 1.3199483510106802e-03</internalNodes>
          <leafValues>
            4.4021341204643250e-01 -6.4811909198760986e-01</leafValues></_>
        <_>
          <internalNodes>
            0 -1 66 3.0200261622667313e-02</internalNodes>
          <leafValues>
            -4.5750063657760620e-01 6.3078403472900391e-01</leafValues></_>
        <_>
          <internalNodes>
            0 -1 27 -2.5652710348367691e-02</internalNodes>
          <leafValues>
            6.8008083105087280e-01 -3.5951873660087585e-01</leafValues></_>
        <_>
          <internalNodes>
            0 -1 133 -3.4210144076496363e-03</internalNodes>
          <leafValues>
            -6.4510202407836914e-01 3.6147877573966980e-01</leafValues></_></weakClassifiers></_>
    <!-- stage 6 -->
    <_>
      <maxWeakCount>6</maxWeakCount>
      <stageThreshold>-9.8819601535797119e-01</stageThreshold>
      <weakClassifiers>
        <_>
          <internalNodes>
            0 -1 53 -3.5018112510442734e-02</internalNodes>
          <leafValues>
            8.7096774578094482e-01 -5.5905508995056152e-01</leafValues></_>
        <_>
          <internalNodes>
            0 -1 44 -9.6969166770577431e-03</internalNodes>
          <leafValues>
            -6.2105929851531982e-01 5.3590291738510132e-01</leafValues></_>
        <_>
          <internalNodes>
            0 -1 104 -3.0300123617053032e-03</internalNodes>
          <leafValues>
            -6.0574120283126831e-01 4.5229497551918030e-01</leafValues></_>
        <_>
          <internalNodes>
            0 -1 11 1.9908698275685310e-02</internalNodes>
          <leafValues>
            -4.9895331263542175e-01 5.6602227687835693e-01</leafValues></_>
        <_>
          <internalNodes>
            0 -1 132 -9.1286748647689819e-03</internalNodes>
          <leafValues>
            -5.2163881063461304e-01 5.5645209550857544e-01</leafValues></_>
        <_>
          <internalNodes>
            0 -1 79 -1.1826209723949432e-02</internalNodes>
          <leafValues>
            9.0574049949645996e-01 -3.2481470704078674e-01</leafValues></_></weakClassifiers></_>
    <!-- stage 7 -->
    <_>
      <maxWeakCount>5</maxWeakCount>
      <stageThreshold>-1.3136508464813232e+00</stageThreshold>
      <weakClassifiers>
        <_>
          <internalNodes>
            0 -1 32 3.1003443291410804e-04</internalNodes>
          <leafValues>
            7.5586855411529541e-01 -6.2114536762237549e-01</leafValues></_>
        <_>
          <internalNodes>
            0 -1 146 2.1054556593298912e-02</internalNodes>
          <leafValues>
            5.7573032379150391e-01 -6.4681017398834229e-01</leafValues></_>
        <_>
          <internalNodes>
            0 -1 19 -6.2848493456840515e-02</internalNodes>
          <leafValues>
            8.2714927196502686e-01 -3.7042894959449768e-01</leafValues></_>
        <_>
          <internalNodes>
            0 -1 90 1.3107229024171829e-03</internalNodes>
          <leafValues>
            6.9374608993530273e-01 -4.5571181178092957e-01</leafValues></_>
        <_>
          <internalNodes>
            0 -1 101 -8.9626380940899253e-04</internalNodes>
          <leafValues>
            -4.4209507107734680e-01 5.9953606128692627e-01</leafValues></_></weakClassifiers></_>
    <!-- stage 8 -->
    <_>
      <maxWeakCount>5</maxWeakCount>
      <stageThreshold>-6.0516595840454102e-01</stageThreshold>
      <weakClassifiers>
        <_>
          <internalNodes>
            0 -1 94 -6.5744586288928986e-02</internalNodes>
          <leafValues>
            -8.3333331346511841e-01 5.8823531866073608e-01</leafValues></_>
        <_>
          <internalNodes>
            0 -1 42 -1.5686694532632828e-02</internalNodes>
          <leafValues>
            -4.7809100151062012e-01 7.0650571584701538e-01</leafValues></_>
        <_>
          <internalNodes>
            0 -1 15 4.3933711946010590e-02</internalNodes>
          <leafValues>
            -4.2819333076477051e-01 7.6618909835815430e-01</leafValues></_>
        <_>
          <internalNodes>
            0 -1 80 7.0680454373359680e-03</internalNodes>
          <leafValues>
            4.4175523519515991e-01 -8.9305984973907471e-01</leafValues></_>
        <_>
          <internalNodes>
            0 -1 76 9.0448588132858276e-02</internalNodes>
          <leafValues>
            -3.5146757960319519e-01 1.</leafValues></_></weakClassifiers></_>
    <!-- stage 9 -->
    <_>
      <maxWeakCount>7</maxWeakCount>
      <stageThreshold>-6.9670498371124268e-01</stageThreshold>
      <weakClassifiers>
        <_>
          <internalNodes>
            0 -1 39 -2.2359013557434082e-02</internalNodes>
          <leafValues>
            7.3493975400924683e-01 -3.7226277589797974e-01</leafValues></_>
        <_>
          <internalNodes>
            0 -1 35 1.7479836940765381e-02</internalNodes>
          <leafValues>
            -2.6065701246261597e-01 8.6471050977706909e-01</leafValues></_>
        <_>
          <internalNodes>
            0 -1 64 3.3412547782063484e-04</internalNodes>
          <leafValues>
            4.8117440938949585e-01 -5.1078981161117554e-01</leafValues></_>
        <_>
          <internalNodes>
            0 -1 123 7.7475840225815773e-04</internalNodes>
          <leafValues>
            5.0751674175262451e-01 -4.4535177946090698e-01</leafValues></_>
        <_>
          <internalNodes>
            0 -1 8 -1.1980485171079636e-02</internalNodes>
          <leafValues>
            6.4170575141906738e-01 -3.7818136811256409e-01</leafValues></_>
        <_>
          <internalNodes>
            0 -1 103 -7.0352852344512939e-03</internalNodes>
          <leafValues>
            8.1475102901458740e-01 -2.5693348050117493e-01</leafValues></_>
        <_>
          <internalNodes>
            0 -1 124 -1.5838100807741284e-03</internalNodes>
          <leafValues>
            -3.8640415668487549e-01 5.3550702333450317e-01</leafValues></_></weakClassifiers></_>
    <!-- stage 10 -->
    <_>
      <maxWeakCount>5</maxWeakCount>
      <stageThreshold>-7.4948281049728394e-01</stageThreshold>
      <weakClassifiers>
        <_>
          <internalNodes>
            0 -1 3 1.3009298592805862e-02</internalNodes>
          <leafValues>
            -6.1576354503631592e-01 6.1181432008743286e-01</leafValues></_>
        <_>
          <internalNodes>
            0 -1 31 -2.0858410280197859e-03</internalNodes>
          <leafValues>
            -6.5933728218078613e-01 3.5753503441810608e-01</leafValues></_>
        <_>
          <internalNodes>
            0 -1 26 2.9968857765197754e-02</internalNodes>
          <leafValues>
            -3.2138323783874512e-01 7.6598894596099854e-01</leafValues></_>
        <_>
          <internalNodes>
            0 -1 72 2.7045500464737415e-03</internalNodes>
          <leafValues>
            3.9245122671127319e-01 -6.5777015686035156e-01</leafValues></_>
        <_>
          <internalNodes>
            0 -1 135 1.6883894801139832e-02</internalNodes>
          <leafValues>
            4.5454999804496765e-01 -5.1308655738830566e-01</leafValues></_></weakClassifiers></_>
    <!-- stage 11 -->
    <_>
      <maxWeakCount>7</maxWeakCount>
      <stageThreshold>-3.0088993906974792e-01</stageThreshold>
      <weakClassifiers>
        <_>
          <internalNodes>
            0 -1 6 4.7542572021484375e-02</internalNodes>
          <leafValues>
            -3.9299610257148743e-01 6.6120219230651855e-01</leafValues></_>
        <_>
          <internalNodes>
            0 -1 140 -1.7046151682734489e-02</internalNodes>
          <leafValues>
            -7.0482391119003296e-01 3.7111112475395203e-01</leafValues></_>
        <_>
          <internalNodes>
            0 -1 109 -2.4490462616086006e-02</internalNodes>
          <leafValues>
            7.9104852676391602e-01 -3.0711960792541504e-01</leafValues></_>
        <_>
          <internalNodes>
            0 -1 36 4.5316610485315323e-02</internalNodes>
          <leafValues>
            -2.8242611885070801e-01 9.5649480819702148e-01</leafValues></_>
        <_>
          <internalNodes>
            0 -1 152 6.2191444449126720e-03</internalNodes>
          <leafValues>
            3.5549247264862061e-01 -7.0802956819534302e-01</leafValues></_>
        <_>
          <internalNodes>
            0 -1 95 -2.9747491702437401e-02</internalNodes>
          <leafValues>
            7.4033135175704956e-01 -3.4022641181945801e-01</leafValues></_>
        <_>
          <internalNodes>
            0 -1 78 -3.3970002084970474e-02</internalNodes>
          <leafValues>
            -7.1942359209060669e-01 3.1701144576072693e-01</leafValues></_></weakClassifiers></_>
    <!-- stage 12 -->
    <_>
      <maxWeakCount>7</maxWeakCount>
      <stageThreshold>-1.0187990665435791e+00</stageThreshold>
      <weakClassifiers>
        <_>
          <internalNodes>
            0 -1 16 8.3917342126369476e-02</internalNodes>
          <leafValues>
            -3.6842104792594910e-01 8.0645161867141724e-01</leafValues></_>
        <_>
          <internalNodes>
            0 -1 84 1.4145572204142809e-03</internalNodes>
          <leafValues>
            5.6795358657836914e-01 -5.6800544261932373e-01</leafValues></_>
        <_>
          <internalNodes>
            0 -1 142 -7.1770497015677392e-05</internalNodes>
          <leafValues>
            9.2133837938308716e-01 -3.2425174117088318e-01</leafValues></_>
        <_>
          <internalNodes>
            0 -1 118 -4.5223236083984375e-03</internalNodes>
          <leafValues>
            -6.8440628051757812e-01 4.6507862210273743e-01</leafValues></_>
        <_>
          <internalNodes>
            0 -1 159 1.7565675079822540e-03</internalNodes>
          <leafValues>
            6.6700041294097900e-01 -5.2831315994262695e-01</leafValues></_>
        <_>
          <internalNodes>
            0 -1 88 1.5065763145685196e-03</internalNodes>
          <leafValues>
            -3.7290489673614502e-01 9.0278202295303345e-01</leafValues></_>
        <_>
          <internalNodes>
            0 -1 158 1.5528418589383364e-04</internalNodes>
          <leafValues>
            6.5263086557388306e-01 -5.1089113950729370e-01</leafValues></_></weakClassifiers></_>
    <!-- stage 13 -->
    <_>
      <maxWeakCount>3</maxWeakCount>
      <stageThreshold>-4.3692088127136230e-01</stageThreshold>
      <weakClassifiers>
        <_>
          <internalNodes>
            0 -1 151 1.2895033694803715e-02</internalNodes>
          <leafValues>
            1. -7.3553717136383057e-01</leafValues></_>
        <_>
          <internalNodes>
            0 -1 55 4.7366262879222631e-04</internalNodes>
          <leafValues>
            1. -7.0138370990753174e-01</leafValues></_>
        <_>
          <internalNodes>
            0 -1 153 -2.0489613525569439e-03</internalNodes>
          <leafValues>
            -6.5898352861404419e-01 1.</leafValues></_></weakClassifiers></_>
    <!-- stage 14 -->
    <_>
      <maxWeakCount>10</maxWeakCount>
      <stageThreshold>-1.5370678901672363e+00</stageThreshold>
      <weakClassifiers>
        <_>
          <internalNodes>
            0 -1 24 2.1792288869619370e-02</internalNodes>
          <leafValues>
            -4.8901733756065369e-01 5.8276641368865967e-01</leafValues></_>
        <_>
          <internalNodes>
            0 -1 37 1.1989016085863113e-02</internalNodes>
          <leafValues>
            3.3338373899459839e-01 -6.5621560811996460e-01</leafValues></_>
        <_>
          <internalNodes>
            0 -1 119 2.5240896502509713e-04</internalNodes>
          <leafValues>
            -3.4697228670120239e-01 5.3825050592422485e-01</leafValues></_>
        <_>
          <internalNodes>
            0 -1 83 9.9336151033639908e-03</internalNodes>
          <leafValues>
            3.0002611875534058e-01 -6.8051499128341675e-01</leafValues></_>
        <_>
          <internalNodes>
            0 -1 102 -4.3014660477638245e-03</internalNodes>
          <leafValues>
            6.5259873867034912e-01 -2.9712605476379395e-01</leafValues></_>
        <_>
          <internalNodes>
            0 -1 57 3.3615976572036743e-02</internalNodes>
          <leafValues>
            -2.1406476199626923e-01 7.7402722835540771e-01</leafValues></_>
        <_>
          <internalNodes>
            0 -1 47 -3.7761772546218708e-05</internalNodes>
          <leafValues>
            4.6110948920249939e-01 -3.8484793901443481e-01</leafValues></_>
        <_>
          <internalNodes>
            0 -1 13 9.3686789274215698e-02</internalNodes>
          <leafValues>
            -4.3803143501281738e-01 3.8926258683204651e-01</leafValues></_>
        <_>
          <internalNodes>
            0 -1 143 -1.5747465193271637e-02</internalNodes>
          <leafValues>
            7.0930564403533936e-01 -2.8103801608085632e-01</leafValues></_>
        <_>
          <internalNodes>
            0 -1 89 -8.0203986726701260e-04</internalNodes>
          <leafValues>
            -6.5378779172897339e-01 3.2049462199211121e-01</leafValues></_></weakClassifiers></_>
    <!-- stage 15 -->
    <_>
      <maxWeakCount>9</maxWeakCount>
      <stageThreshold>-7.7974450588226318e-01</stageThreshold>
      <weakClassifiers>
        <_>
          <internalNodes>
            0 -1 2 1.4501050114631653e-02</internalNodes>
          <leafValues>
            -5.9565806388854980e-01 4.7978910803794861e-01</leafValues></_>
        <_>
          <internalNodes>
            0 -1 120 -4.1768206283450127e-03</internalNodes>
          <leafValues>
            6.3930338621139526e-01 -3.4169355034828186e-01</leafValues></_>
        <_>
          <internalNodes>
            0 -1 14 1.7584159970283508e-02</internalNodes>
          <leafValues>
            -5.0621944665908813e-01 4.3033674359321594e-01</leafValues></_>
        <_>
          <internalNodes>
            0 -1 50 2.6949799060821533e-01</internalNodes>
          <leafValues>
            -3.3251217007637024e-01 7.3779875040054321e-01</leafValues></_>
        <_>
          <internalNodes>
            0 -1 108 -2.3298793530557305e-04</internalNodes>
          <leafValues>
            4.6444553136825562e-01 -2.6899564266204834e-01</leafValues></_>
        <_>
          <internalNodes>
            0 -1 63 -1.6701092245057225e-03</internalNodes>
          <leafValues>
            -4.2883929610252380e-01 4.0632325410842896e-01</leafValues></_>
        <_>
          <internalNodes>
            0 -1 130 9.2776177916675806e-04</internalNodes>
          <leafValues>
            -3.3158925175666809e-01 5.2398449182510376e-01</leafValues></_>
        <_>
          <internalNodes>
            0 -1 52 1.1744098365306854e-01</internalNodes>
          <leafValues>
            -2.0184794068336487e-01 7.4962157011032104e-01</leafValues></_>
        <_>
          <internalNodes>
            0 -1 106 6.2266066379379481e-05</internalNodes>
          <leafValues>
            -3.0067297816276550e-01 4.5589211583137512e-01</leafValues></_></weakClassifiers></_>
    <!-- stage 16 -->
    <_>
      <maxWeakCount>13</maxWeakCount>
      <stageThreshold>-9.0354102849960327e-01</stageThreshold>
      <weakClassifiers>
        <_>
          <internalNodes>
            0 -1 54 4.3851614464074373e-04</internalNodes>
          <leafValues>
            -5.9057968854904175e-01 2.1220159530639648e-01</leafValues></_>
        <_>
          <internalNodes>
            0 -1 68 4.1174031794071198e-03</internalNodes>
          <leafValues>
            -5.0769990682601929e-01 3.4895393252372742e-01</leafValues></_>
        <_>
          <internalNodes>
            0 -1 82 9.0732984244823456e-03</internalNodes>
          <leafValues>
            1.4018772542476654e-01 -9.1220724582672119e-01</leafValues></_>
        <_>
          <internalNodes>
            0 -1 1 1.1782586807385087e-04</internalNodes>
          <leafValues>
            -4.1132125258445740e-01 2.8621238470077515e-01</leafValues></_>
        <_>
          <internalNodes>
            0 -1 113 -1.2994571588933468e-03</internalNodes>
          <leafValues>
            3.7373462319374084e-01 -2.9269915819168091e-01</leafValues></_>
        <_>
          <internalNodes>
            0 -1 28 -1.2930470705032349e-01</internalNodes>
          <leafValues>
            4.7174224257469177e-01 -2.7653539180755615e-01</leafValues></_>
        <_>
          <internalNodes>
            0 -1 127 -4.4389273971319199e-03</internalNodes>
          <leafValues>
            4.4696298241615295e-01 -3.1119221448898315e-01</leafValues></_>
        <_>
          <internalNodes>
            0 -1 154 -9.3322191387414932e-03</internalNodes>
          <leafValues>
            -6.1560410261154175e-01 2.0845918357372284e-01</leafValues></_>
        <_>
          <internalNodes>
            0 -1 62 9.5722889527678490e-03</internalNodes>
          <leafValues>
            1.5429344773292542e-01 -5.7906275987625122e-01</leafValues></_>
        <_>
          <internalNodes>
            0 -1 155 4.4681457802653313e-03</internalNodes>
          <leafValues>
            1.5857128798961639e-01 -7.5286823511123657e-01</leafValues></_>
        <_>
          <internalNodes>
            0 -1 141 -8.9318640530109406e-03</internalNodes>
          <leafValues>
            6.5413743257522583e-01 -1.9070260226726532e-01</leafValues></_>
        <_>
          <internalNodes>
            0 -1 65 6.0852058231830597e-04</internalNodes>
          <leafValues>
            -4.6625751256942749e-01 2.5117462873458862e-01</leafValues></_>
        <_>
          <internalNodes>
            0 -1 25 1.7032367177307606e-03</internalNodes>
          <leafValues>
            1.4275494217872620e-01 -6.0128718614578247e-01</leafValues></_></weakClassifiers></_>
    <!-- stage 17 -->
    <_>
      <maxWeakCount>7</maxWeakCount>
      <stageThreshold>-9.1171759366989136e-01</stageThreshold>
      <weakClassifiers>
        <_>
          <internalNodes>
            0 -1 145 -2.3451328161172569e-04</internalNodes>
          <leafValues>
            6.5340906381607056e-01 -4.1509434580802917e-01</leafValues></_>
        <_>
          <internalNodes>
            0 -1 98 -1.7309983377344906e-04</internalNodes>
          <leafValues>
            6.5870016813278198e-01 -3.2334762811660767e-01</leafValues></_>
        <_>
          <internalNodes>
            0 -1 4 1.6734948381781578e-02</internalNodes>
          <leafValues>
            -8.1305360794067383e-01 2.7357959747314453e-01</leafValues></_>
        <_>
          <internalNodes>
            0 -1 61 9.5995506271719933e-03</internalNodes>
          <leafValues>
            -3.0214148759841919e-01 6.4800763130187988e-01</leafValues></_>
        <_>
          <internalNodes>
            0 -1 100 -1.9875688303727657e-04</internalNodes>
          <leafValues>
            6.3582760095596313e-01 -2.3889939486980438e-01</leafValues></_>
        <_>
          <internalNodes>
            0 -1 29 1.2422864092513919e-03</internalNodes>
          <leafValues>
            -3.8667258620262146e-01 5.1277530193328857e-01</leafValues></_>
        <_>
          <internalNodes>
            0 -1 121 -8.8872611522674561e-03</internalNodes>
          <leafValues>
            6.7637348175048828e-01 -2.8928333520889282e-01</leafValues></_></weakClassifiers></_>
    <!-- stage 18 -->
    <_>
      <maxWeakCount>5</maxWeakCount>
      <stageThreshold>-8.5812151432037354e-01</stageThreshold>
      <weakClassifiers>
        <_>
          <internalNodes>
            0 -1 49 -1.9192883372306824e-01</internalNodes>
          <leafValues>
            -9.4636017084121704e-01 4.1836735606193542e-01</leafValues></_>
        <_>
          <internalNodes>
            0 -1 114 -4.5261607738211751e-05</internalNodes>
          <leafValues>
            9.5398825407028198e-01 -4.4238179922103882e-01</leafValues></_>
        <_>
          <internalNodes>
            0 -1 40 -1.3366134371608496e-03</internalNodes>
          <leafValues>
            -7.6850289106369019e-01 4.0693402290344238e-01</leafValues></_>
        <_>
          <internalNodes>
            0 -1 59 -5.4614653345197439e-04</internalNodes>
          <leafValues>
            9.0350943803787231e-01 -3.5515323281288147e-01</leafValues></_>
        <_>
          <internalNodes>
            0 -1 147 -5.1396101480349898e-04</internalNodes>
          <leafValues>
            -6.3172560930252075e-01 4.7883960604667664e-01</leafValues></_></weakClassifiers></_>
    <!-- stage 19 -->
    <_>
      <maxWeakCount>8</maxWeakCount>
      <stageThreshold>-4.5624107122421265e-01</stageThreshold>
      <weakClassifiers>
        <_>
          <internalNodes>
            0 -1 60 3.3497717231512070e-03</internalNodes>
          <leafValues>
            1.7910447716712952e-01 -6.1752986907958984e-01</leafValues></_>
        <_>
          <internalNodes>
            0 -1 4 5.8486349880695343e-02</internalNodes>
          <leafValues>
            -2.3287491500377655e-01 6.6002345085144043e-01</leafValues></_>
        <_>
          <internalNodes>
            0 -1 110 3.1574268359690905e-03</internalNodes>
          <leafValues>
            -2.6097026467323303e-01 5.3114736080169678e-01</leafValues></_>
        <_>
          <internalNodes>
            0 -1 92 5.6432532146573067e-03</internalNodes>
          <leafValues>
            -3.0903351306915283e-01 5.0299012660980225e-01</leafValues></_>
        <_>
          <internalNodes>
            0 -1 41 5.6275725364685059e-04</internalNodes>
          <leafValues>
            -3.7264201045036316e-01 3.8403046131134033e-01</leafValues></_>
        <_>
          <internalNodes>
            0 -1 34 2.7575345709919930e-02</internalNodes>
          <leafValues>
            -1.8858695030212402e-01 7.1917980909347534e-01</leafValues></_>
        <_>
          <internalNodes>
            0 -1 71 -2.2349872160702944e-03</internalNodes>
          <leafValues>
            3.9156273007392883e-01 -3.8091722130775452e-01</leafValues></_>
        <_>
          <internalNodes>
            0 -1 73 -2.0563142606988549e-04</internalNodes>
          <leafValues>
            3.7716126441955566e-01 -3.4624251723289490e-01</leafValues></_></weakClassifiers></_>
    <!-- stage 20 -->
    <_>
      <maxWeakCount>11</maxWeakCount>
      <stageThreshold>-8.6762607097625732e-01</stageThreshold>
      <weakClassifiers>
        <_>
          <internalNodes>
            0 -1 137 3.5158384125679731e-03</internalNodes>
          <leafValues>
            1.5198238193988800e-01 -7.6381909847259521e-01</leafValues></_>
        <_>
          <internalNodes>
            0 -1 85 -3.8810642436146736e-03</internalNodes>
          <leafValues>
            3.9097017049789429e-01 -3.5986307263374329e-01</leafValues></_>
        <_>
          <internalNodes>
            0 -1 67 5.9362456202507019e-02</internalNodes>
          <leafValues>
            -2.8604245185852051e-01 6.2923896312713623e-01</leafValues></_>
        <_>
          <internalNodes>
            0 -1 117 -7.4829855293501168e-05</internalNodes>
          <leafValues>
            5.0606834888458252e-01 -2.7042406797409058e-01</leafValues></_>
        <_>
          <internalNodes>
            0 -1 38 4.4678589329123497e-03</internalNodes>
          <leafValues>
            3.1690686941146851e-01 -4.4198459386825562e-01</leafValues></_>
        <_>
          <internalNodes>
            0 -1 74 -3.7761772546218708e-05</internalNodes>
          <leafValues>
            5.5854880809783936e-01 -2.5129622220993042e-01</leafValues></_>
        <_>
          <internalNodes>
            0 -1 30 1.0825224965810776e-01</internalNodes>
          <leafValues>
            -2.1526087820529938e-01 8.0141073465347290e-01</leafValues></_>
        <_>
          <internalNodes>
            0 -1 134 -8.5857305675745010e-03</internalNodes>
          <leafValues>
            -6.9771313667297363e-01 2.4254901707172394e-01</leafValues></_>
        <_>
          <internalNodes>
            0 -1 99 -6.8622985854744911e-03</internalNodes>
          <leafValues>
            3.7537279725074768e-01 -3.5431182384490967e-01</leafValues></_>
        <_>
          <internalNodes>
            0 -1 51 1.3278927654027939e-02</internalNodes>
          <leafValues>
            -2.0063427090644836e-01 7.9909956455230713e-01</leafValues></_>
        <_>
          <internalNodes>
            0 -1 115 3.8923848478589207e-05</internalNodes>
          <leafValues>
            -3.1773212552070618e-01 5.0613576173782349e-01</leafValues></_></weakClassifiers></_>
    <!-- stage 21 -->
    <_>
      <maxWeakCount>10</maxWeakCount>
      <stageThreshold>-8.2054692506790161e-01</stageThreshold>
      <weakClassifiers>
        <_>
          <internalNodes>
            0 -1 86 4.9336947995470837e-05</internalNodes>
          <leafValues>
            -4.9854227900505066e-01 2.8387096524238586e-01</leafValues></_>
        <_>
          <internalNodes>
            0 -1 77 -7.8234849497675896e-03</internalNodes>
          <leafValues>
            5.4753458499908447e-01 -3.4361225366592407e-01</leafValues></_>
        <_>
          <internalNodes>
            0 -1 144 -3.5334401763975620e-04</internalNodes>
          <leafValues>
            6.0153985023498535e-01 -3.0848011374473572e-01</leafValues></_>
        <_>
          <internalNodes>
            0 -1 43 -2.3804379161447287e-03</internalNodes>
          <leafValues>
            -5.3058916330337524e-01 3.4322246909141541e-01</leafValues></_>
        <_>
          <internalNodes>
            0 -1 23 8.9308770839124918e-04</internalNodes>
          <leafValues>
            -2.8159269690513611e-01 5.5966168642044067e-01</leafValues></_>
        <_>
          <internalNodes>
            0 -1 156 -7.4908522947225720e-05</internalNodes>
          <leafValues>
            5.7512414455413818e-01 -3.3068141341209412e-01</leafValues></_>
        <_>
          <internalNodes>
            0 -1 46 9.2592986766248941e-04</internalNodes>
          <leafValues>
            3.4168633818626404e-01 -5.8931905031204224e-01</leafValues></_>
        <_>
          <internalNodes>
            0 -1 87 1.6064880415797234e-02</internalNodes>
          <leafValues>
            2.2540248930454254e-01 -7.7771437168121338e-01</leafValues></_>
        <_>
          <internalNodes>
            0 -1 70 -4.2044490575790405e-02</internalNodes>
          <leafValues>
            6.9106489419937134e-01 -3.3636566996574402e-01</leafValues></_>
        <_>
          <internalNodes>
            0 -1 116 -6.0636887792497873e-04</internalNodes>
          <leafValues>
            6.4338350296020508e-01 -3.8879716396331787e-01</leafValues></_></weakClassifiers></_>
    <!-- stage 22 -->
    <_>
      <maxWeakCount>6</maxWeakCount>
      <stageThreshold>-1.1160789728164673e+00</stageThreshold>
      <weakClassifiers>
        <_>
          <internalNodes>
            0 -1 77 -4.8549030907452106e-03</internalNodes>
          <leafValues>
            6.9451075792312622e-01 -5.1521986722946167e-01</leafValues></_>
        <_>
          <internalNodes>
            0 -1 149 1.4541605487465858e-02</internalNodes>
          <leafValues>
            4.9376559257507324e-01 -8.4748721122741699e-01</leafValues></_>
        <_>
          <internalNodes>
            0 -1 48 -6.6591851413249969e-02</internalNodes>
          <leafValues>
            6.9136554002761841e-01 -4.7724586725234985e-01</leafValues></_>
        <_>
          <internalNodes>
            0 -1 111 1.4074523001909256e-02</internalNodes>
          <leafValues>
            4.5376086235046387e-01 -7.8460681438446045e-01</leafValues></_>
        <_>
          <internalNodes>
            0 -1 128 3.9983235183171928e-04</internalNodes>
          <leafValues>
            6.9623094797134399e-01 -5.2147847414016724e-01</leafValues></_>
        <_>
          <internalNodes>
            0 -1 136 -5.1683513447642326e-04</internalNodes>
          <leafValues>
            7.2739315032958984e-01 -4.1813901066780090e-01</leafValues></_></weakClassifiers></_>
    <!-- stage 23 -->
    <_>
      <maxWeakCount>4</maxWeakCount>
      <stageThreshold>-1.0639126300811768e+00</stageThreshold>
      <weakClassifiers>
        <_>
          <internalNodes>
            0 -1 77 -1.3103988021612167e-03</internalNodes>
          <leafValues>
            1. -6.4837628602981567e-01</leafValues></_>
        <_>
          <internalNodes>
            0 -1 107 8.1563065759837627e-04</internalNodes>
          <leafValues>
            1. -4.8044723272323608e-01</leafValues></_>
        <_>
          <internalNodes>
            0 -1 122 -1.7457742942497134e-03</internalNodes>
          <leafValues>
            -5.6834757328033447e-01 8.2514458894729614e-01</leafValues></_>
        <_>
          <internalNodes>
            0 -1 129 -1.2065090704709291e-03</internalNodes>
          <leafValues>
            -8.6367630958557129e-01 6.3325846195220947e-01</leafValues></_></weakClassifiers></_>
    <!-- stage 24 -->
    <_>
      <maxWeakCount>2</maxWeakCount>
      <stageThreshold>2.3591116070747375e-02</stageThreshold>
      <weakClassifiers>
        <_>
          <internalNodes>
            0 -1 33 -5.8864720165729523e-02</internalNodes>
          <leafValues>
            -9.7583889961242676e-01 1.</leafValues></_>
        <_>
          <internalNodes>
            0 -1 125 1.1821822263300419e-02</internalNodes>
          <leafValues>
            1. -9.7640889883041382e-01</leafValues></_></weakClassifiers></_></stages>
  <features>
    <_>
      <rects>
        <_>
          0 0 2 1 -1.</_>
        <_>
          1 0 1 1 2.</_></rects>
      <tilted>0</tilted></_>
    <_>
      <rects>
        <_>
          0 0 2 2 -1.</_>
        <_>
          1 0 1 2 2.</_></rects>
      <tilted>0</tilted></_>
    <_>
      <rects>
        <_>
          0 0 1 8 -1.</_>
        <_>
          0 4 1 4 2.</_></rects>
      <tilted>0</tilted></_>
    <_>
      <rects>
        <_>
          0 0 1 10 -1.</_>
        <_>
          0 5 1 5 2.</_></rects>
      <tilted>0</tilted></_>
    <_>
      <rects>
        <_>
          0 0 1 12 -1.</_>
        <_>
          0 6 1 6 2.</_></rects>
      <tilted>0</tilted></_>
    <_>
      <rects>
        <_>
          0 0 1 16 -1.</_>
        <_>
          0 8 1 8 2.</_></rects>
      <tilted>0</tilted></_>
    <_>
      <rects>
        <_>
          0 0 1 20 -1.</_>
        <_>
          0 10 1 10 2.</_></rects>
      <tilted>0</tilted></_>
    <_>
      <rects>
        <_>
          0 0 2 6 -1.</_>
        <_>
          0 3 2 3 2.</_></rects>
      <tilted>0</tilted></_>
    <_>
      <rects>
        <_>
          0 0 4 6 -1.</_>
        <_>
          0 0 2 3 2.</_>
        <_>
          2 3 2 3 2.</_></rects>
      <tilted>0</tilted></_>
    <_>
      <rects>
        <_>
          0 0 2 12 -1.</_>
        <_>
          0 6 2 6 2.</_></rects>
      <tilted>0</tilted></_>
    <_>
      <rects>
        <_>
          0 0 2 14 -1.</_>
        <_>
          0 7 2 7 2.</_></rects>
      <tilted>0</tilted></_>
    <_>
      <rects>
        <_>
          0 0 3 8 -1.</_>
        <_>
          0 4 3 4 2.</_></rects>
      <tilted>0</tilted></_>
    <_>
      <rects>
        <_>
          0 0 3 14 -1.</_>
        <_>
          0 7 3 7 2.</_></rects>
      <tilted>0</tilted></_>
    <_>
      <rects>
        <_>
          0 0 3 16 -1.</_>
        <_>
          0 8 3 8 2.</_></rects>
      <tilted>0</tilted></_>
    <_>
      <rects>
        <_>
          0 0 8 1 -1.</_>
        <_>
          4 0 4 1 2.</_></rects>
      <tilted>0</tilted></_>
    <_>
      <rects>
        <_>
          0 0 8 2 -1.</_>
        <_>
          4 0 4 2 2.</_></rects>
      <tilted>0</tilted></_>
    <_>
      <rects>
        <_>
          0 0 15 3 -1.</_>
        <_>
          5 1 5 1 9.</_></rects>
      <tilted>0</tilted></_>
    <_>
      <rects>
        <_>
          0 0 10 2 -1.</_>
        <_>
          5 0 5 2 2.</_></rects>
      <tilted>0</tilted></_>
    <_>
      <rects>
        <_>
          0 0 10 3 -1.</_>
        <_>
          5 0 5 3 2.</_></rects>
      <tilted>0</tilted></_>
    <_>
      <rects>
        <_>
          0 0 10 8 -1.</_>
        <_>
          0 0 5 4 2.</_>
        <_>
          5 4 5 4 2.</_></rects>
      <tilted>0</tilted></_>
    <_>
      <rects>
        <_>
          0 0 5 20 -1.</_>
        <_>
          0 10 5 10 2.</_></rects>
      <tilted>0</tilted></_>
    <_>
      <rects>
        <_>
          0 0 6 20 -1.</_>
        <_>
          0 10 6 10 2.</_></rects>
      <tilted>0</tilted></_>
    <_>
      <rects>
        <_>
          0 0 16 1 -1.</_>
        <_>
          8 0 8 1 2.</_></rects>
      <tilted>0</tilted></_>
    <_>
      <rects>
        <_>
          0 1 1 2 -1.</_>
        <_>
          0 2 1 1 2.</_></rects>
      <tilted>0</tilted></_>
    <_>
      <rects>
        <_>
          0 1 1 8 -1.</_>
        <_>
          0 5 1 4 2.</_></rects>
      <tilted>0</tilted></_>
    <_>
      <rects>
        <_>
          0 1 4 2 -1.</_>
        <_>
          0 1 2 1 2.</_>
        <_>
          2 2 2 1 2.</_></rects>
      <tilted>0</tilted></_>
    <_>
      <rects>
        <_>
          0 1 16 1 -1.</_>
        <_>
          4 1 8 1 2.</_></rects>
      <tilted>0</tilted></_>
    <_>
      <rects>
        <_>
          0 1 8 6 -1.</_>
        <_>
          0 1 4 3 2.</_>
        <_>
          4 4 4 3 2.</_></rects>
      <tilted>0</tilted></_>
    <_>
      <rects>
        <_>
          0 1 10 12 -1.</_>
        <_>
          0 1 5 6 2.</_>
        <_>
          5 7 5 6 2.</_></rects>
      <tilted>0</tilted></_>
    <_>
      <rects>
        <_>
          0 2 2 2 -1.</_>
        <_>
          0 3 2 1 2.</_></rects>
      <tilted>0</tilted></_>
    <_>
      <rects>
        <_>
          0 2 3 18 -1.</_>
        <_>
          0 8 3 6 3.</_></rects>
      <tilted>0</tilted></_>
    <_>
      <rects>
        <_>
          0 3 3 1 -1.</_>
        <_>
          1 3 1 1 3.</_></rects>
      <tilted>0</tilted></_>
    <_>
      <rects>
        <_>
          0 3 2 2 -1.</_>
        <_>
          0 3 1 1 2.</_>
        <_>
          1 4 1 1 2.</_></rects>
      <tilted>0</tilted></_>
    <_>
      <rects>
        <_>
          0 3 3 9 -1.</_>
        <_>
          1 6 1 3 9.</_></rects>
      <tilted>0</tilted></_>
    <_>
      <rects>
        <_>
          0 3 4 4 -1.</_>
        <_>
          0 5 4 2 2.</_></rects>
      <tilted>0</tilted></_>
    <_>
      <rects>
        <_>
          0 3 5 4 -1.</_>
        <_>
          0 5 5 2 2.</_></rects>
      <tilted>0</tilted></_>
    <_>
      <rects>
        <_>
          0 3 17 6 -1.</_>
        <_>
          0 6 17 3 2.</_></rects>
      <tilted>0</tilted></_>
    <_>
      <rects>
        <_>
          0 4 3 14 -1.</_>
        <_>
          1 4 1 14 3.</_></rects>
      <tilted>0</tilted></_>
    <_>
      <rects>
        <_>
          0 4 3 16 -1.</_>
        <_>
          1 4 1 16 3.</_></rects>
      <tilted>0</tilted></_>
    <_>
      <rects>
        <_>
          0 7 20 12 -1.</_>
        <_>
          0 7 10 6 2.</_>
        <_>
          10 13 10 6 2.</_></rects>
      <tilted>0</tilted></_>
    <_>
      <rects>
        <_>
          0 8 2 2 -1.</_>
        <_>
          0 8 1 1 2.</_>
        <_>
          1 9 1 1 2.</_></rects>
      <tilted>0</tilted></_>
    <_>
      <rects>
        <_>
          0 9 1 6 -1.</_>
        <_>
          0 12 1 3 2.</_></rects>
      <tilted>0</tilted></_>
    <_>
      <rects>
        <_>
          0 10 11 10 -1.</_>
        <_>
          0 15 11 5 2.</_></rects>
      <tilted>0</tilted></_>
    <_>
      <rects>
        <_>
          0 11 3 6 -1.</_>
        <_>
          1 11 1 6 3.</_></rects>
      <tilted>0</tilted></_>
    <_>
      <rects>
        <_>
          0 11 3 9 -1.</_>
        <_>
          0 14 3 3 3.</_></rects>
      <tilted>0</tilted></_>
    <_>
      <rects>
        <_>
          0 13 2 2 -1.</_>
        <_>
          0 13 1 1 2.</_>
        <_>
          1 14 1 1 2.</_></rects>
      <tilted>0</tilted></_>
    <_>
      <rects>
        <_>
          0 18 3 2 -1.</_>
        <_>
          0 19 3 1 2.</_></rects>
      <tilted>0</tilted></_>
    <_>
      <rects>
        <_>
          1 0 2 4 -1.</_>
        <_>
          1 0 1 2 2.</_>
        <_>
          2 2 1 2 2.</_></rects>
      <tilted>0</tilted></_>
    <_>
      <rects>
        <_>
          1 0 14 1 -1.</_>
        <_>
          1 0 7 1 2.</_></rects>
      <tilted>1</tilted></_>
    <_>
      <rects>
        <_>
          1 0 18 10 -1.</_>
        <_>
          1 0 9 5 2.</_>
        <_>
          10 5 9 5 2.</_></rects>
      <tilted>0</tilted></_>
    <_>
      <rects>
        <_>
          1 0 18 10 -1.</_>
        <_>
          10 0 9 10 2.</_></rects>
      <tilted>0</tilted></_>
    <_>
      <rects>
        <_>
          1 1 3 8 -1.</_>
        <_>
          1 3 3 4 2.</_></rects>
      <tilted>0</tilted></_>
    <_>
      <rects>
        <_>
          1 1 3 14 -1.</_>
        <_>
          1 8 3 7 2.</_></rects>
      <tilted>0</tilted></_>
    <_>
      <rects>
        <_>
          1 1 12 1 -1.</_>
        <_>
          1 1 6 1 2.</_></rects>
      <tilted>1</tilted></_>
    <_>
      <rects>
        <_>
          1 2 2 1 -1.</_>
        <_>
          2 2 1 1 2.</_></rects>
      <tilted>0</tilted></_>
    <_>
      <rects>
        <_>
          1 2 2 2 -1.</_>
        <_>
          1 2 1 1 2.</_>
        <_>
          2 3 1 1 2.</_></rects>
      <tilted>0</tilted></_>
    <_>
      <rects>
        <_>
          1 2 8 3 -1.</_>
        <_>
          5 2 4 3 2.</_></rects>
      <tilted>0</tilted></_>
    <_>
      <rects>
        <_>
          1 2 10 1 -1.</_>
        <_>
          6 2 5 1 2.</_></rects>
      <tilted>0</tilted></_>
    <_>
      <rects>
        <_>
          1 3 9 8 -1.</_>
        <_>
          1 5 9 4 2.</_></rects>
      <tilted>0</tilted></_>
    <_>
      <rects>
        <_>
          1 4 17 4 -1.</_>
        <_>
          1 5 17 2 2.</_></rects>
      <tilted>0</tilted></_>
    <_>
      <rects>
        <_>
          1 5 6 3 -1.</_>
        <_>
          1 6 6 1 3.</_></rects>
      <tilted>0</tilted></_>
    <_>
      <rects>
        <_>
          1 6 8 1 -1.</_>
        <_>
          3 8 4 1 2.</_></rects>
      <tilted>1</tilted></_>
    <_>
      <rects>
        <_>
          1 8 4 10 -1.</_>
        <_>
          2 8 2 10 2.</_></rects>
      <tilted>0</tilted></_>
    <_>
      <rects>
        <_>
          1 16 16 3 -1.</_>
        <_>
          1 17 16 1 3.</_></rects>
      <tilted>0</tilted></_>
    <_>
      <rects>
        <_>
          1 18 1 2 -1.</_>
        <_>
          1 19 1 1 2.</_></rects>
      <tilted>0</tilted></_>
    <_>
      <rects>
        <_>
          2 0 1 20 -1.</_>
        <_>
          2 5 1 10 2.</_></rects>
      <tilted>0</tilted></_>
    <_>
      <rects>
        <_>
          2 0 10 4 -1.</_>
        <_>
          7 0 5 4 2.</_></rects>
      <tilted>0</tilted></_>
    <_>
      <rects>
        <_>
          2 1 15 1 -1.</_>
        <_>
          7 6 5 1 3.</_></rects>
      <tilted>1</tilted></_>
    <_>
      <rects>
        <_>
          2 2 1 6 -1.</_>
        <_>
          2 5 1 3 2.</_></rects>
      <tilted>0</tilted></_>
    <_>
      <rects>
        <_>
          2 2 4 4 -1.</_>
        <_>
          2 3 4 2 2.</_></rects>
      <tilted>0</tilted></_>
    <_>
      <rects>
        <_>
          2 2 10 1 -1.</_>
        <_>
          2 2 5 1 2.</_></rects>
      <tilted>1</tilted></_>
    <_>
      <rects>
        <_>
          2 6 10 2 -1.</_>
        <_>
          2 6 10 1 2.</_></rects>
      <tilted>1</tilted></_>
    <_>
      <rects>
        <_>
          2 8 3 4 -1.</_>
        <_>
          2 9 3 2 2.</_></rects>
      <tilted>0</tilted></_>
    <_>
      <rects>
        <_>
          2 15 12 2 -1.</_>
        <_>
          2 15 6 1 2.</_>
        <_>
          8 16 6 1 2.</_></rects>
      <tilted>0</tilted></_>
    <_>
      <rects>
        <_>
          2 17 5 2 -1.</_>
        <_>
          2 18 5 1 2.</_></rects>
      <tilted>0</tilted></_>
    <_>
      <rects>
        <_>
          3 0 4 9 -1.</_>
        <_>
          3 3 4 3 3.</_></rects>
      <tilted>0</tilted></_>
    <_>
      <rects>
        <_>
          3 0 16 5 -1.</_>
        <_>
          7 0 8 5 2.</_></rects>
      <tilted>0</tilted></_>
    <_>
      <rects>
        <_>
          3 1 2 3 -1.</_>
        <_>
          2 2 2 1 3.</_></rects>
      <tilted>1</tilted></_>
    <_>
      <rects>
        <_>
          3 2 4 18 -1.</_>
        <_>
          4 2 2 18 2.</_></rects>
      <tilted>0</tilted></_>
    <_>
      <rects>
        <_>
          3 5 14 6 -1.</_>
        <_>
          3 7 14 2 3.</_></rects>
      <tilted>0</tilted></_>
    <_>
      <rects>
        <_>
          3 6 3 2 -1.</_>
        <_>
          4 6 1 2 3.</_></rects>
      <tilted>0</tilted></_>
    <_>
      <rects>
        <_>
          3 6 10 12 -1.</_>
        <_>
          3 6 5 6 2.</_>
        <_>
          8 12 5 6 2.</_></rects>
      <tilted>0</tilted></_>
    <_>
      <rects>
        <_>
          3 8 2 2 -1.</_>
        <_>
          3 8 1 2 2.</_></rects>
      <tilted>1</tilted></_>
    <_>
      <rects>
        <_>
          3 9 6 6 -1.</_>
        <_>
          3 9 3 3 2.</_>
        <_>
          6 12 3 3 2.</_></rects>
      <tilted>0</tilted></_>
    <_>
      <rects>
        <_>
          3 14 2 2 -1.</_>
        <_>
          4 14 1 2 2.</_></rects>
      <tilted>0</tilted></_>
    <_>
      <rects>
        <_>
          4 0 6 20 -1.</_>
        <_>
          4 5 6 10 2.</_></rects>
      <tilted>0</tilted></_>
    <_>
      <rects>
        <_>
          4 1 2 1 -1.</_>
        <_>
          5 1 1 1 2.</_></rects>
      <tilted>0</tilted></_>
    <_>
      <rects>
        <_>
          4 7 3 4 -1.</_>
        <_>
          5 8 1 4 3.</_></rects>
      <tilted>1</tilted></_>
    <_>
      <rects>
        <_>
          4 7 7 4 -1.</_>
        <_>
          4 8 7 2 2.</_></rects>
      <tilted>0</tilted></_>
    <_>
      <rects>
        <_>
          4 19 3 1 -1.</_>
        <_>
          5 19 1 1 3.</_></rects>
      <tilted>0</tilted></_>
    <_>
      <rects>
        <_>
          4 19 10 1 -1.</_>
        <_>
          9 19 5 1 2.</_></rects>
      <tilted>0</tilted></_>
    <_>
      <rects>
        <_>
          5 3 3 4 -1.</_>
        <_>
          5 5 3 2 2.</_></rects>
      <tilted>0</tilted></_>
    <_>
      <rects>
        <_>
          5 4 15 12 -1.</_>
        <_>
          5 8 15 4 3.</_></rects>
      <tilted>0</tilted></_>
    <_>
      <rects>
        <_>
          5 5 8 4 -1.</_>
        <_>
          5 5 8 2 2.</_></rects>
      <tilted>1</tilted></_>
    <_>
      <rects>
        <_>
          5 6 8 5 -1.</_>
        <_>
          7 8 4 5 2.</_></rects>
      <tilted>1</tilted></_>
    <_>
      <rects>
        <_>
          6 0 14 10 -1.</_>
        <_>
          13 0 7 10 2.</_></rects>
      <tilted>0</tilted></_>
    <_>
      <rects>
        <_>
          6 0 12 2 -1.</_>
        <_>
          6 1 12 1 2.</_></rects>
      <tilted>0</tilted></_>
    <_>
      <rects>
        <_>
          6 1 6 2 -1.</_>
        <_>
          6 2 6 1 2.</_></rects>
      <tilted>0</tilted></_>
    <_>
      <rects>
        <_>
          6 2 2 2 -1.</_>
        <_>
          6 3 2 1 2.</_></rects>
      <tilted>0</tilted></_>
    <_>
      <rects>
        <_>
          6 6 4 6 -1.</_>
        <_>
          6 6 2 6 2.</_></rects>
      <tilted>1</tilted></_>
    <_>
      <rects>
        <_>
          6 10 4 4 -1.</_>
        <_>
          6 12 4 2 2.</_></rects>
      <tilted>0</tilted></_>
    <_>
      <rects>
        <_>
          6 10 12 3 -1.</_>
        <_>
          6 11 12 1 3.</_></rects>
      <tilted>0</tilted></_>
    <_>
      <rects>
        <_>
          7 1 1 9 -1.</_>
        <_>
          7 4 1 3 3.</_></rects>
      <tilted>0</tilted></_>
    <_>
      <rects>
        <_>
          7 4 6 6 -1.</_>
        <_>
          7 6 6 2 3.</_></rects>
      <tilted>0</tilted></_>
    <_>
      <rects>
        <_>
          7 10 6 4 -1.</_>
        <_>
          7 11 6 2 2.</_></rects>
      <tilted>0</tilted></_>
    <_>
      <rects>
        <_>
          7 11 2 3 -1.</_>
        <_>
          6 12 2 1 3.</_></rects>
      <tilted>1</tilted></_>
    <_>
      <rects>
        <_>
          7 14 4 5 -1.</_>
        <_>
          8 14 2 5 2.</_></rects>
      <tilted>0</tilted></_>
    <_>
      <rects>
        <_>
          7 18 4 1 -1.</_>
        <_>
          8 18 2 1 2.</_></rects>
      <tilted>0</tilted></_>
    <_>
      <rects>
        <_>
          8 0 8 4 -1.</_>
        <_>
          8 1 8 2 2.</_></rects>
      <tilted>0</tilted></_>
    <_>
      <rects>
        <_>
          8 1 3 18 -1.</_>
        <_>
          8 10 3 9 2.</_></rects>
      <tilted>0</tilted></_>
    <_>
      <rects>
        <_>
          8 1 8 2 -1.</_>
        <_>
          8 1 4 2 2.</_></rects>
      <tilted>1</tilted></_>
    <_>
      <rects>
        <_>
          8 4 4 6 -1.</_>
        <_>
          9 4 2 6 2.</_></rects>
      <tilted>0</tilted></_>
    <_>
      <rects>
        <_>
          8 6 4 9 -1.</_>
        <_>
          8 9 4 3 3.</_></rects>
      <tilted>0</tilted></_>
    <_>
      <rects>
        <_>
          8 11 8 4 -1.</_>
        <_>
          8 13 8 2 2.</_></rects>
      <tilted>0</tilted></_>
    <_>
      <rects>
        <_>
          9 9 7 3 -1.</_>
        <_>
          9 10 7 1 3.</_></rects>
      <tilted>0</tilted></_>
    <_>
      <rects>
        <_>
          9 9 9 4 -1.</_>
        <_>
          9 10 9 2 2.</_></rects>
      <tilted>0</tilted></_>
    <_>
      <rects>
        <_>
          9 10 3 6 -1.</_>
        <_>
          9 10 3 3 2.</_></rects>
      <tilted>1</tilted></_>
    <_>
      <rects>
        <_>
          9 11 2 6 -1.</_>
        <_>
          9 11 2 3 2.</_></rects>
      <tilted>1</tilted></_>
    <_>
      <rects>
        <_>
          9 16 4 4 -1.</_>
        <_>
          9 16 2 2 2.</_>
        <_>
          11 18 2 2 2.</_></rects>
      <tilted>0</tilted></_>
    <_>
      <rects>
        <_>
          10 4 4 4 -1.</_>
        <_>
          9 5 4 2 2.</_></rects>
      <tilted>1</tilted></_>
    <_>
      <rects>
        <_>
          10 6 4 13 -1.</_>
        <_>
          12 6 2 13 2.</_></rects>
      <tilted>0</tilted></_>
    <_>
      <rects>
        <_>
          10 7 2 10 -1.</_>
        <_>
          10 7 2 5 2.</_></rects>
      <tilted>1</tilted></_>
    <_>
      <rects>
        <_>
          11 7 2 4 -1.</_>
        <_>
          11 8 2 2 2.</_></rects>
      <tilted>0</tilted></_>
    <_>
      <rects>
        <_>
          11 7 5 4 -1.</_>
        <_>
          11 8 5 2 2.</_></rects>
      <tilted>0</tilted></_>
    <_>
      <rects>
        <_>
          11 8 2 3 -1.</_>
        <_>
          11 8 1 3 2.</_></rects>
      <tilted>1</tilted></_>
    <_>
      <rects>
        <_>
          11 13 3 2 -1.</_>
        <_>
          12 14 1 2 3.</_></rects>
      <tilted>1</tilted></_>
    <_>
      <rects>
        <_>
          12 4 1 4 -1.</_>
        <_>
          11 5 1 2 2.</_></rects>
      <tilted>1</tilted></_>
    <_>
      <rects>
        <_>
          13 8 7 4 -1.</_>
        <_>
          13 8 7 2 2.</_></rects>
      <tilted>1</tilted></_>
    <_>
      <rects>
        <_>
          13 10 2 4 -1.</_>
        <_>
          13 10 1 2 2.</_>
        <_>
          14 12 1 2 2.</_></rects>
      <tilted>0</tilted></_>
    <_>
      <rects>
        <_>
          13 10 2 2 -1.</_>
        <_>
          13 11 2 1 2.</_></rects>
      <tilted>0</tilted></_>
    <_>
      <rects>
        <_>
          13 12 4 8 -1.</_>
        <_>
          14 12 2 8 2.</_></rects>
      <tilted>0</tilted></_>
    <_>
      <rects>
        <_>
          13 15 4 2 -1.</_>
        <_>
          13 16 4 1 2.</_></rects>
      <tilted>0</tilted></_>
    <_>
      <rects>
        <_>
          14 0 1 18 -1.</_>
        <_>
          14 6 1 6 3.</_></rects>
      <tilted>0</tilted></_>
    <_>
      <rects>
        <_>
          14 2 2 4 -1.</_>
        <_>
          14 4 2 2 2.</_></rects>
      <tilted>0</tilted></_>
    <_>
      <rects>
        <_>
          14 4 4 3 -1.</_>
        <_>
          15 4 2 3 2.</_></rects>
      <tilted>0</tilted></_>
    <_>
      <rects>
        <_>
          14 6 6 6 -1.</_>
        <_>
          17 6 3 6 2.</_></rects>
      <tilted>0</tilted></_>
    <_>
      <rects>
        <_>
          14 11 3 3 -1.</_>
        <_>
          13 12 3 1 3.</_></rects>
      <tilted>1</tilted></_>
    <_>
      <rects>
        <_>
          14 13 4 4 -1.</_>
        <_>
          14 14 4 2 2.</_></rects>
      <tilted>0</tilted></_>
    <_>
      <rects>
        <_>
          14 15 2 3 -1.</_>
        <_>
          13 16 2 1 3.</_></rects>
      <tilted>1</tilted></_>
    <_>
      <rects>
        <_>
          14 15 3 2 -1.</_>
        <_>
          14 16 3 1 2.</_></rects>
      <tilted>0</tilted></_>
    <_>
      <rects>
        <_>
          15 1 4 8 -1.</_>
        <_>
          16 1 2 8 2.</_></rects>
      <tilted>0</tilted></_>
    <_>
      <rects>
        <_>
          15 1 5 6 -1.</_>
        <_>
          15 3 5 2 3.</_></rects>
      <tilted>0</tilted></_>
    <_>
      <rects>
        <_>
          15 5 2 8 -1.</_>
        <_>
          13 7 2 4 2.</_></rects>
      <tilted>1</tilted></_>
    <_>
      <rects>
        <_>
          15 5 3 12 -1.</_>
        <_>
          15 11 3 6 2.</_></rects>
      <tilted>0</tilted></_>
    <_>
      <rects>
        <_>
          15 7 4 7 -1.</_>
        <_>
          16 7 2 7 2.</_></rects>
      <tilted>0</tilted></_>
    <_>
      <rects>
        <_>
          15 9 2 4 -1.</_>
        <_>
          15 11 2 2 2.</_></rects>
      <tilted>0</tilted></_>
    <_>
      <rects>
        <_>
          15 9 4 7 -1.</_>
        <_>
          17 9 2 7 2.</_></rects>
      <tilted>0</tilted></_>
    <_>
      <rects>
        <_>
          15 15 1 3 -1.</_>
        <_>
          15 16 1 1 3.</_></rects>
      <tilted>0</tilted></_>
    <_>
      <rects>
        <_>
          15 19 2 1 -1.</_>
        <_>
          16 19 1 1 2.</_></rects>
      <tilted>0</tilted></_>
    <_>
      <rects>
        <_>
          16 2 4 9 -1.</_>
        <_>
          17 2 2 9 2.</_></rects>
      <tilted>0</tilted></_>
    <_>
      <rects>
        <_>
          16 5 2 3 -1.</_>
        <_>
          16 6 2 1 3.</_></rects>
      <tilted>0</tilted></_>
    <_>
      <rects>
        <_>
          16 7 2 13 -1.</_>
        <_>
          17 7 1 13 2.</_></rects>
      <tilted>0</tilted></_>
    <_>
      <rects>
        <_>
          16 10 3 3 -1.</_>
        <_>
          17 10 1 3 3.</_></rects>
      <tilted>0</tilted></_>
    <_>
      <rects>
        <_>
          16 12 4 3 -1.</_>
        <_>
          16 13 4 1 3.</_></rects>
      <tilted>0</tilted></_>
    <_>
      <rects>
        <_>
          17 0 3 6 -1.</_>
        <_>
          18 0 1 6 3.</_></rects>
      <tilted>0</tilted></_>
    <_>
      <rects>
        <_>
          17 4 3 4 -1.</_>
        <_>
          18 4 1 4 3.</_></rects>
      <tilted>0</tilted></_>
    <_>
      <rects>
        <_>
          17 10 2 2 -1.</_>
        <_>
          18 10 1 2 2.</_></rects>
      <tilted>0</tilted></_>
    <_>
      <rects>
        <_>
          17 15 2 4 -1.</_>
        <_>
          17 17 2 2 2.</_></rects>
      <tilted>0</tilted></_>
    <_>
      <rects>
        <_>
          18 0 1 6 -1.</_>
        <_>
          18 2 1 2 3.</_></rects>
      <tilted>0</tilted></_>
    <_>
      <rects>
        <_>
          18 10 2 6 -1.</_>
        <_>
          18 10 1 3 2.</_>
        <_>
          19 13 1 3 2.</_></rects>
      <tilted>0</tilted></_>
    <_>
      <rects>
        <_>
          19 8 1 2 -1.</_>
        <_>
          19 8 1 1 2.</_></rects>
      <tilted>1</tilted></_></features></cascade>
</opencv_storage>
