<?xml version="1.0"?>
<opencv_storage>
<stage21>
  <maxWeakCount>10</maxWeakCount>
  <stageThreshold>-8.2054692506790161e-01</stageThreshold>
  <weakClassifiers>
    <_>
      <internalNodes>
        0 -1 38853 4.9336947995470837e-05</internalNodes>
      <leafValues>
        -4.9854227900505066e-01 2.8387096524238586e-01</leafValues></_>
    <_>
      <internalNodes>
        0 -1 29898 -7.8234849497675896e-03</internalNodes>
      <leafValues>
        5.4753458499908447e-01 -3.4361225366592407e-01</leafValues></_>
    <_>
      <internalNodes>
        0 -1 117072 -3.5334401763975620e-04</internalNodes>
      <leafValues>
        6.0153985023498535e-01 -3.0848011374473572e-01</leafValues></_>
    <_>
      <internalNodes>
        0 -1 7963 -2.3804379161447287e-03</internalNodes>
      <leafValues>
        -5.3058916330337524e-01 3.4322246909141541e-01</leafValues></_>
    <_>
      <internalNodes>
        0 -1 977 8.9308770839124918e-04</internalNodes>
      <leafValues>
        -2.8159269690513611e-01 5.5966168642044067e-01</leafValues></_>
    <_>
      <internalNodes>
        0 -1 123106 -7.4908522947225720e-05</internalNodes>
      <leafValues>
        5.7512414455413818e-01 -3.3068141341209412e-01</leafValues></_>
    <_>
      <internalNodes>
        0 -1 9872 9.2592986766248941e-04</internalNodes>
      <leafValues>
        3.4168633818626404e-01 -5.8931905031204224e-01</leafValues></_>
    <_>
      <internalNodes>
        0 -1 43392 1.6064880415797234e-02</internalNodes>
      <leafValues>
        2.2540248930454254e-01 -7.7771437168121338e-01</leafValues></_>
    <_>
      <internalNodes>
        0 -1 21555 -4.2044490575790405e-02</internalNodes>
      <leafValues>
        6.9106489419937134e-01 -3.3636566996574402e-01</leafValues></_>
    <_>
      <internalNodes>
        0 -1 85568 -6.0636887792497873e-04</internalNodes>
      <leafValues>
        6.4338350296020508e-01 -3.8879716396331787e-01</leafValues></_></weakClassifiers></stage21>
</opencv_storage>
