<?xml version="1.0"?>
<opencv_storage>
<stage6>
  <maxWeakCount>6</maxWeakCount>
  <stageThreshold>-9.8819601535797119e-01</stageThreshold>
  <weakClassifiers>
    <_>
      <internalNodes>
        0 -1 11329 -3.5018112510442734e-02</internalNodes>
      <leafValues>
        8.7096774578094482e-01 -5.5905508995056152e-01</leafValues></_>
    <_>
      <internalNodes>
        0 -1 8036 -9.6969166770577431e-03</internalNodes>
      <leafValues>
        -6.2105929851531982e-01 5.3590291738510132e-01</leafValues></_>
    <_>
      <internalNodes>
        0 -1 70535 -3.0300123617053032e-03</internalNodes>
      <leafValues>
        -6.0574120283126831e-01 4.5229497551918030e-01</leafValues></_>
    <_>
      <internalNodes>
        0 -1 219 1.9908698275685310e-02</internalNodes>
      <leafValues>
        -4.9895331263542175e-01 5.6602227687835693e-01</leafValues></_>
    <_>
      <internalNodes>
        0 -1 110456 -9.1286748647689819e-03</internalNodes>
      <leafValues>
        -5.2163881063461304e-01 5.5645209550857544e-01</leafValues></_>
    <_>
      <internalNodes>
        0 -1 33489 -1.1826209723949432e-02</internalNodes>
      <leafValues>
        9.0574049949645996e-01 -3.2481470704078674e-01</leafValues></_></weakClassifiers></stage6>
</opencv_storage>
