<?xml version="1.0"?>
<opencv_storage>
<stage2>
  <maxWeakCount>5</maxWeakCount>
  <stageThreshold>-6.4945626258850098e-01</stageThreshold>
  <weakClassifiers>
    <_>
      <internalNodes>
        0 -1 145 5.3270585834980011e-02</internalNodes>
      <leafValues>
        -5.3543305397033691e-01 8.3870965242385864e-01</leafValues></_>
    <_>
      <internalNodes>
        0 -1 70712 3.4411828964948654e-03</internalNodes>
      <leafValues>
        5.4495841264724731e-01 -5.3728282451629639e-01</leafValues></_>
    <_>
      <internalNodes>
        0 -1 396 5.2050780504941940e-02</internalNodes>
      <leafValues>
        -4.0034896135330200e-01 6.8933349847793579e-01</leafValues></_>
    <_>
      <internalNodes>
        0 -1 123491 8.8930199854075909e-04</internalNodes>
      <leafValues>
        5.2919411659240723e-01 -4.6643203496932983e-01</leafValues></_>
    <_>
      <internalNodes>
        0 -1 114753 -5.8024968020617962e-03</internalNodes>
      <leafValues>
        -7.4427503347396851e-01 2.9441446065902710e-01</leafValues></_></weakClassifiers></stage2>
</opencv_storage>
