<?xml version="1.0"?>
<opencv_storage>
<stage9>
  <maxWeakCount>7</maxWeakCount>
  <stageThreshold>-6.9670498371124268e-01</stageThreshold>
  <weakClassifiers>
    <_>
      <internalNodes>
        0 -1 6220 -2.2359013557434082e-02</internalNodes>
      <leafValues>
        7.3493975400924683e-01 -3.7226277589797974e-01</leafValues></_>
    <_>
      <internalNodes>
        0 -1 3098 1.7479836940765381e-02</internalNodes>
      <leafValues>
        -2.6065701246261597e-01 8.6471050977706909e-01</leafValues></_>
    <_>
      <internalNodes>
        0 -1 19271 3.3412547782063484e-04</internalNodes>
      <leafValues>
        4.8117440938949585e-01 -5.1078981161117554e-01</leafValues></_>
    <_>
      <internalNodes>
        0 -1 97742 7.7475840225815773e-04</internalNodes>
      <leafValues>
        5.0751674175262451e-01 -4.4535177946090698e-01</leafValues></_>
    <_>
      <internalNodes>
        0 -1 119 -1.1980485171079636e-02</internalNodes>
      <leafValues>
        6.4170575141906738e-01 -3.7818136811256409e-01</leafValues></_>
    <_>
      <internalNodes>
        0 -1 67537 -7.0352852344512939e-03</internalNodes>
      <leafValues>
        8.1475102901458740e-01 -2.5693348050117493e-01</leafValues></_>
    <_>
      <internalNodes>
        0 -1 97869 -1.5838100807741284e-03</internalNodes>
      <leafValues>
        -3.8640415668487549e-01 5.3550702333450317e-01</leafValues></_></weakClassifiers></stage9>
</opencv_storage>
