<?xml version="1.0"?>
<opencv_storage>
<stage5>
  <maxWeakCount>5</maxWeakCount>
  <stageThreshold>-5.0979882478713989e-01</stageThreshold>
  <weakClassifiers>
    <_>
      <internalNodes>
        0 -1 247 9.1291338205337524e-02</internalNodes>
      <leafValues>
        -4.9442380666732788e-01 8.9473682641983032e-01</leafValues></_>
    <_>
      <internalNodes>
        0 -1 119941 1.3199483510106802e-03</internalNodes>
      <leafValues>
        4.4021341204643250e-01 -6.4811909198760986e-01</leafValues></_>
    <_>
      <internalNodes>
        0 -1 19797 3.0200261622667313e-02</internalNodes>
      <leafValues>
        -4.5750063657760620e-01 6.3078403472900391e-01</leafValues></_>
    <_>
      <internalNodes>
        0 -1 1271 -2.5652710348367691e-02</internalNodes>
      <leafValues>
        6.8008083105087280e-01 -3.5951873660087585e-01</leafValues></_>
    <_>
      <internalNodes>
        0 -1 111431 -3.4210144076496363e-03</internalNodes>
      <leafValues>
        -6.4510202407836914e-01 3.6147877573966980e-01</leafValues></_></weakClassifiers></stage5>
</opencv_storage>
