<?xml version="1.0"?>
<opencv_storage>
<stage12>
  <maxWeakCount>100</maxWeakCount>
  <stageThreshold>-2.3790075778961182e+00</stageThreshold>
  <weakClassifiers>
    <_>
      <internalNodes>
        0 -1 0 7.9180583357810974e-02</internalNodes>
      <leafValues>
        -7.3381292819976807e-01 3.1994643807411194e-01</leafValues></_>
    <_>
      <internalNodes>
        0 -1 23 2.3651279509067535e-02</internalNodes>
      <leafValues>
        -5.2234452962875366e-01 1.7711700499057770e-01</leafValues></_>
    <_>
      <internalNodes>
        0 -1 135 -3.6508997436612844e-03</internalNodes>
      <leafValues>
        2.9129368066787720e-01 -2.7646332979202271e-01</leafValues></_>
    <_>
      <internalNodes>
        0 -1 215 -1.7923744395375252e-02</internalNodes>
      <leafValues>
        3.4585690498352051e-01 -1.7856036126613617e-01</leafValues></_>
    <_>
      <internalNodes>
        0 -1 8 -1.1543834954500198e-01</internalNodes>
      <leafValues>
        6.2759143114089966e-01 -1.1204437166452408e-01</leafValues></_>
    <_>
      <internalNodes>
        0 -1 12 -1.1489741802215576e+00</internalNodes>
      <leafValues>
        5.1959234476089478e-01 -8.9187949895858765e-02</leafValues></_>
    <_>
      <internalNodes>
        0 -1 100 1.0286718606948853e-02</internalNodes>
      <leafValues>
        -1.9976143538951874e-01 1.5306682884693146e-01</leafValues></_>
    <_>
      <internalNodes>
        0 -1 99 4.4250398874282837e-01</internalNodes>
      <leafValues>
        8.3666808903217316e-02 -4.4590991735458374e-01</leafValues></_>
    <_>
      <internalNodes>
        0 -1 388 5.1826393604278564e-01</internalNodes>
      <leafValues>
        -3.8557685911655426e-02 8.3885222673416138e-01</leafValues></_>
    <_>
      <internalNodes>
        0 -1 395 -1.7813313007354736e-01</internalNodes>
      <leafValues>
        4.8133373260498047e-01 -4.6281103044748306e-02</leafValues></_>
    <_>
      <internalNodes>
        0 -1 136 -3.3347982168197632e-01</internalNodes>
      <leafValues>
        5.3838264942169189e-01 -4.5053176581859589e-02</leafValues></_>
    <_>
      <internalNodes>
        0 -1 136 7.4365630745887756e-02</internalNodes>
      <leafValues>
        -9.4281315803527832e-02 2.8314930200576782e-01</leafValues></_>
    <_>
      <internalNodes>
        0 -1 358 -2.5230404734611511e-01</internalNodes>
      <leafValues>
        -6.1152529716491699e-01 1.0194162279367447e-01</leafValues></_>
    <_>
      <internalNodes>
        0 -1 400 4.0119105577468872e-01</internalNodes>
      <leafValues>
        -2.8983974829316139e-02 -9.6878540515899658e-01</leafValues></_>
    <_>
      <internalNodes>
        0 -1 211 -8.1194603443145752e-01</internalNodes>
      <leafValues>
        -9.3191874027252197e-01 1.3266528025269508e-02</leafValues></_>
    <_>
      <internalNodes>
        0 -1 1 -7.9469174146652222e-02</internalNodes>
      <leafValues>
        6.7373293638229370e-01 -4.4458791613578796e-02</leafValues></_>
    <_>
      <internalNodes>
        0 -1 5 3.8156157732009888e-01</internalNodes>
      <leafValues>
        -6.2573023140430450e-02 3.0327031016349792e-01</leafValues></_>
    <_>
      <internalNodes>
        0 -1 32 3.2964160442352295e+00</internalNodes>
      <leafValues>
        4.4141117483377457e-02 -4.9322691559791565e-01</leafValues></_>
    <_>
      <internalNodes>
        0 -1 160 -5.5106532573699951e-01</internalNodes>
      <leafValues>
        1.2327289581298828e-01 -1.6995109617710114e-01</leafValues></_>
    <_>
      <internalNodes>
        0 -1 160 -5.2740231156349182e-02</internalNodes>
      <leafValues>
        -6.4963549375534058e-02 3.7974888086318970e-01</leafValues></_>
    <_>
      <internalNodes>
        0 -1 30 3.2083001732826233e-01</internalNodes>
      <leafValues>
        -2.7025663852691650e-01 5.7979296892881393e-02</leafValues></_>
    <_>
      <internalNodes>
        0 -1 187 -4.8631614446640015e-01</internalNodes>
      <leafValues>
        4.3620234727859497e-01 -6.0521125793457031e-02</leafValues></_>
    <_>
      <internalNodes>
        0 -1 369 -1.8425031006336212e-01</internalNodes>
      <leafValues>
        -2.5757652521133423e-01 1.5647207200527191e-01</leafValues></_>
    <_>
      <internalNodes>
        0 -1 326 6.2881129980087280e-01</internalNodes>
      <leafValues>
        -8.7033212184906006e-02 6.5569585561752319e-01</leafValues></_>
    <_>
      <internalNodes>
        0 -1 121 4.2006379365921021e-01</internalNodes>
      <leafValues>
        3.0658561736345291e-02 -6.9492644071578979e-01</leafValues></_>
    <_>
      <internalNodes>
        0 -1 129 -6.7608064413070679e-01</internalNodes>
      <leafValues>
        -8.9984452724456787e-01 1.3473451137542725e-02</leafValues></_>
    <_>
      <internalNodes>
        0 -1 152 -6.1527204513549805e-01</internalNodes>
      <leafValues>
        3.2515370845794678e-01 -5.2981462329626083e-02</leafValues></_>
    <_>
      <internalNodes>
        0 -1 113 2.5815027952194214e-01</internalNodes>
      <leafValues>
        6.2668830156326294e-02 -3.5310265421867371e-01</leafValues></_>
    <_>
      <internalNodes>
        0 -1 241 -5.1627302169799805e-01</internalNodes>
      <leafValues>
        1. -1.9859556108713150e-02</leafValues></_>
    <_>
      <internalNodes>
        0 -1 207 -3.5935413837432861e-01</internalNodes>
      <leafValues>
        4.1233783960342407e-01 -3.3699184656143188e-02</leafValues></_>
    <_>
      <internalNodes>
        0 -1 383 1.9788755476474762e-01</internalNodes>
      <leafValues>
        4.4931277632713318e-02 -4.1932424902915955e-01</leafValues></_>
    <_>
      <internalNodes>
        0 -1 223 5.0262582302093506e-01</internalNodes>
      <leafValues>
        -5.0726670771837234e-02 3.8324078917503357e-01</leafValues></_>
    <_>
      <internalNodes>
        0 -1 370 4.1405853629112244e-01</internalNodes>
      <leafValues>
        5.0461687147617340e-02 -4.3937090039253235e-01</leafValues></_>
    <_>
      <internalNodes>
        0 -1 338 1.8036597967147827e-01</internalNodes>
      <leafValues>
        -4.2492076754570007e-02 4.7249495983123779e-01</leafValues></_>
    <_>
      <internalNodes>
        0 -1 401 -1.5796819329261780e-01</internalNodes>
      <leafValues>
        -3.6036294698715210e-01 4.9648962914943695e-02</leafValues></_>
    <_>
      <internalNodes>
        0 -1 75 2.0888009667396545e-01</internalNodes>
      <leafValues>
        -9.3417890369892120e-02 1.8473739922046661e-01</leafValues></_>
    <_>
      <internalNodes>
        0 -1 293 4.2797323316335678e-02</internalNodes>
      <leafValues>
        -9.3373045325279236e-02 2.3072099685668945e-01</leafValues></_>
    <_>
      <internalNodes>
        0 -1 3 -2.7487343549728394e-01</internalNodes>
      <leafValues>
        -5.0064736604690552e-01 4.5152701437473297e-02</leafValues></_>
    <_>
      <internalNodes>
        0 -1 293 1.2138004601001740e-01</internalNodes>
      <leafValues>
        4.8562619835138321e-02 -3.4560948610305786e-01</leafValues></_>
    <_>
      <internalNodes>
        0 -1 8 4.7998609542846680e+00</internalNodes>
      <leafValues>
        -1.9879929721355438e-02 9.6915793418884277e-01</leafValues></_>
    <_>
      <internalNodes>
        0 -1 329 -3.1796154379844666e-01</internalNodes>
      <leafValues>
        -5.8640068769454956e-01 3.4780498594045639e-02</leafValues></_>
    <_>
      <internalNodes>
        0 -1 57 2.8618329763412476e-01</internalNodes>
      <leafValues>
        3.0546665191650391e-02 -4.4588592648506165e-01</leafValues></_>
    <_>
      <internalNodes>
        0 -1 230 2.8080873191356659e-02</internalNodes>
      <leafValues>
        -1.0767501592636108e-01 1.4743177592754364e-01</leafValues></_>
    <_>
      <internalNodes>
        0 -1 319 -2.6817852258682251e-01</internalNodes>
      <leafValues>
        6.5834933519363403e-01 -2.6166897267103195e-02</leafValues></_>
    <_>
      <internalNodes>
        0 -1 177 5.4264241456985474e-01</internalNodes>
      <leafValues>
        -2.0708650350570679e-02 6.5737062692642212e-01</leafValues></_>
    <_>
      <internalNodes>
        0 -1 401 2.8905260562896729e-01</internalNodes>
      <leafValues>
        3.2959677278995514e-02 -5.1943260431289673e-01</leafValues></_>
    <_>
      <internalNodes>
        0 -1 228 -5.1105141639709473e-01</internalNodes>
      <leafValues>
        -7.4709874391555786e-01 1.7581064254045486e-02</leafValues></_>
    <_>
      <internalNodes>
        0 -1 215 -5.4984092712402344e-02</internalNodes>
      <leafValues>
        2.4392265081405640e-01 -6.9588236510753632e-02</leafValues></_>
    <_>
      <internalNodes>
        0 -1 301 3.3626914024353027e-01</internalNodes>
      <leafValues>
        4.2697351425886154e-02 -3.9532795548439026e-01</leafValues></_>
    <_>
      <internalNodes>
        0 -1 136 3.2312579452991486e-02</internalNodes>
      <leafValues>
        -8.7976627051830292e-02 2.0023910701274872e-01</leafValues></_>
    <_>
      <internalNodes>
        0 -1 276 -9.4470167160034180e-01</internalNodes>
      <leafValues>
        6.9592571258544922e-01 -2.2227600216865540e-02</leafValues></_>
    <_>
      <internalNodes>
        0 -1 357 3.5194963216781616e-01</internalNodes>
      <leafValues>
        7.2534218430519104e-02 -2.4272055923938751e-01</leafValues></_>
    <_>
      <internalNodes>
        0 -1 241 -4.2475992441177368e-01</internalNodes>
      <leafValues>
        5.9658014774322510e-01 -3.4947078675031662e-02</leafValues></_>
    <_>
      <internalNodes>
        0 -1 371 5.0254625082015991e-01</internalNodes>
      <leafValues>
        5.1490157842636108e-02 -3.5292586684226990e-01</leafValues></_>
    <_>
      <internalNodes>
        0 -1 94 -2.4647998809814453e-01</internalNodes>
      <leafValues>
        -2.4740040302276611e-01 7.0381887257099152e-02</leafValues></_>
    <_>
      <internalNodes>
        0 -1 242 -8.6418595165014267e-03</internalNodes>
      <leafValues>
        1.4531561732292175e-01 -1.1551187187433243e-01</leafValues></_>
    <_>
      <internalNodes>
        0 -1 24 3.3986973762512207e-01</internalNodes>
      <leafValues>
        -5.2472390234470367e-02 2.8459995985031128e-01</leafValues></_>
    <_>
      <internalNodes>
        0 -1 73 1.2235920429229736e+00</internalNodes>
      <leafValues>
        6.9256849586963654e-02 -2.3257674276828766e-01</leafValues></_>
    <_>
      <internalNodes>
        0 -1 122 -3.1317558884620667e-01</internalNodes>
      <leafValues>
        -2.7220863103866577e-01 7.0459678769111633e-02</leafValues></_>
    <_>
      <internalNodes>
        0 -1 1 -1.2231205403804779e-01</internalNodes>
      <leafValues>
        7.7589195966720581e-01 -2.4011645466089249e-02</leafValues></_>
    <_>
      <internalNodes>
        0 -1 105 2.7222134172916412e-02</internalNodes>
      <leafValues>
        -1.1890928447246552e-01 1.2829948961734772e-01</leafValues></_>
    <_>
      <internalNodes>
        0 -1 25 -1.7109447717666626e-01</internalNodes>
      <leafValues>
        -4.2385673522949219e-01 5.2460592240095139e-02</leafValues></_>
    <_>
      <internalNodes>
        0 -1 293 2.4909579753875732e-01</internalNodes>
      <leafValues>
        2.2133558988571167e-02 -6.5794789791107178e-01</leafValues></_>
    <_>
      <internalNodes>
        0 -1 20 -5.4262781143188477e-01</internalNodes>
      <leafValues>
        -2.6327317953109741e-01 5.4887842386960983e-02</leafValues></_>
    <_>
      <internalNodes>
        0 -1 62 -1.0479044914245605e+00</internalNodes>
      <leafValues>
        4.3724334239959717e-01 -3.8245957344770432e-02</leafValues></_>
    <_>
      <internalNodes>
        0 -1 102 3.4221237897872925e-01</internalNodes>
      <leafValues>
        2.3232225328683853e-02 -7.2987699508666992e-01</leafValues></_>
    <_>
      <internalNodes>
        0 -1 48 1.8393705785274506e-01</internalNodes>
      <leafValues>
        -6.9630675017833710e-02 2.5515776872634888e-01</leafValues></_>
    <_>
      <internalNodes>
        0 -1 314 4.4563806056976318e-01</internalNodes>
      <leafValues>
        3.0649671331048012e-02 -5.1900839805603027e-01</leafValues></_>
    <_>
      <internalNodes>
        0 -1 326 -6.2637817859649658e-01</internalNodes>
      <leafValues>
        -7.2643369436264038e-01 1.7300615087151527e-02</leafValues></_>
    <_>
      <internalNodes>
        0 -1 253 5.7766437530517578e-01</internalNodes>
      <leafValues>
        -1.9224079325795174e-02 8.7575399875640869e-01</leafValues></_>
    <_>
      <internalNodes>
        0 -1 230 -1.5698337554931641e-01</internalNodes>
      <leafValues>
        -3.0000850558280945e-01 4.5411854982376099e-02</leafValues></_>
    <_>
      <internalNodes>
        0 -1 320 7.1491360664367676e-02</internalNodes>
      <leafValues>
        -6.9675862789154053e-02 2.2523795068264008e-01</leafValues></_>
    <_>
      <internalNodes>
        0 -1 379 -9.1154426336288452e-02</internalNodes>
      <leafValues>
        -2.5548982620239258e-01 7.3311246931552887e-02</leafValues></_>
    <_>
      <internalNodes>
        0 -1 312 -2.3923197388648987e-01</internalNodes>
      <leafValues>
        3.9128950238227844e-01 -4.9722377210855484e-02</leafValues></_>
    <_>
      <internalNodes>
        0 -1 289 -7.3241196572780609e-02</internalNodes>
      <leafValues>
        -2.7549189329147339e-01 5.7732943445444107e-02</leafValues></_>
    <_>
      <internalNodes>
        0 -1 414 3.1293278932571411e-01</internalNodes>
      <leafValues>
        -2.2340325638651848e-02 6.6630870103836060e-01</leafValues></_>
    <_>
      <internalNodes>
        0 -1 65 -2.1812004968523979e-02</internalNodes>
      <leafValues>
        2.3793879151344299e-01 -5.1254287362098694e-02</leafValues></_>
    <_>
      <internalNodes>
        0 -1 271 -1.7336119711399078e-01</internalNodes>
      <leafValues>
        -2.2230350971221924e-01 6.1944931745529175e-02</leafValues></_>
    <_>
      <internalNodes>
        0 -1 111 8.7773829698562622e-02</internalNodes>
      <leafValues>
        7.2428613901138306e-02 -2.2001235187053680e-01</leafValues></_>
    <_>
      <internalNodes>
        0 -1 219 8.8296271860599518e-03</internalNodes>
      <leafValues>
        -8.1846810877323151e-02 1.8009141087532043e-01</leafValues></_>
    <_>
      <internalNodes>
        0 -1 238 -4.4621281325817108e-02</internalNodes>
      <leafValues>
        2.1034975349903107e-01 -7.4487470090389252e-02</leafValues></_>
    <_>
      <internalNodes>
        0 -1 112 -1.9747403264045715e-01</internalNodes>
      <leafValues>
        -6.4018106460571289e-01 2.7425924316048622e-02</leafValues></_>
    <_>
      <internalNodes>
        0 -1 6 -2.9032155871391296e-01</internalNodes>
      <leafValues>
        2.0582111179828644e-01 -7.5730785727500916e-02</leafValues></_>
    <_>
      <internalNodes>
        0 -1 116 -4.9213401973247528e-02</internalNodes>
      <leafValues>
        -2.0277258753776550e-01 8.1830434501171112e-02</leafValues></_>
    <_>
      <internalNodes>
        0 -1 160 -2.6043519973754883e+00</internalNodes>
      <leafValues>
        -5.8437544107437134e-01 2.4305539205670357e-02</leafValues></_>
    <_>
      <internalNodes>
        0 -1 69 8.1986200809478760e-01</internalNodes>
      <leafValues>
        -7.7926114201545715e-02 2.1433764696121216e-01</leafValues></_>
    <_>
      <internalNodes>
        0 -1 310 -2.8055691719055176e-01</internalNodes>
      <leafValues>
        2.5719743967056274e-01 -5.9009972959756851e-02</leafValues></_>
    <_>
      <internalNodes>
        0 -1 227 -8.7001636624336243e-02</internalNodes>
      <leafValues>
        -1.7992678284645081e-01 8.5662350058555603e-02</leafValues></_>
    <_>
      <internalNodes>
        0 -1 134 5.9244632720947266e-01</internalNodes>
      <leafValues>
        3.5151928663253784e-02 -4.3019196391105652e-01</leafValues></_>
    <_>
      <internalNodes>
        0 -1 136 -2.3802718520164490e-01</internalNodes>
      <leafValues>
        3.6624506115913391e-01 -4.4359479099512100e-02</leafValues></_>
    <_>
      <internalNodes>
        0 -1 389 -2.0460744202136993e-01</internalNodes>
      <leafValues>
        -2.5069975852966309e-01 5.7196330279111862e-02</leafValues></_>
    <_>
      <internalNodes>
        0 -1 145 1.1078383028507233e-01</internalNodes>
      <leafValues>
        -7.1848370134830475e-02 2.1684232354164124e-01</leafValues></_>
    <_>
      <internalNodes>
        0 -1 356 -9.4012320041656494e-01</internalNodes>
      <leafValues>
        5.4341614246368408e-01 -2.2147532552480698e-02</leafValues></_>
    <_>
      <internalNodes>
        0 -1 137 -1.4746500253677368e+00</internalNodes>
      <leafValues>
        -6.0249513387680054e-01 2.3004688322544098e-02</leafValues></_>
    <_>
      <internalNodes>
        0 -1 187 -4.8067694902420044e-01</internalNodes>
      <leafValues>
        3.1804931163787842e-01 -4.4111717492341995e-02</leafValues></_>
    <_>
      <internalNodes>
        0 -1 266 1.1786840856075287e-02</internalNodes>
      <leafValues>
        1.0325738042593002e-01 -1.5117093920707703e-01</leafValues></_>
    <_>
      <internalNodes>
        0 -1 379 1.1966185271739960e-01</internalNodes>
      <leafValues>
        5.4623320698738098e-02 -2.4587909877300262e-01</leafValues></_>
    <_>
      <internalNodes>
        0 -1 87 1.8137784674763680e-02</internalNodes>
      <leafValues>
        -1.2618304789066315e-01 1.2098411470651627e-01</leafValues></_>
    <_>
      <internalNodes>
        0 -1 379 -1.7223883420228958e-02</internalNodes>
      <leafValues>
        -1.7575098574161530e-01 9.5439441502094269e-02</leafValues></_>
    <_>
      <internalNodes>
        0 -1 171 2.4781833589076996e-01</internalNodes>
      <leafValues>
        4.8613786697387695e-02 -3.1950628757476807e-01</leafValues></_></weakClassifiers></stage12>
</opencv_storage>
