<?xml version="1.0"?>
<opencv_storage>
<stage13>
  <maxWeakCount>100</maxWeakCount>
  <stageThreshold>-2.6122574806213379e+00</stageThreshold>
  <weakClassifiers>
    <_>
      <internalNodes>
        0 -1 1 2.2105295211076736e-02</internalNodes>
      <leafValues>
        -8.1669396162033081e-01 4.7687861323356628e-01</leafValues></_>
    <_>
      <internalNodes>
        0 -1 15 2.1845102310180664e-03</internalNodes>
      <leafValues>
        -5.4800099134445190e-01 2.7163445949554443e-01</leafValues></_>
    <_>
      <internalNodes>
        0 -1 404 -1.8856279551982880e-02</internalNodes>
      <leafValues>
        3.7016683816909790e-01 -3.0654001235961914e-01</leafValues></_>
    <_>
      <internalNodes>
        0 -1 1 -3.3710341900587082e-02</internalNodes>
      <leafValues>
        7.6286953687667847e-01 -1.1156903207302094e-01</leafValues></_>
    <_>
      <internalNodes>
        0 -1 50 2.6825966313481331e-02</internalNodes>
      <leafValues>
        -2.5707250833511353e-01 2.5525832176208496e-01</leafValues></_>
    <_>
      <internalNodes>
        0 -1 324 -5.4530374705791473e-02</internalNodes>
      <leafValues>
        3.4860301017761230e-01 -1.7886531352996826e-01</leafValues></_>
    <_>
      <internalNodes>
        0 -1 384 4.8616785556077957e-02</internalNodes>
      <leafValues>
        -9.1929562389850616e-02 4.1173359751701355e-01</leafValues></_>
    <_>
      <internalNodes>
        0 -1 328 -2.2248469293117523e-02</internalNodes>
      <leafValues>
        2.4662888050079346e-01 -1.4568330347537994e-01</leafValues></_>
    <_>
      <internalNodes>
        0 -1 129 -5.8681106567382812e-01</internalNodes>
      <leafValues>
        -8.3910167217254639e-01 4.4430188834667206e-02</leafValues></_>
    <_>
      <internalNodes>
        0 -1 150 1.7509573698043823e+00</internalNodes>
      <leafValues>
        -4.2179875075817108e-02 1.</leafValues></_>
    <_>
      <internalNodes>
        0 -1 333 2.0208906382322311e-02</internalNodes>
      <leafValues>
        -1.0468597710132599e-01 2.8012046217918396e-01</leafValues></_>
    <_>
      <internalNodes>
        0 -1 241 -1.7006897926330566e-01</internalNodes>
      <leafValues>
        -3.2134339213371277e-01 9.4487704336643219e-02</leafValues></_>
    <_>
      <internalNodes>
        0 -1 6 -4.1387611627578735e-01</internalNodes>
      <leafValues>
        3.4361374378204346e-01 -9.7358323633670807e-02</leafValues></_>
    <_>
      <internalNodes>
        0 -1 343 -1.8141536414623260e-01</internalNodes>
      <leafValues>
        -6.7435163259506226e-01 5.2039891481399536e-02</leafValues></_>
    <_>
      <internalNodes>
        0 -1 311 -5.2945083379745483e-01</internalNodes>
      <leafValues>
        4.5539465546607971e-01 -7.0461384952068329e-02</leafValues></_>
    <_>
      <internalNodes>
        0 -1 157 -6.9208645820617676e-01</internalNodes>
      <leafValues>
        -8.2973742485046387e-01 3.3645216375589371e-02</leafValues></_>
    <_>
      <internalNodes>
        0 -1 315 1.1863769590854645e-01</internalNodes>
      <leafValues>
        -1.2279830873012543e-01 2.4756267666816711e-01</leafValues></_>
    <_>
      <internalNodes>
        0 -1 412 -5.3698158264160156e-01</internalNodes>
      <leafValues>
        8.4699189662933350e-01 -2.9397537931799889e-02</leafValues></_>
    <_>
      <internalNodes>
        0 -1 144 -1.1347739696502686e+00</internalNodes>
      <leafValues>
        -7.9127502441406250e-01 3.9472464472055435e-02</leafValues></_>
    <_>
      <internalNodes>
        0 -1 378 -3.3508825302124023e-01</internalNodes>
      <leafValues>
        -8.5807663202285767e-01 1.9164180383086205e-02</leafValues></_>
    <_>
      <internalNodes>
        0 -1 174 1.4824116230010986e+00</internalNodes>
      <leafValues>
        -2.9484841972589493e-02 8.9720851182937622e-01</leafValues></_>
    <_>
      <internalNodes>
        0 -1 181 -3.0510139465332031e-01</internalNodes>
      <leafValues>
        -5.2629065513610840e-01 4.7883160412311554e-02</leafValues></_>
    <_>
      <internalNodes>
        0 -1 12 -1.2443244457244873e+00</internalNodes>
      <leafValues>
        4.1069182753562927e-01 -5.3494270890951157e-02</leafValues></_>
    <_>
      <internalNodes>
        0 -1 69 1.4765040874481201e+00</internalNodes>
      <leafValues>
        5.0346571952104568e-02 -6.1220127344131470e-01</leafValues></_>
    <_>
      <internalNodes>
        0 -1 181 -6.4966209232807159e-02</internalNodes>
      <leafValues>
        2.2068831324577332e-01 -1.1296740919351578e-01</leafValues></_>
    <_>
      <internalNodes>
        0 -1 132 9.4577446579933167e-03</internalNodes>
      <leafValues>
        1.5610343217849731e-01 -1.7032696306705475e-01</leafValues></_>
    <_>
      <internalNodes>
        0 -1 296 2.7134418487548828e-01</internalNodes>
      <leafValues>
        -9.3539074063301086e-02 2.9962065815925598e-01</leafValues></_>
    <_>
      <internalNodes>
        0 -1 223 7.0813339948654175e-01</internalNodes>
      <leafValues>
        -2.6680583134293556e-02 8.4697204828262329e-01</leafValues></_>
    <_>
      <internalNodes>
        0 -1 157 4.2081873863935471e-02</internalNodes>
      <leafValues>
        1.0686559975147247e-01 -2.1475407481193542e-01</leafValues></_>
    <_>
      <internalNodes>
        0 -1 137 1.2009012699127197e+00</internalNodes>
      <leafValues>
        -6.1516504734754562e-02 4.1637307405471802e-01</leafValues></_>
    <_>
      <internalNodes>
        0 -1 292 -1.9748458266258240e-01</internalNodes>
      <leafValues>
        -3.5700556635856628e-01 5.7032693177461624e-02</leafValues></_>
    <_>
      <internalNodes>
        0 -1 247 1.0121796280145645e-01</internalNodes>
      <leafValues>
        -6.9923706352710724e-02 3.7826770544052124e-01</leafValues></_>
    <_>
      <internalNodes>
        0 -1 121 -1.8686163425445557e-01</internalNodes>
      <leafValues>
        -3.3729436993598938e-01 7.6976060867309570e-02</leafValues></_>
    <_>
      <internalNodes>
        0 -1 30 9.5258146524429321e-01</internalNodes>
      <leafValues>
        -1.3799439370632172e-01 1.9654577970504761e-01</leafValues></_>
    <_>
      <internalNodes>
        0 -1 119 4.9112045764923096e-01</internalNodes>
      <leafValues>
        4.6087156981229782e-02 -5.7015568017959595e-01</leafValues></_>
    <_>
      <internalNodes>
        0 -1 287 -4.8188200592994690e-01</internalNodes>
      <leafValues>
        3.3300495147705078e-01 -6.6954754292964935e-02</leafValues></_>
    <_>
      <internalNodes>
        0 -1 307 -1.5621556341648102e-01</internalNodes>
      <leafValues>
        -3.5716304183006287e-01 7.3248542845249176e-02</leafValues></_>
    <_>
      <internalNodes>
        0 -1 360 2.0082256197929382e-01</internalNodes>
      <leafValues>
        5.8710549026727676e-02 -3.5254266858100891e-01</leafValues></_>
    <_>
      <internalNodes>
        0 -1 213 -6.6059827804565430e-01</internalNodes>
      <leafValues>
        3.9497330784797668e-01 -6.0725212097167969e-02</leafValues></_>
    <_>
      <internalNodes>
        0 -1 239 3.5414680838584900e-02</internalNodes>
      <leafValues>
        -8.7937191128730774e-02 2.3409222066402435e-01</leafValues></_>
    <_>
      <internalNodes>
        0 -1 230 -1.5926447510719299e-01</internalNodes>
      <leafValues>
        -4.3825507164001465e-01 5.8565739542245865e-02</leafValues></_>
    <_>
      <internalNodes>
        0 -1 49 -8.9689634740352631e-02</internalNodes>
      <leafValues>
        -2.5040957331657410e-01 7.7685743570327759e-02</leafValues></_>
    <_>
      <internalNodes>
        0 -1 5 -2.1013192832469940e-01</internalNodes>
      <leafValues>
        -6.0805529356002808e-01 3.2267536967992783e-02</leafValues></_>
    <_>
      <internalNodes>
        0 -1 356 -1.4295308291912079e-01</internalNodes>
      <leafValues>
        2.2723776102066040e-01 -9.7934067249298096e-02</leafValues></_>
    <_>
      <internalNodes>
        0 -1 218 4.2052778601646423e-01</internalNodes>
      <leafValues>
        2.5256207212805748e-02 -7.7990502119064331e-01</leafValues></_>
    <_>
      <internalNodes>
        0 -1 53 5.1325017213821411e-01</internalNodes>
      <leafValues>
        -7.2324827313423157e-02 2.9977831244468689e-01</leafValues></_>
    <_>
      <internalNodes>
        0 -1 19 -2.3565152287483215e-01</internalNodes>
      <leafValues>
        3.5867571830749512e-01 -6.2314879149198532e-02</leafValues></_>
    <_>
      <internalNodes>
        0 -1 9 1.9456283189356327e-03</internalNodes>
      <leafValues>
        2.4453099071979523e-01 -9.5488600432872772e-02</leafValues></_>
    <_>
      <internalNodes>
        0 -1 394 4.4237457215785980e-02</internalNodes>
      <leafValues>
        -7.0284217596054077e-02 2.8999128937721252e-01</leafValues></_>
    <_>
      <internalNodes>
        0 -1 394 -7.3262318968772888e-02</internalNodes>
      <leafValues>
        2.9036760330200195e-01 -6.4543686807155609e-02</leafValues></_>
    <_>
      <internalNodes>
        0 -1 50 -5.4003641009330750e-02</internalNodes>
      <leafValues>
        -3.4482589364051819e-01 6.5885469317436218e-02</leafValues></_>
    <_>
      <internalNodes>
        0 -1 123 -1.3762128353118896e-01</internalNodes>
      <leafValues>
        -3.0703258514404297e-01 5.4391819983720779e-02</leafValues></_>
    <_>
      <internalNodes>
        0 -1 36 -3.4206354618072510e-01</internalNodes>
      <leafValues>
        4.3877488374710083e-01 -4.1657358407974243e-02</leafValues></_>
    <_>
      <internalNodes>
        0 -1 87 1.7860792577266693e-02</internalNodes>
      <leafValues>
        -1.1167947947978973e-01 1.5043860673904419e-01</leafValues></_>
    <_>
      <internalNodes>
        0 -1 231 -1.2964355945587158e-01</internalNodes>
      <leafValues>
        -2.5227987766265869e-01 8.7198369204998016e-02</leafValues></_>
    <_>
      <internalNodes>
        0 -1 196 -2.7923977375030518e-01</internalNodes>
      <leafValues>
        -4.2777821421623230e-01 4.7165717929601669e-02</leafValues></_>
    <_>
      <internalNodes>
        0 -1 12 -1.0126063823699951e+00</internalNodes>
      <leafValues>
        3.5606953501701355e-01 -6.5070651471614838e-02</leafValues></_>
    <_>
      <internalNodes>
        0 -1 64 8.3496582508087158e-01</internalNodes>
      <leafValues>
        5.3449988365173340e-02 -4.5016831159591675e-01</leafValues></_>
    <_>
      <internalNodes>
        0 -1 301 -5.3370833396911621e-01</internalNodes>
      <leafValues>
        6.8607455492019653e-01 -3.2788529992103577e-02</leafValues></_>
    <_>
      <internalNodes>
        0 -1 160 -1.3996038436889648e+00</internalNodes>
      <leafValues>
        3.4441059827804565e-01 -4.8101145774126053e-02</leafValues></_>
    <_>
      <internalNodes>
        0 -1 310 6.2527596950531006e-01</internalNodes>
      <leafValues>
        4.5466970652341843e-02 -3.8547164201736450e-01</leafValues></_>
    <_>
      <internalNodes>
        0 -1 201 8.5767292976379395e-01</internalNodes>
      <leafValues>
        3.1217513605952263e-02 -4.9684813618659973e-01</leafValues></_>
    <_>
      <internalNodes>
        0 -1 386 -2.1466486155986786e-01</internalNodes>
      <leafValues>
        5.5849516391754150e-01 -3.1826071441173553e-02</leafValues></_>
    <_>
      <internalNodes>
        0 -1 352 -1.2715783715248108e-01</internalNodes>
      <leafValues>
        -2.3848040401935577e-01 7.3928691446781158e-02</leafValues></_>
    <_>
      <internalNodes>
        0 -1 346 3.8637036085128784e-01</internalNodes>
      <leafValues>
        1.8265841528773308e-02 -8.8356399536132812e-01</leafValues></_>
    <_>
      <internalNodes>
        0 -1 322 -4.3511164188385010e-01</internalNodes>
      <leafValues>
        6.0516250133514404e-01 -3.0482614412903786e-02</leafValues></_>
    <_>
      <internalNodes>
        0 -1 139 -7.2464770078659058e-01</internalNodes>
      <leafValues>
        -5.7641422748565674e-01 2.9807861894369125e-02</leafValues></_>
    <_>
      <internalNodes>
        0 -1 0 -3.3423471450805664e-01</internalNodes>
      <leafValues>
        8.5471260547637939e-01 -2.6560667902231216e-02</leafValues></_>
    <_>
      <internalNodes>
        0 -1 211 7.3214149475097656e-01</internalNodes>
      <leafValues>
        2.2648252546787262e-02 -9.5620703697204590e-01</leafValues></_>
    <_>
      <internalNodes>
        0 -1 309 3.2905865460634232e-02</internalNodes>
      <leafValues>
        -9.5678038895130157e-02 1.8885160982608795e-01</leafValues></_>
    <_>
      <internalNodes>
        0 -1 121 -1.1481009423732758e-01</internalNodes>
      <leafValues>
        -2.4110339581966400e-01 7.2376966476440430e-02</leafValues></_>
    <_>
      <internalNodes>
        0 -1 97 1.0113018751144409e+00</internalNodes>
      <leafValues>
        -3.5083528608083725e-02 5.1624935865402222e-01</leafValues></_>
    <_>
      <internalNodes>
        0 -1 319 2.2255912423133850e-01</internalNodes>
      <leafValues>
        3.0614124611020088e-02 -6.0166865587234497e-01</leafValues></_>
    <_>
      <internalNodes>
        0 -1 333 -8.3865420892834663e-03</internalNodes>
      <leafValues>
        1.8830411136150360e-01 -8.9674726128578186e-02</leafValues></_>
    <_>
      <internalNodes>
        0 -1 174 1.4824116230010986e+00</internalNodes>
      <leafValues>
        -1.5102860517799854e-02 8.7007260322570801e-01</leafValues></_>
    <_>
      <internalNodes>
        0 -1 169 5.1239329576492310e-01</internalNodes>
      <leafValues>
        3.4117117524147034e-02 -6.3370895385742188e-01</leafValues></_>
    <_>
      <internalNodes>
        0 -1 137 1.3887593746185303e+00</internalNodes>
      <leafValues>
        -3.8274876773357391e-02 4.6415930986404419e-01</leafValues></_>
    <_>
      <internalNodes>
        0 -1 294 -2.9525703191757202e-01</internalNodes>
      <leafValues>
        -2.5921902060508728e-01 6.5648965537548065e-02</leafValues></_>
    <_>
      <internalNodes>
        0 -1 325 -1.2758091092109680e-01</internalNodes>
      <leafValues>
        2.4046100676059723e-01 -7.4316844344139099e-02</leafValues></_>
    <_>
      <internalNodes>
        0 -1 307 3.1811863183975220e-01</internalNodes>
      <leafValues>
        2.0842498168349266e-02 -8.0185544490814209e-01</leafValues></_>
    <_>
      <internalNodes>
        0 -1 312 -4.0653437376022339e-01</internalNodes>
      <leafValues>
        -6.5999197959899902e-01 1.9387487322092056e-02</leafValues></_>
    <_>
      <internalNodes>
        0 -1 412 -5.4264336824417114e-01</internalNodes>
      <leafValues>
        7.7372640371322632e-01 -2.1633338183164597e-02</leafValues></_>
    <_>
      <internalNodes>
        0 -1 5 -1.5745325386524200e-01</internalNodes>
      <leafValues>
        -5.1655203104019165e-01 3.8394235074520111e-02</leafValues></_>
    <_>
      <internalNodes>
        0 -1 127 1.1882895231246948e-01</internalNodes>
      <leafValues>
        6.1295222491025925e-02 -2.3510017991065979e-01</leafValues></_>
    <_>
      <internalNodes>
        0 -1 138 -4.9229955673217773e-01</internalNodes>
      <leafValues>
        1.9509413838386536e-01 -1.0387567430734634e-01</leafValues></_>
    <_>
      <internalNodes>
        0 -1 135 1.6899058595299721e-02</internalNodes>
      <leafValues>
        8.5340969264507294e-02 -2.0423920452594757e-01</leafValues></_>
    <_>
      <internalNodes>
        0 -1 33 2.9140493273735046e-01</internalNodes>
      <leafValues>
        -6.7221857607364655e-02 2.3586791753768921e-01</leafValues></_>
    <_>
      <internalNodes>
        0 -1 148 1.0512466430664062e+00</internalNodes>
      <leafValues>
        3.7472683936357498e-02 -4.6342265605926514e-01</leafValues></_>
    <_>
      <internalNodes>
        0 -1 383 2.0357984304428101e-01</internalNodes>
      <leafValues>
        2.9580168426036835e-02 -4.8227697610855103e-01</leafValues></_>
    <_>
      <internalNodes>
        0 -1 306 1.3880445957183838e+00</internalNodes>
      <leafValues>
        2.1515781059861183e-02 -7.6275753974914551e-01</leafValues></_>
    <_>
      <internalNodes>
        0 -1 354 -3.9018866419792175e-01</internalNodes>
      <leafValues>
        4.3057522177696228e-01 -5.2412558346986771e-02</leafValues></_>
    <_>
      <internalNodes>
        0 -1 160 8.4894335269927979e-01</internalNodes>
      <leafValues>
        -1.6351290047168732e-02 8.9795649051666260e-01</leafValues></_>
    <_>
      <internalNodes>
        0 -1 384 4.8616785556077957e-02</internalNodes>
      <leafValues>
        -5.0088640302419662e-02 3.1790527701377869e-01</leafValues></_>
    <_>
      <internalNodes>
        0 -1 266 -3.5208100080490112e-01</internalNodes>
      <leafValues>
        -4.2320472002029419e-01 4.4958975166082382e-02</leafValues></_>
    <_>
      <internalNodes>
        0 -1 29 5.4639518260955811e-02</internalNodes>
      <leafValues>
        4.9047611653804779e-02 -3.3398082852363586e-01</leafValues></_>
    <_>
      <internalNodes>
        0 -1 174 -1.0285712480545044e+00</internalNodes>
      <leafValues>
        5.2950096130371094e-01 -3.3669799566268921e-02</leafValues></_>
    <_>
      <internalNodes>
        0 -1 262 -4.4009220600128174e-01</internalNodes>
      <leafValues>
        2.7025505900382996e-01 -5.1595456898212433e-02</leafValues></_>
    <_>
      <internalNodes>
        0 -1 98 1.3753695785999298e-01</internalNodes>
      <leafValues>
        8.3660066127777100e-02 -1.9015899300575256e-01</leafValues></_>
    <_>
      <internalNodes>
        0 -1 21 1.6038384437561035e+00</internalNodes>
      <leafValues>
        -6.3669636845588684e-02 3.5898679494857788e-01</leafValues></_>
    <_>
      <internalNodes>
        0 -1 139 1.0981302261352539e+00</internalNodes>
      <leafValues>
        5.7934846729040146e-02 -3.0613815784454346e-01</leafValues></_></weakClassifiers></stage13>
</opencv_storage>
