<?xml version="1.0"?>
<opencv_storage>
<stage2>
  <maxWeakCount>35</maxWeakCount>
  <stageThreshold>-1.0042619705200195e+00</stageThreshold>
  <weakClassifiers>
    <_>
      <internalNodes>
        0 -1 9 5.3568947315216064e-01</internalNodes>
      <leafValues>
        -4.7835990786552429e-01 5.9058821201324463e-01</leafValues></_>
    <_>
      <internalNodes>
        0 -1 6 -2.5829476118087769e-01</internalNodes>
      <leafValues>
        5.9162724018096924e-01 -2.4830533564090729e-01</leafValues></_>
    <_>
      <internalNodes>
        0 -1 23 2.7657900005578995e-02</internalNodes>
      <leafValues>
        -3.3429017663002014e-01 2.0479674637317657e-01</leafValues></_>
    <_>
      <internalNodes>
        0 -1 264 4.1433659195899963e-01</internalNodes>
      <leafValues>
        -1.4566719532012939e-01 3.8022553920745850e-01</leafValues></_>
    <_>
      <internalNodes>
        0 -1 126 1.4504209160804749e-01</internalNodes>
      <leafValues>
        6.0155589133501053e-02 -5.5831527709960938e-01</leafValues></_>
    <_>
      <internalNodes>
        0 -1 253 3.0507040023803711e-01</internalNodes>
      <leafValues>
        7.8171238303184509e-02 -6.9747298955917358e-01</leafValues></_>
    <_>
      <internalNodes>
        0 -1 98 -4.4758158922195435e-01</internalNodes>
      <leafValues>
        -4.3524265289306641e-01 1.2097940593957901e-01</leafValues></_>
    <_>
      <internalNodes>
        0 -1 254 -1.3863776624202728e-01</internalNodes>
      <leafValues>
        -3.6071637272834778e-01 1.5900368988513947e-01</leafValues></_>
    <_>
      <internalNodes>
        0 -1 242 -3.6247190088033676e-02</internalNodes>
      <leafValues>
        2.4644818902015686e-01 -1.8508709967136383e-01</leafValues></_>
    <_>
      <internalNodes>
        0 -1 232 -8.3636367321014404e-01</internalNodes>
      <leafValues>
        -6.3404250144958496e-01 7.2765186429023743e-02</leafValues></_>
    <_>
      <internalNodes>
        0 -1 2 9.8237264156341553e-01</internalNodes>
      <leafValues>
        -5.8110196143388748e-02 7.3922830820083618e-01</leafValues></_>
    <_>
      <internalNodes>
        0 -1 104 6.4148139953613281e-01</internalNodes>
      <leafValues>
        1.4278352260589600e-01 -3.5993430018424988e-01</leafValues></_>
    <_>
      <internalNodes>
        0 -1 248 2.5137457251548767e-01</internalNodes>
      <leafValues>
        4.2526576668024063e-02 -6.5790706872940063e-01</leafValues></_>
    <_>
      <internalNodes>
        0 -1 199 -1.8629205226898193e-01</internalNodes>
      <leafValues>
        -3.8225951790809631e-01 9.1080918908119202e-02</leafValues></_>
    <_>
      <internalNodes>
        0 -1 6 -1.0706289112567902e-01</internalNodes>
      <leafValues>
        2.2282749414443970e-01 -1.6911058127880096e-01</leafValues></_>
    <_>
      <internalNodes>
        0 -1 278 2.9233905673027039e-01</internalNodes>
      <leafValues>
        3.8980968296527863e-02 -8.1593453884124756e-01</leafValues></_>
    <_>
      <internalNodes>
        0 -1 133 3.5261842608451843e-01</internalNodes>
      <leafValues>
        -5.7694718241691589e-02 8.5039091110229492e-01</leafValues></_>
    <_>
      <internalNodes>
        0 -1 390 -6.6895842552185059e-01</internalNodes>
      <leafValues>
        -7.0012342929840088e-01 6.2873862683773041e-02</leafValues></_>
    <_>
      <internalNodes>
        0 -1 211 9.6408329904079437e-02</internalNodes>
      <leafValues>
        -1.5530495345592499e-01 2.2271031141281128e-01</leafValues></_>
    <_>
      <internalNodes>
        0 -1 331 1.2772157788276672e-01</internalNodes>
      <leafValues>
        -1.0106343030929565e-01 2.8774118423461914e-01</leafValues></_>
    <_>
      <internalNodes>
        0 -1 309 1.7268408834934235e-01</internalNodes>
      <leafValues>
        1.0144052654504776e-01 -3.8430556654930115e-01</leafValues></_>
    <_>
      <internalNodes>
        0 -1 13 3.2418692111968994e-01</internalNodes>
      <leafValues>
        -1.8223257362842560e-01 1.6068689525127411e-01</leafValues></_>
    <_>
      <internalNodes>
        0 -1 399 1.8506349623203278e-01</internalNodes>
      <leafValues>
        4.1015982627868652e-02 -8.0064404010772705e-01</leafValues></_>
    <_>
      <internalNodes>
        0 -1 401 -1.4018136262893677e-01</internalNodes>
      <leafValues>
        -4.6488037705421448e-01 5.8220360428094864e-02</leafValues></_>
    <_>
      <internalNodes>
        0 -1 1 3.5453534126281738e-01</internalNodes>
      <leafValues>
        -5.5908557027578354e-02 5.0055617094039917e-01</leafValues></_>
    <_>
      <internalNodes>
        0 -1 235 -2.2860169410705566e-01</internalNodes>
      <leafValues>
        -4.7448942065238953e-01 6.1376642435789108e-02</leafValues></_>
    <_>
      <internalNodes>
        0 -1 126 2.7501478791236877e-01</internalNodes>
      <leafValues>
        3.9233624935150146e-02 -7.0608139038085938e-01</leafValues></_>
    <_>
      <internalNodes>
        0 -1 28 -6.9805943965911865e-01</internalNodes>
      <leafValues>
        5.9808093309402466e-01 -4.4080633670091629e-02</leafValues></_>
    <_>
      <internalNodes>
        0 -1 50 -1.4101144671440125e-01</internalNodes>
      <leafValues>
        -5.0062888860702515e-01 6.8664103746414185e-02</leafValues></_>
    <_>
      <internalNodes>
        0 -1 124 1.1747010052204132e-01</internalNodes>
      <leafValues>
        -1.2096244841814041e-01 3.2384908199310303e-01</leafValues></_>
    <_>
      <internalNodes>
        0 -1 383 1.4850410819053650e-01</internalNodes>
      <leafValues>
        7.2717003524303436e-02 -4.0281060338020325e-01</leafValues></_>
    <_>
      <internalNodes>
        0 -1 36 1.4874352216720581e+00</internalNodes>
      <leafValues>
        -3.8721162825822830e-02 7.2448003292083740e-01</leafValues></_>
    <_>
      <internalNodes>
        0 -1 175 3.3377486467361450e-01</internalNodes>
      <leafValues>
        -4.2306292802095413e-02 6.7898207902908325e-01</leafValues></_>
    <_>
      <internalNodes>
        0 -1 349 -1.8860660493373871e-01</internalNodes>
      <leafValues>
        -1.9697943329811096e-01 1.6524963080883026e-01</leafValues></_>
    <_>
      <internalNodes>
        0 -1 164 -7.8542220592498779e-01</internalNodes>
      <leafValues>
        -4.1342800855636597e-01 7.7409282326698303e-02</leafValues></_></weakClassifiers></stage2>
</opencv_storage>
