<?xml version="1.0"?>
<opencv_storage>
<stage0>
  <maxWeakCount>15</maxWeakCount>
  <stageThreshold>-1.2400959730148315e+00</stageThreshold>
  <weakClassifiers>
    <_>
      <internalNodes>
        0 -1 0 3.0806392431259155e-01</internalNodes>
      <leafValues>
        -5.7870894670486450e-01 8.1428569555282593e-01</leafValues></_>
    <_>
      <internalNodes>
        0 -1 9 2.4558094143867493e-01</internalNodes>
      <leafValues>
        -4.5769825577735901e-01 5.4932057857513428e-01</leafValues></_>
    <_>
      <internalNodes>
        0 -1 1 7.0582866668701172e-02</internalNodes>
      <leafValues>
        -3.2359153032302856e-01 3.0878871679306030e-01</leafValues></_>
    <_>
      <internalNodes>
        0 -1 188 -2.4004817008972168e-01</internalNodes>
      <leafValues>
        -4.5860955119132996e-01 1.5549892187118530e-01</leafValues></_>
    <_>
      <internalNodes>
        0 -1 354 -5.2472120523452759e-01</internalNodes>
      <leafValues>
        -6.7930221557617188e-01 6.3017234206199646e-02</leafValues></_>
    <_>
      <internalNodes>
        0 -1 203 5.5357098579406738e-01</internalNodes>
      <leafValues>
        9.5033697783946991e-02 -7.2077941894531250e-01</leafValues></_>
    <_>
      <internalNodes>
        0 -1 114 1.2066216766834259e-01</internalNodes>
      <leafValues>
        1.8371434509754181e-01 -3.8408258557319641e-01</leafValues></_>
    <_>
      <internalNodes>
        0 -1 98 -4.3740168213844299e-01</internalNodes>
      <leafValues>
        -5.0231778621673584e-01 1.7145167291164398e-01</leafValues></_>
    <_>
      <internalNodes>
        0 -1 380 -1.6217330098152161e-01</internalNodes>
      <leafValues>
        -4.5135086774826050e-01 1.1632739007472992e-01</leafValues></_>
    <_>
      <internalNodes>
        0 -1 69 -5.6319892406463623e-01</internalNodes>
      <leafValues>
        -6.6847807168960571e-01 4.6345304697751999e-02</leafValues></_>
    <_>
      <internalNodes>
        0 -1 10 9.5363032817840576e-01</internalNodes>
      <leafValues>
        -1.0065425187349319e-01 5.5074030160903931e-01</leafValues></_>
    <_>
      <internalNodes>
        0 -1 399 1.2281814217567444e-01</internalNodes>
      <leafValues>
        1.0472378134727478e-01 -6.0292339324951172e-01</leafValues></_>
    <_>
      <internalNodes>
        0 -1 130 3.1945884227752686e-01</internalNodes>
      <leafValues>
        -1.1609975248575211e-01 5.8571660518646240e-01</leafValues></_>
    <_>
      <internalNodes>
        0 -1 270 1.8818095326423645e-01</internalNodes>
      <leafValues>
        -1.2526883184909821e-01 3.8594114780426025e-01</leafValues></_>
    <_>
      <internalNodes>
        0 -1 380 2.2637969255447388e-01</internalNodes>
      <leafValues>
        9.3610212206840515e-02 -5.2897220849990845e-01</leafValues></_></weakClassifiers></stage0>
</opencv_storage>
