<?xml version="1.0"?>
<opencv_storage>
<stage15>
  <maxWeakCount>100</maxWeakCount>
  <stageThreshold>-1.6231282949447632e+00</stageThreshold>
  <weakClassifiers>
    <_>
      <internalNodes>
        0 -1 9 5.7310342788696289e-01</internalNodes>
      <leafValues>
        -4.0250000357627869e-01 3.0417495965957642e-01</leafValues></_>
    <_>
      <internalNodes>
        0 -1 0 9.7769689559936523e-01</internalNodes>
      <leafValues>
        -9.0151831507682800e-02 5.7741540670394897e-01</leafValues></_>
    <_>
      <internalNodes>
        0 -1 8 1.3817098140716553e+00</internalNodes>
      <leafValues>
        1.3053666800260544e-02 -7.8538429737091064e-01</leafValues></_>
    <_>
      <internalNodes>
        0 -1 8 1.3708479404449463e+00</internalNodes>
      <leafValues>
        -3.0457058455795050e-03 7.0346158742904663e-01</leafValues></_>
    <_>
      <internalNodes>
        0 -1 291 6.2091723084449768e-02</internalNodes>
      <leafValues>
        -1.2529602646827698e-01 2.7671813964843750e-01</leafValues></_>
    <_>
      <internalNodes>
        0 -1 44 -5.6438463926315308e-01</internalNodes>
      <leafValues>
        4.8278889060020447e-01 -7.5495116412639618e-02</leafValues></_>
    <_>
      <internalNodes>
        0 -1 398 3.4330660104751587e-01</internalNodes>
      <leafValues>
        2.9919046908617020e-02 -8.1265306472778320e-01</leafValues></_>
    <_>
      <internalNodes>
        0 -1 23 2.4465437978506088e-02</internalNodes>
      <leafValues>
        -2.7428016066551208e-01 9.9905803799629211e-02</leafValues></_>
    <_>
      <internalNodes>
        0 -1 135 -7.2775175794959068e-03</internalNodes>
      <leafValues>
        1.7223355174064636e-01 -1.8474853038787842e-01</leafValues></_>
    <_>
      <internalNodes>
        0 -1 319 1.4823302626609802e-01</internalNodes>
      <leafValues>
        7.8972160816192627e-02 -4.1917225718498230e-01</leafValues></_>
    <_>
      <internalNodes>
        0 -1 69 -5.6141293048858643e-01</internalNodes>
      <leafValues>
        -5.2763706445693970e-01 5.3672060370445251e-02</leafValues></_>
    <_>
      <internalNodes>
        0 -1 215 -1.5092729590833187e-02</internalNodes>
      <leafValues>
        1.7853841185569763e-01 -1.7592588067054749e-01</leafValues></_>
    <_>
      <internalNodes>
        0 -1 203 6.3049745559692383e-01</internalNodes>
      <leafValues>
        7.9786598682403564e-02 -4.9885332584381104e-01</leafValues></_>
    <_>
      <internalNodes>
        0 -1 335 1.4224761724472046e-01</internalNodes>
      <leafValues>
        -6.0222819447517395e-02 3.8746696710586548e-01</leafValues></_>
    <_>
      <internalNodes>
        0 -1 126 -2.3157310485839844e-01</internalNodes>
      <leafValues>
        -4.9329632520675659e-01 4.5431762933731079e-02</leafValues></_>
    <_>
      <internalNodes>
        0 -1 29 -2.7660140991210938e+00</internalNodes>
      <leafValues>
        7.5320768356323242e-01 -5.1430106163024902e-02</leafValues></_>
    <_>
      <internalNodes>
        0 -1 402 -5.3481650352478027e-01</internalNodes>
      <leafValues>
        -8.8081312179565430e-01 2.5606587529182434e-02</leafValues></_>
    <_>
      <internalNodes>
        0 -1 290 -1.5656778588891029e-02</internalNodes>
      <leafValues>
        1.5763643383979797e-01 -1.3946662843227386e-01</leafValues></_>
    <_>
      <internalNodes>
        0 -1 200 5.3346979618072510e-01</internalNodes>
      <leafValues>
        4.3693166226148605e-02 -1.</leafValues></_>
    <_>
      <internalNodes>
        0 -1 200 -5.2660614252090454e-01</internalNodes>
      <leafValues>
        -7.8822523355484009e-01 2.0339358597993851e-02</leafValues></_>
    <_>
      <internalNodes>
        0 -1 301 -2.0426258444786072e-01</internalNodes>
      <leafValues>
        2.3615433275699615e-01 -1.1627957969903946e-01</leafValues></_>
    <_>
      <internalNodes>
        0 -1 362 -1.4061267375946045e+00</internalNodes>
      <leafValues>
        -9.0976554155349731e-01 4.7892760485410690e-02</leafValues></_>
    <_>
      <internalNodes>
        0 -1 371 2.6215672492980957e-01</internalNodes>
      <leafValues>
        8.0583900213241577e-02 -2.2999933362007141e-01</leafValues></_>
    <_>
      <internalNodes>
        0 -1 412 1.7708945274353027e-01</internalNodes>
      <leafValues>
        -8.7117671966552734e-02 3.3660030364990234e-01</leafValues></_>
    <_>
      <internalNodes>
        0 -1 302 -3.9990723133087158e-01</internalNodes>
      <leafValues>
        -1.7934441566467285e-01 1.1991661041975021e-01</leafValues></_>
    <_>
      <internalNodes>
        0 -1 70 3.0576223134994507e-01</internalNodes>
      <leafValues>
        -1.7935355007648468e-01 1.5212653577327728e-01</leafValues></_>
    <_>
      <internalNodes>
        0 -1 5 5.0155764818191528e-01</internalNodes>
      <leafValues>
        -3.0807271599769592e-02 4.7149151563644409e-01</leafValues></_>
    <_>
      <internalNodes>
        0 -1 283 1.6789647936820984e-01</internalNodes>
      <leafValues>
        2.8069065883755684e-02 -3.5793393850326538e-01</leafValues></_>
    <_>
      <internalNodes>
        0 -1 218 4.7542610764503479e-01</internalNodes>
      <leafValues>
        2.3199336603283882e-02 -9.1892611980438232e-01</leafValues></_>
    <_>
      <internalNodes>
        0 -1 278 1.7445843666791916e-02</internalNodes>
      <leafValues>
        -1.1380171030759811e-01 1.5158851444721222e-01</leafValues></_>
    <_>
      <internalNodes>
        0 -1 5 7.7669555321335793e-03</internalNodes>
      <leafValues>
        2.2376643121242523e-01 -6.3732668757438660e-02</leafValues></_>
    <_>
      <internalNodes>
        0 -1 124 -4.8177731037139893e-01</internalNodes>
      <leafValues>
        4.8724973201751709e-01 -6.0363773256540298e-02</leafValues></_>
    <_>
      <internalNodes>
        0 -1 26 1.1707296967506409e-01</internalNodes>
      <leafValues>
        5.4455302655696869e-02 -3.9356195926666260e-01</leafValues></_>
    <_>
      <internalNodes>
        0 -1 133 -1.3292066752910614e-02</internalNodes>
      <leafValues>
        1.3695493340492249e-01 -1.5942296385765076e-01</leafValues></_>
    <_>
      <internalNodes>
        0 -1 196 5.3201353549957275e-01</internalNodes>
      <leafValues>
        2.8138745576143265e-02 -6.2284421920776367e-01</leafValues></_>
    <_>
      <internalNodes>
        0 -1 137 -5.5921310186386108e-01</internalNodes>
      <leafValues>
        2.5124260783195496e-01 -9.4422772526741028e-02</leafValues></_>
    <_>
      <internalNodes>
        0 -1 300 1.6564381122589111e-01</internalNodes>
      <leafValues>
        1.0009671747684479e-01 -2.1928957104682922e-01</leafValues></_>
    <_>
      <internalNodes>
        0 -1 273 -9.9922358989715576e-01</internalNodes>
      <leafValues>
        -5.3411132097244263e-01 3.6317806690931320e-02</leafValues></_>
    <_>
      <internalNodes>
        0 -1 38 1.0737434029579163e-01</internalNodes>
      <leafValues>
        -1.0692093521356583e-01 1.6088506579399109e-01</leafValues></_>
    <_>
      <internalNodes>
        0 -1 12 -1.0875720977783203e+00</internalNodes>
      <leafValues>
        3.6406424641609192e-01 -5.3533285856246948e-02</leafValues></_>
    <_>
      <internalNodes>
        0 -1 239 -1.0958424955606461e-01</internalNodes>
      <leafValues>
        -4.2565697431564331e-01 4.2227756232023239e-02</leafValues></_>
    <_>
      <internalNodes>
        0 -1 128 4.8918518424034119e-01</internalNodes>
      <leafValues>
        2.8231589123606682e-02 -7.4127727746963501e-01</leafValues></_>
    <_>
      <internalNodes>
        0 -1 379 -8.6533695459365845e-02</internalNodes>
      <leafValues>
        -2.3968443274497986e-01 6.7349277436733246e-02</leafValues></_>
    <_>
      <internalNodes>
        0 -1 405 -5.8611655235290527e-01</internalNodes>
      <leafValues>
        8.5863119363784790e-01 -1.9044961780309677e-02</leafValues></_>
    <_>
      <internalNodes>
        0 -1 241 -4.0797266364097595e-01</internalNodes>
      <leafValues>
        4.8914515972137451e-01 -3.2930631190538406e-02</leafValues></_>
    <_>
      <internalNodes>
        0 -1 193 -5.0938010215759277e-01</internalNodes>
      <leafValues>
        -3.8610452413558960e-01 5.1136553287506104e-02</leafValues></_>
    <_>
      <internalNodes>
        0 -1 225 -6.1864757537841797e-01</internalNodes>
      <leafValues>
        5.9303283691406250e-01 -2.5848317891359329e-02</leafValues></_>
    <_>
      <internalNodes>
        0 -1 102 9.9814264103770256e-03</internalNodes>
      <leafValues>
        -9.7024261951446533e-02 1.8325456976890564e-01</leafValues></_>
    <_>
      <internalNodes>
        0 -1 249 1.2345805168151855e+00</internalNodes>
      <leafValues>
        1.4239765703678131e-02 -8.8030803203582764e-01</leafValues></_>
    <_>
      <internalNodes>
        0 -1 344 -2.3986938595771790e-01</internalNodes>
      <leafValues>
        -6.0178488492965698e-01 2.3349873721599579e-02</leafValues></_>
    <_>
      <internalNodes>
        0 -1 262 -5.5923056602478027e-01</internalNodes>
      <leafValues>
        2.3871314525604248e-01 -6.9111920893192291e-02</leafValues></_>
    <_>
      <internalNodes>
        0 -1 215 -2.6583787798881531e-01</internalNodes>
      <leafValues>
        -1. 1.5785327181220055e-02</leafValues></_>
    <_>
      <internalNodes>
        0 -1 57 1.3244009017944336e-01</internalNodes>
      <leafValues>
        5.6334987282752991e-02 -2.5192919373512268e-01</leafValues></_>
    <_>
      <internalNodes>
        0 -1 138 2.4349330365657806e-01</internalNodes>
      <leafValues>
        -4.2506203055381775e-02 4.0820494294166565e-01</leafValues></_>
    <_>
      <internalNodes>
        0 -1 106 7.0733748376369476e-02</internalNodes>
      <leafValues>
        -1.1311315745115280e-01 1.4131847023963928e-01</leafValues></_>
    <_>
      <internalNodes>
        0 -1 89 3.5059469938278198e-01</internalNodes>
      <leafValues>
        2.5128401815891266e-02 -6.3949120044708252e-01</leafValues></_>
    <_>
      <internalNodes>
        0 -1 286 6.5731161832809448e-01</internalNodes>
      <leafValues>
        -7.5306005775928497e-02 2.1782366931438446e-01</leafValues></_>
    <_>
      <internalNodes>
        0 -1 126 -7.5667545199394226e-02</internalNodes>
      <leafValues>
        -2.1883709728717804e-01 6.1138018965721130e-02</leafValues></_>
    <_>
      <internalNodes>
        0 -1 287 -8.1601172685623169e-02</internalNodes>
      <leafValues>
        -1.4031057059764862e-01 1.0361628979444504e-01</leafValues></_>
    <_>
      <internalNodes>
        0 -1 287 -3.6816400289535522e-01</internalNodes>
      <leafValues>
        2.5083091855049133e-01 -7.8754507005214691e-02</leafValues></_>
    <_>
      <internalNodes>
        0 -1 15 1.4372994899749756e+00</internalNodes>
      <leafValues>
        5.2723847329616547e-02 -3.0004689097404480e-01</leafValues></_>
    <_>
      <internalNodes>
        0 -1 10 2.0122776031494141e+00</internalNodes>
      <leafValues>
        -2.9328431934118271e-02 6.6719520092010498e-01</leafValues></_>
    <_>
      <internalNodes>
        0 -1 413 -1.0689774155616760e-01</internalNodes>
      <leafValues>
        -3.1024941802024841e-01 4.7276925295591354e-02</leafValues></_>
    <_>
      <internalNodes>
        0 -1 388 5.9421455860137939e-01</internalNodes>
      <leafValues>
        -2.6135820895433426e-02 7.3017823696136475e-01</leafValues></_>
    <_>
      <internalNodes>
        0 -1 255 -3.3257031440734863e-01</internalNodes>
      <leafValues>
        3.1520035862922668e-01 -4.6258751302957535e-02</leafValues></_>
    <_>
      <internalNodes>
        0 -1 202 8.9635360240936279e-01</internalNodes>
      <leafValues>
        1.7471985891461372e-02 -9.1462147235870361e-01</leafValues></_>
    <_>
      <internalNodes>
        0 -1 186 -5.2689826488494873e-01</internalNodes>
      <leafValues>
        -6.6986113786697388e-01 1.6897277906537056e-02</leafValues></_>
    <_>
      <internalNodes>
        0 -1 66 4.1362855583429337e-02</internalNodes>
      <leafValues>
        -1.2609949707984924e-01 1.1967348307371140e-01</leafValues></_>
    <_>
      <internalNodes>
        0 -1 3 -1.8610449135303497e-01</internalNodes>
      <leafValues>
        -3.9160844683647156e-01 4.6054024249315262e-02</leafValues></_>
    <_>
      <internalNodes>
        0 -1 39 -2.7553549408912659e-01</internalNodes>
      <leafValues>
        3.6130777001380920e-01 -4.7470413148403168e-02</leafValues></_>
    <_>
      <internalNodes>
        0 -1 207 -6.2188434600830078e-01</internalNodes>
      <leafValues>
        -8.9742475748062134e-01 1.8148295581340790e-02</leafValues></_>
    <_>
      <internalNodes>
        0 -1 7 -8.9301222562789917e-01</internalNodes>
      <leafValues>
        -2.9518389701843262e-01 4.8311378806829453e-02</leafValues></_>
    <_>
      <internalNodes>
        0 -1 7 -2.7576264739036560e-01</internalNodes>
      <leafValues>
        1.9153520464897156e-01 -9.6834011375904083e-02</leafValues></_>
    <_>
      <internalNodes>
        0 -1 142 -1.9784723222255707e-01</internalNodes>
      <leafValues>
        2.1057698130607605e-01 -7.5893260538578033e-02</leafValues></_>
    <_>
      <internalNodes>
        0 -1 26 1.5256172046065331e-02</internalNodes>
      <leafValues>
        6.0770165175199509e-02 -2.4946266412734985e-01</leafValues></_>
    <_>
      <internalNodes>
        0 -1 283 -3.1299542635679245e-02</internalNodes>
      <leafValues>
        -1.5133178234100342e-01 9.9352218210697174e-02</leafValues></_>
    <_>
      <internalNodes>
        0 -1 405 2.8367750346660614e-02</internalNodes>
      <leafValues>
        1.1394361406564713e-01 -1.5313623845577240e-01</leafValues></_>
    <_>
      <internalNodes>
        0 -1 374 1.3182687759399414e-01</internalNodes>
      <leafValues>
        -9.6812859177589417e-02 1.9553968310356140e-01</leafValues></_>
    <_>
      <internalNodes>
        0 -1 333 1.8114680424332619e-02</internalNodes>
      <leafValues>
        -8.8990598917007446e-02 1.8522268533706665e-01</leafValues></_>
    <_>
      <internalNodes>
        0 -1 335 1.0609224438667297e-01</internalNodes>
      <leafValues>
        -6.4761936664581299e-02 3.1116446852684021e-01</leafValues></_>
    <_>
      <internalNodes>
        0 -1 332 -2.1716700494289398e-01</internalNodes>
      <leafValues>
        -6.1620903015136719e-01 3.5047639161348343e-02</leafValues></_>
    <_>
      <internalNodes>
        0 -1 84 2.2642213106155396e-01</internalNodes>
      <leafValues>
        -1.0499549657106400e-01 1.5922206640243530e-01</leafValues></_>
    <_>
      <internalNodes>
        0 -1 306 1.4050153493881226e+00</internalNodes>
      <leafValues>
        2.7368038892745972e-02 -6.8605703115463257e-01</leafValues></_>
    <_>
      <internalNodes>
        0 -1 207 3.1322056055068970e-01</internalNodes>
      <leafValues>
        4.0212765336036682e-02 -3.5037842392921448e-01</leafValues></_>
    <_>
      <internalNodes>
        0 -1 334 2.8873312473297119e-01</internalNodes>
      <leafValues>
        -4.8416979610919952e-02 3.2488569617271423e-01</leafValues></_>
    <_>
      <internalNodes>
        0 -1 392 6.3674151897430420e-01</internalNodes>
      <leafValues>
        1.7856262624263763e-02 -1.</leafValues></_>
    <_>
      <internalNodes>
        0 -1 385 -3.1236049532890320e-01</internalNodes>
      <leafValues>
        9.5658791065216064e-01 -2.1858161315321922e-02</leafValues></_>
    <_>
      <internalNodes>
        0 -1 71 2.2154554724693298e-01</internalNodes>
      <leafValues>
        6.0687873512506485e-02 -2.7303177118301392e-01</leafValues></_>
    <_>
      <internalNodes>
        0 -1 189 4.7201091051101685e-01</internalNodes>
      <leafValues>
        -3.2016862183809280e-02 5.3993493318557739e-01</leafValues></_>
    <_>
      <internalNodes>
        0 -1 28 -6.8928050994873047e-01</internalNodes>
      <leafValues>
        6.1778432130813599e-01 -3.1022107228636742e-02</leafValues></_>
    <_>
      <internalNodes>
        0 -1 403 8.7545585632324219e-01</internalNodes>
      <leafValues>
        2.0955149084329605e-02 -8.2640290260314941e-01</leafValues></_>
    <_>
      <internalNodes>
        0 -1 272 1.4457121491432190e-01</internalNodes>
      <leafValues>
        7.6718777418136597e-02 -1.6901682317256927e-01</leafValues></_>
    <_>
      <internalNodes>
        0 -1 305 3.6049699783325195e-01</internalNodes>
      <leafValues>
        -6.6541612148284912e-02 2.2933395206928253e-01</leafValues></_>
    <_>
      <internalNodes>
        0 -1 387 -2.4028321728110313e-02</internalNodes>
      <leafValues>
        -1.4647530019283295e-01 9.3770258128643036e-02</leafValues></_>
    <_>
      <internalNodes>
        0 -1 190 6.9176447391510010e-01</internalNodes>
      <leafValues>
        2.5525648146867752e-02 -6.2670230865478516e-01</leafValues></_>
    <_>
      <internalNodes>
        0 -1 160 -3.3465084433555603e-01</internalNodes>
      <leafValues>
        8.7951667606830597e-02 -1.8363142013549805e-01</leafValues></_>
    <_>
      <internalNodes>
        0 -1 315 4.0751805901527405e-01</internalNodes>
      <leafValues>
        4.9524407833814621e-02 -2.9094263911247253e-01</leafValues></_>
    <_>
      <internalNodes>
        0 -1 373 -1.8059577792882919e-02</internalNodes>
      <leafValues>
        -1.6473031044006348e-01 1.2043720483779907e-01</leafValues></_>
    <_>
      <internalNodes>
        0 -1 255 -5.4131203889846802e-01</internalNodes>
      <leafValues>
        5.2735531330108643e-01 -2.4190753698348999e-02</leafValues></_>
    <_>
      <internalNodes>
        0 -1 335 3.3233231306076050e-01</internalNodes>
      <leafValues>
        1.5854222699999809e-02 -1.</leafValues></_></weakClassifiers></stage15>
</opencv_storage>
